{"learner":{"attributes":{},"feature_names":["elo_home","elo_away","elo_diff","elo_prob","pf_roll_home","pf_roll_away","pf_roll_diff","pa_roll_home","pa_roll_away","pa_roll_diff","win_roll_home","win_roll_away","win_roll_diff","margin_roll_home","margin_roll_away","margin_roll_diff","games_in_window_home","games_in_window_away","home_rest_days","away_rest_days","home_b2b","away_b2b","rest_diff","market_prob_home","market_prob_away"],"feature_types":["float","float","float","float","float","float","float","float","float","float","float","float","float","float","float","float","float","float","float","float","int","int","float","float","float"],"gradient_booster":{"model":{"cats":{"enc":[],"feature_segments":[],"sorted_idx":[]},"gbtree_model_param":{"num_parallel_tree":"1","num_trees":"800"},"iteration_indptr":[0,1,2,3,4,5,6,7,8,9,10,11,12,13,14,15,16,17,18,19,20,21,22,23,24,25,26,27,28,29,30,31,32,33,34,35,36,37,38,39,40,41,42,43,44,45,46,47,48,49,50,51,52,53,54,55,56,57,58,59,60,61,62,63,64,65,66,67,68,69,70,71,72,73,74,75,76,77,78,79,80,81,82,83,84,85,86,87,88,89,90,91,92,93,94,95,96,97,98,99,100,101,102,103,104,105,106,107,108,109,110,111,112,113,114,115,116,117,118,119,120,121,122,123,124,125,126,127,128,129,130,131,132,133,134,135,136,137,138,139,140,141,142,143,144,145,146,147,148,149,150,151,152,153,154,155,156,157,158,159,160,161,162,163,164,165,166,167,168,169,170,171,172,173,174,175,176,177,178,179,180,181,182,183,184,185,186,187,188,189,190,191,192,193,194,195,196,197,198,199,200,201,202,203,204,205,206,207,208,209,210,211,212,213,214,215,216,217,218,219,220,221,222,223,224,225,226,227,228,229,230,231,232,233,234,235,236,237,238,239,240,241,242,243,244,245,246,247,248,249,250,251,252,253,254,255,256,257,258,259,260,261,262,263,264,265,266,267,268,269,270,271,272,273,274,275,276,277,278,279,280,281,282,283,284,285,286,287,288,289,290,291,292,293,294,295,296,297,298,299,300,301,302,303,304,305,306,307,308,309,310,311,312,313,314,315,316,317,318,319,320,321,322,323,324,325,326,327,328,329,330,331,332,333,334,335,336,337,338,339,340,341,342,343,344,345,346,347,348,349,350,351,352,353,354,355,356,357,358,359,360,361,362,363,364,365,366,367,368,369,370,371,372,373,374,375,376,377,378,379,380,381,382,383,384,385,386,387,388,389,390,391,392,393,394,395,396,397,398,399,400,401,402,403,404,405,406,407,408,409,410,411,412,413,414,415,416,417,418,419,420,421,422,423,424,425,426,427,428,429,430,431,432,433,434,435,436,437,438,439,440,441,442,443,444,445,446,447,448,449,450,451,452,453,454,455,456,457,458,459,460,461,462,463,464,465,466,467,468,469,470,471,472,473,474,475,476,477,478,479,480,481,482,483,484,485,486,487,488,489,490,491,492,493,494,495,496,497,498,499,500,501,502,503,504,505,506,507,508,509,510,511,512,513,514,515,516,517,518,519,520,521,522,523,524,525,526,527,528,529,530,531,532,533,534,535,536,537,538,539,540,541,542,543,544,545,546,547,548,549,550,551,552,553,554,555,556,557,558,559,560,561,562,563,564,565,566,567,568,569,570,571,572,573,574,575,576,577,578,579,580,581,582,583,584,585,586,587,588,589,590,591,592,593,594,595,596,597,598,599,600,601,602,603,604,605,606,607,608,609,610,611,612,613,614,615,616,617,618,619,620,621,622,623,624,625,626,627,628,629,630,631,632,633,634,635,636,637,638,639,640,641,642,643,644,645,646,647,648,649,650,651,652,653,654,655,656,657,658,659,660,661,662,663,664,665,666,667,668,669,670,671,672,673,674,675,676,677,678,679,680,681,682,683,684,685,686,687,688,689,690,691,692,693,694,695,696,697,698,699,700,701,702,703,704,705,706,707,708,709,710,711,712,713,714,715,716,717,718,719,720,721,722,723,724,725,726,727,728,729,730,731,732,733,734,735,736,737,738,739,740,741,742,743,744,745,746,747,748,749,750,751,752,753,754,755,756,757,758,759,760,761,762,763,764,765,766,767,768,769,770,771,772,773,774,775,776,777,778,779,780,781,782,783,784,785,786,787,788,789,790,791,792,793,794,795,796,797,798,799,800],"tree_info":[0,0,0,0,0,0,0,0,0,0,0,0,0,0,0,0,0,0,0,0,0,0,0,0,0,0,0,0,0,0,0,0,0,0,0,0,0,0,0,0,0,0,0,0,0,0,0,0,0,0,0,0,0,0,0,0,0,0,0,0,0,0,0,0,0,0,0,0,0,0,0,0,0,0,0,0,0,0,0,0,0,0,0,0,0,0,0,0,0,0,0,0,0,0,0,0,0,0,0,0,0,0,0,0,0,0,0,0,0,0,0,0,0,0,0,0,0,0,0,0,0,0,0,0,0,0,0,0,0,0,0,0,0,0,0,0,0,0,0,0,0,0,0,0,0,0,0,0,0,0,0,0,0,0,0,0,0,0,0,0,0,0,0,0,0,0,0,0,0,0,0,0,0,0,0,0,0,0,0,0,0,0,0,0,0,0,0,0,0,0,0,0,0,0,0,0,0,0,0,0,0,0,0,0,0,0,0,0,0,0,0,0,0,0,0,0,0,0,0,0,0,0,0,0,0,0,0,0,0,0,0,0,0,0,0,0,0,0,0,0,0,0,0,0,0,0,0,0,0,0,0,0,0,0,0,0,0,0,0,0,0,0,0,0,0,0,0,0,0,0,0,0,0,0,0,0,0,0,0,0,0,0,0,0,0,0,0,0,0,0,0,0,0,0,0,0,0,0,0,0,0,0,0,0,0,0,0,0,0,0,0,0,0,0,0,0,0,0,0,0,0,0,0,0,0,0,0,0,0,0,0,0,0,0,0,0,0,0,0,0,0,0,0,0,0,0,0,0,0,0,0,0,0,0,0,0,0,0,0,0,0,0,0,0,0,0,0,0,0,0,0,0,0,0,0,0,0,0,0,0,0,0,0,0,0,0,0,0,0,0,0,0,0,0,0,0,0,0,0,0,0,0,0,0,0,0,0,0,0,0,0,0,0,0,0,0,0,0,0,0,0,0,0,0,0,0,0,0,0,0,0,0,0,0,0,0,0,0,0,0,0,0,0,0,0,0,0,0,0,0,0,0,0,0,0,0,0,0,0,0,0,0,0,0,0,0,0,0,0,0,0,0,0,0,0,0,0,0,0,0,0,0,0,0,0,0,0,0,0,0,0,0,0,0,0,0,0,0,0,0,0,0,0,0,0,0,0,0,0,0,0,0,0,0,0,0,0,0,0,0,0,0,0,0,0,0,0,0,0,0,0,0,0,0,0,0,0,0,0,0,0,0,0,0,0,0,0,0,0,0,0,0,0,0,0,0,0,0,0,0,0,0,0,0,0,0,0,0,0,0,0,0,0,0,0,0,0,0,0,0,0,0,0,0,0,0,0,0,0,0,0,0,0,0,0,0,0,0,0,0,0,0,0,0,0,0,0,0,0,0,0,0,0,0,0,0,0,0,0,0,0,0,0,0,0,0,0,0,0,0,0,0,0,0,0,0,0,0,0,0,0,0,0,0,0,0,0,0,0,0,0,0,0,0,0,0,0,0,0,0,0,0,0,0,0,0,0,0,0,0,0,0,0,0,0,0,0,0,0,0,0,0,0,0,0,0,0,0,0,0,0,0,0,0,0,0,0,0,0,0,0,0,0,0,0,0,0,0,0,0,0,0,0,0,0,0,0,0,0,0,0,0,0,0,0,0,0,0,0,0,0,0,0,0,0,0,0,0,0,0,0,0,0,0,0,0,0,0,0,0,0,0,0,0,0,0,0,0,0,0,0,0,0,0,0,0,0,0,0,0,0,0,0,0,0,0,0,0,0,0,0,0,0,0,0,0,0,0,0,0,0,0,0,0,0,0,0,0,0,0],"trees":[{"base_weights":[2.5760497E-3,-6.336068E-1,6.2061405E-1,-1.3594899E0,-4.1572747E-1,2.9324868E-1,9.1806334E-1,-3.475077E-2,-5.4021504E-2,-1.8355452E-2,1.6798286E-4,3.8744248E-3,2.257054E-2,2.3477087E-2,3.831533E-2],"categories":[],"categories_nodes":[],"categories_segments":[],"categories_sizes":[],"default_left":[0,0,0,0,0,0,0,0,0,0,0,0,0,0,0],"id":0,"left_children":[1,3,5,7,9,11,13,-1,-1,-1,-1,-1,-1,-1,-1],"loss_changes":[1.450478E3,2.8693512E2,1.8193866E2,3.511847E1,1.1565456E2,6.712623E1,4.668164E1,0E0,0E0,0E0,0E0,0E0,0E0,0E0,0E0],"parents":[2147483647,0,0,1,1,2,2,3,3,4,4,5,5,6,6],"right_children":[2,4,6,8,10,12,14,-1,-1,-1,-1,-1,-1,-1,-1],"split_conditions":[-2.44898E0,3.9215687E-1,9.2445885E1,7.8723407E-1,5.121951E-1,7.1428573E-1,8.75E-1,-3.475077E-2,-5.4021504E-2,-1.8355452E-2,1.6798286E-4,3.8744248E-3,2.257054E-2,2.3477087E-2,3.831533E-2],"split_indices":[2,23,2,24,23,23,23,0,0,0,0,0,0,0,0],"split_type":[0,0,0,0,0,0,0,0,0,0,0,0,0,0,0],"sum_hessian":[3.6870452E3,1.8168398E3,1.8702053E3,4.1823056E2,1.3986093E3,8.912754E2,9.7892993E2,2.8976712E2,1.2846342E2,9.540582E2,4.4455106E2,6.575299E2,2.3374548E2,7.130686E2,2.6586133E2],"tree_param":{"num_deleted":"0","num_feature":"25","num_nodes":"15","size_leaf_vector":"1"}},{"base_weights":[2.504926E-4,-6.2203544E-1,6.091916E-1,-3.9943624E-1,-1.2700257E0,4.05516E-1,1.0682685E0,-1.7488716E-2,6.831051E-4,-4.6854008E-2,-2.9895525E-2,6.9017173E-3,2.2241049E-2,4.1697547E-2,2.9132651E-2],"categories":[],"categories_nodes":[],"categories_segments":[],"categories_sizes":[],"default_left":[0,0,0,0,0,0,0,0,0,0,0,0,0,0,0],"id":1,"left_children":[1,3,5,7,9,11,13,-1,-1,-1,-1,-1,-1,-1,-1],"loss_changes":[1.4023088E3,2.6349493E2,1.744527E2,1.05681854E2,3.575299E1,7.6270645E1,1.6598267E1,0E0,0E0,0E0,0E0,0E0,0E0,0E0,0E0],"parents":[2147483647,0,0,1,1,2,2,3,3,4,4,5,5,6,6],"right_children":[2,4,6,8,10,12,14,-1,-1,-1,-1,-1,-1,-1,-1],"split_conditions":[-2.44898E0,6.296296E-1,1.4911153E2,5.3488374E-1,3.125E-1,7.1428573E-1,1.25E-1,-1.7488716E-2,6.831051E-4,-4.6854008E-2,-2.9895525E-2,6.9017173E-3,2.2241049E-2,4.1697547E-2,2.9132651E-2],"split_indices":[2,24,2,23,23,23,24,0,0,0,0,0,0,0,0],"split_type":[0,0,0,0,0,0,0,0,0,0,0,0,0,0,0],"sum_hessian":[3.6986533E3,1.8292717E3,1.8693815E3,1.3627522E3,4.665196E2,1.2961919E3,5.731896E2,9.496054E2,4.131468E2,2.234433E2,2.430763E2,8.5250446E2,4.436874E2,1.2990933E2,4.4328024E2],"tree_param":{"num_deleted":"0","num_feature":"25","num_nodes":"15","size_leaf_vector":"1"}},{"base_weights":[4.0886938E-3,-5.8692926E-1,5.988052E-1,-1.0615675E0,-3.0428776E-1,2.860416E-1,8.764778E-1,-4.5176283E-2,-2.636623E-2,-4.2218138E-3,-2.3700994E-2,3.9951545E-3,2.114773E-2,3.485467E-2,2.1798652E-2],"categories":[],"categories_nodes":[],"categories_segments":[],"categories_sizes":[],"default_left":[0,0,0,0,0,0,0,0,0,0,0,0,0,0,0],"id":2,"left_children":[1,3,5,7,9,11,13,-1,-1,-1,-1,-1,-1,-1,-1],"loss_changes":[1.2974386E3,2.4804651E2,1.5953497E2,5.4733948E1,9.219224E1,5.540793E1,4.081012E1,0E0,0E0,0E0,0E0,0E0,0E0,0E0,0E0],"parents":[2147483647,0,0,1,1,2,2,3,3,4,4,5,5,6,6],"right_children":[2,4,6,8,10,12,14,-1,-1,-1,-1,-1,-1,-1,-1],"split_conditions":[5.154212E-2,-1.3295764E2,9.2445885E1,3.125E-1,5.4545456E-1,7.1428573E-1,1.9417475E-1,-4.5176283E-2,-2.636623E-2,-4.2218138E-3,-2.3700994E-2,3.9951545E-3,2.114773E-2,3.485467E-2,2.1798652E-2],"split_indices":[2,2,2,23,24,23,24,0,0,0,0,0,0,0,0],"split_type":[0,0,0,0,0,0,0,0,0,0,0,0,0,0,0],"sum_hessian":[3.6892732E3,1.850397E3,1.8388762E3,6.8959985E2,1.1607971E3,8.657485E2,9.7312775E2,1.988224E2,4.9077744E2,8.693564E2,2.914407E2,6.352384E2,2.3051006E2,3.3275937E2,6.4036835E2],"tree_param":{"num_deleted":"0","num_feature":"25","num_nodes":"15","size_leaf_vector":"1"}},{"base_weights":[-3.683312E-3,-5.5936146E-1,5.706766E-1,-1.0753537E0,-3.037654E-1,3.4336874E-1,9.153969E-1,-4.747723E-2,-2.8078686E-2,-2.5918147E-2,-5.251554E-3,5.675067E-3,2.013276E-2,2.3582896E-2,3.6442243E-2],"categories":[],"categories_nodes":[],"categories_segments":[],"categories_sizes":[],"default_left":[0,0,0,0,0,0,0,0,0,0,0,0,0,0,0],"id":3,"left_children":[1,3,5,7,9,11,13,-1,-1,-1,-1,-1,-1,-1,-1],"loss_changes":[1.1765386E3,2.4678113E2,1.4172583E2,4.2375244E1,9.029194E1,5.5157883E1,2.690216E1,0E0,0E0,0E0,0E0,0E0,0E0,0E0,0E0],"parents":[2147483647,0,0,1,1,2,2,3,3,4,4,5,5,6,6],"right_children":[2,4,6,8,10,12,14,-1,-1,-1,-1,-1,-1,-1,-1],"split_conditions":[1.3519357E0,-1.432757E2,1.2510065E2,2.631579E-1,4.651163E-1,7.1428573E-1,8.787879E-1,-4.747723E-2,-2.8078686E-2,-2.5918147E-2,-5.251554E-3,5.675067E-3,2.013276E-2,2.3582896E-2,3.6442243E-2],"split_indices":[2,2,2,23,23,23,23,0,0,0,0,0,0,0,0],"split_type":[0,0,0,0,0,0,0,0,0,0,0,0,0,0,0],"sum_hessian":[3.684368E3,1.8726522E3,1.8117157E3,6.1927167E2,1.2533805E3,1.0929939E3,7.1872186E2,1.3127031E2,4.8800134E2,2.3311812E2,1.02026245E3,7.443436E2,3.4865024E2,5.0445233E2,2.1426955E2],"tree_param":{"num_deleted":"0","num_feature":"25","num_nodes":"15","size_leaf_vector":"1"}},{"base_weights":[7.5443457E-3,-5.3837794E-1,5.740876E-1,-3.7984163E-1,-1.280833E0,2.8518525E-1,8.307146E-1,8.667157E-3,-1.4624498E-2,-3.320165E-2,-4.5712538E-2,4.3187053E-3,2.0167446E-2,3.3505406E-2,2.0453662E-2],"categories":[],"categories_nodes":[],"categories_segments":[],"categories_sizes":[],"default_left":[0,0,0,0,0,0,0,0,0,0,0,0,0,0,0],"id":4,"left_children":[1,3,5,7,9,11,13,-1,-1,-1,-1,-1,-1,-1,-1],"loss_changes":[1.1363021E3,2.1974371E2,1.334306E2,1.1122958E2,1.2220154E1,4.634828E1,3.990204E1,0E0,0E0,0E0,0E0,0E0,0E0,0E0,0E0],"parents":[2147483647,0,0,1,1,2,2,3,3,4,4,5,5,6,6],"right_children":[2,4,6,8,10,12,14,-1,-1,-1,-1,-1,-1,-1,-1],"split_conditions":[5.154212E-2,6.875E-1,9.2445885E1,4.1666666E-1,7.8723407E-1,7.1428573E-1,1.9417475E-1,8.667157E-3,-1.4624498E-2,-3.320165E-2,-4.5712538E-2,4.3187053E-3,2.0167446E-2,3.3505406E-2,2.0453662E-2],"split_indices":[2,24,2,24,24,23,24,0,0,0,0,0,0,0,0],"split_type":[0,0,0,0,0,0,0,0,0,0,0,0,0,0,0],"sum_hessian":[3.6719226E3,1.8700186E3,1.8019039E3,1.5422202E3,3.2779837E2,8.4864166E2,9.5326227E2,2.1358617E2,1.328634E3,1.9417767E2,1.336207E2,6.2277905E2,2.2586264E2,3.2408878E2,6.291735E2],"tree_param":{"num_deleted":"0","num_feature":"25","num_nodes":"15","size_leaf_vector":"1"}},{"base_weights":[-9.394529E-3,-5.482035E-1,5.325172E-1,-3.4954765E-1,-1.1254959E0,2.4739283E-1,8.0501777E-1,8.592759E-3,-1.3721747E-2,-2.900005E-2,-4.52061E-2,1.927078E-2,2.531965E-3,3.324231E-2,2.0370234E-2],"categories":[],"categories_nodes":[],"categories_segments":[],"categories_sizes":[],"default_left":[0,0,0,0,0,0,0,0,0,0,0,0,0,0,0],"id":5,"left_children":[1,3,5,7,9,11,13,-1,-1,-1,-1,-1,-1,-1,-1],"loss_changes":[1.0793237E3,2.1217499E2,1.4299109E2,9.481038E1,2.726001E1,5.8017464E1,3.521692E1,0E0,0E0,0E0,0E0,0E0,0E0,0E0,0E0],"parents":[2147483647,0,0,1,1,2,2,3,3,4,4,5,5,6,6],"right_children":[2,4,6,8,10,12,14,-1,-1,-1,-1,-1,-1,-1,-1],"split_conditions":[-2.44898E0,6.296296E-1,9.433054E1,4.1666666E-1,7.8723407E-1,3.448276E-1,1.8181819E-1,8.592759E-3,-1.3721747E-2,-2.900005E-2,-4.52061E-2,1.927078E-2,2.531965E-3,3.324231E-2,2.0370234E-2],"split_indices":[2,24,2,24,24,24,24,0,0,0,0,0,0,0,0],"split_type":[0,0,0,0,0,0,0,0,0,0,0,0,0,0,0],"sum_hessian":[3.6944797E3,1.8525374E3,1.8419423E3,1.3794509E3,4.7308643E2,9.010541E2,9.408882E2,1.9976262E2,1.1796884E3,3.3648718E2,1.3659924E2,2.6236096E2,6.386931E2,2.7403326E2,6.66855E2],"tree_param":{"num_deleted":"0","num_feature":"25","num_nodes":"15","size_leaf_vector":"1"}},{"base_weights":[-4.5809904E-3,-5.1078683E-1,5.2238446E-1,-9.3792915E-1,-2.6105368E-1,2.9284665E-1,8.6639917E-1,-4.505996E-2,-2.4885966E-2,-3.2336889E-3,-2.0481283E-2,2.1203663E-2,5.2424846E-3,3.7769962E-2,2.3499537E-2],"categories":[],"categories_nodes":[],"categories_segments":[],"categories_sizes":[],"default_left":[0,0,0,0,0,0,0,0,0,0,0,0,0,0,0],"id":6,"left_children":[1,3,5,7,9,11,13,-1,-1,-1,-1,-1,-1,-1,-1],"loss_changes":[9.7901276E2,1.994361E2,1.4173895E2,4.0958862E1,7.635556E1,5.2675476E1,2.2470215E1,0E0,0E0,0E0,0E0,0E0,0E0,0E0,0E0],"parents":[2147483647,0,0,1,1,2,2,3,3,4,4,5,5,6,6],"right_children":[2,4,6,8,10,12,14,-1,-1,-1,-1,-1,-1,-1,-1],"split_conditions":[5.154212E-2,-1.3295764E2,1.22666855E2,2.4096386E-1,5.3488374E-1,2.8985506E-1,1.1764706E-1,-4.505996E-2,-2.4885966E-2,-3.2336889E-3,-2.0481283E-2,2.1203663E-2,5.2424846E-3,3.7769962E-2,2.3499537E-2],"split_indices":[2,2,2,23,24,24,24,0,0,0,0,0,0,0,0],"split_type":[0,0,0,0,0,0,0,0,0,0,0,0,0,0,0],"sum_hessian":[3.6681094E3,1.8709221E3,1.7971873E3,6.892599E2,1.1816622E3,1.0790568E3,7.181305E2,1.09031555E2,5.8022833E2,8.675717E2,3.1409058E2,2.3841255E2,8.406443E2,1.2295477E2,5.951757E2],"tree_param":{"num_deleted":"0","num_feature":"25","num_nodes":"15","size_leaf_vector":"1"}},{"base_weights":[-1.2892678E-3,-6.4422935E-1,3.8375968E-1,-1.1096264E0,-4.500391E-1,1.1961567E-1,7.582659E-1,-4.436278E-2,-2.9606694E-2,-1.7234681E-2,6.1558577E-4,-6.2855217E-4,1.6923675E-2,1.9187044E-2,3.379368E-2],"categories":[],"categories_nodes":[],"categories_segments":[],"categories_sizes":[],"default_left":[0,0,0,0,0,0,0,0,0,0,0,0,0,0,0],"id":7,"left_children":[1,3,5,7,9,11,13,-1,-1,-1,-1,-1,-1,-1,-1],"loss_changes":[9.098198E2,1.2390839E2,2.2728879E2,1.6871185E1,5.6990036E1,8.430507E1,4.0818726E1,0E0,0E0,0E0,0E0,0E0,0E0,0E0,0E0],"parents":[2147483647,0,0,1,1,2,2,3,3,4,4,5,5,6,6],"right_children":[2,4,6,8,10,12,14,-1,-1,-1,-1,-1,-1,-1,-1],"split_conditions":[-4.9461422E1,-1.8466005E2,9.2445885E1,2.4096386E-1,5.2380955E-1,6.969697E-1,8.787879E-1,-4.436278E-2,-2.9606694E-2,-1.7234681E-2,6.1558577E-4,-6.2855217E-4,1.6923675E-2,1.9187044E-2,3.379368E-2],"split_indices":[2,2,2,23,23,23,23,0,0,0,0,0,0,0,0],"split_type":[0,0,0,0,0,0,0,0,0,0,0,0,0,0,0],"sum_hessian":[3.6730999E3,1.3755634E3,2.2975366E3,4.0359415E2,9.7196924E2,1.3480554E3,9.494812E2,9.795225E1,3.056419E2,7.685003E2,2.034689E2,1.0249014E3,3.2315405E2,7.200782E2,2.2940298E2],"tree_param":{"num_deleted":"0","num_feature":"25","num_nodes":"15","size_leaf_vector":"1"}},{"base_weights":[-1.0319462E-3,-4.8991266E-1,4.8947427E-1,-3.4176865E-1,-1.1680269E0,3.0053514E-1,8.611307E-1,-1.4812818E-2,2.053326E-3,-2.9925728E-2,-4.2469554E-2,1.0345259E-2,-1.9467924E-2,3.7457734E-2,2.304419E-2],"categories":[],"categories_nodes":[],"categories_segments":[],"categories_sizes":[],"default_left":[0,0,0,0,0,0,0,0,0,0,0,0,0,0,0],"id":8,"left_children":[1,3,5,7,9,11,13,-1,-1,-1,-1,-1,-1,-1,-1],"loss_changes":[8.8263367E2,1.847876E2,1.2875784E2,9.44498E1,1.2524963E1,5.153012E1,2.1332764E1,0E0,0E0,0E0,0E0,0E0,0E0,0E0,0E0],"parents":[2147483647,0,0,1,1,2,2,3,3,4,4,5,5,6,6],"right_children":[2,4,6,8,10,12,14,-1,-1,-1,-1,-1,-1,-1,-1],"split_conditions":[5.96007E-1,6.875E-1,7.679807E-1,5.3488374E-1,7.8723407E-1,5.121951E-1,1.1764706E-1,-1.4812818E-2,2.053326E-3,-2.9925728E-2,-4.2469554E-2,1.0345259E-2,-1.9467924E-2,3.7457734E-2,2.304419E-2],"split_indices":[3,24,3,23,24,24,24,0,0,0,0,0,0,0,0],"split_type":[0,0,0,0,0,0,0,0,0,0,0,0,0,0,0],"sum_hessian":[3.6787227E3,1.8424148E3,1.836308E3,1.5133132E3,3.291015E2,1.2186108E3,6.17697E2,1.1040408E3,4.092725E2,1.9787956E2,1.3122192E2,1.1648882E3,5.3722675E1,1.17149605E2,5.0054745E2],"tree_param":{"num_deleted":"0","num_feature":"25","num_nodes":"15","size_leaf_vector":"1"}},{"base_weights":[3.3452897E-3,-4.7466382E-1,4.9164033E-1,-3.142966E-1,-1.0169566E0,1.973499E-1,7.221638E-1,8.097674E-3,-1.2313423E-2,-2.5003117E-2,-3.7545387E-2,1.7239228E-2,1.8045754E-3,2.9778427E-2,1.7747516E-2],"categories":[],"categories_nodes":[],"categories_segments":[],"categories_sizes":[],"default_left":[0,0,0,0,0,0,0,0,0,0,0,0,0,0,0],"id":9,"left_children":[1,3,5,7,9,11,13,-1,-1,-1,-1,-1,-1,-1,-1],"loss_changes":[8.532196E2,1.6032309E2,1.22532196E2,8.0272964E1,1.708487E1,4.115126E1,3.5209045E1,0E0,0E0,0E0,0E0,0E0,0E0,0E0,0E0],"parents":[2147483647,0,0,1,1,2,2,3,3,4,4,5,5,6,6],"right_children":[2,4,6,8,10,12,14,-1,-1,-1,-1,-1,-1,-1,-1],"split_conditions":[-2.44898E0,6.4912283E-1,8.1026306E1,4.1666666E-1,7.5609756E-1,3.3898306E-1,2E-1,8.097674E-3,-1.2313423E-2,-2.5003117E-2,-3.7545387E-2,1.7239228E-2,1.8045754E-3,2.9778427E-2,1.7747516E-2],"split_indices":[2,24,2,24,24,24,24,0,0,0,0,0,0,0,0],"split_type":[0,0,0,0,0,0,0,0,0,0,0,0,0,0,0],"sum_hessian":[3.6534624E3,1.8461902E3,1.8072723E3,1.4260555E3,4.201346E2,7.946561E2,1.0126162E3,2.012767E2,1.2247789E3,2.3826599E2,1.8186864E2,2.1105879E2,5.8359735E2,3.275696E2,6.850466E2],"tree_param":{"num_deleted":"0","num_feature":"25","num_nodes":"15","size_leaf_vector":"1"}},{"base_weights":[-3.3508851E-3,-5.978019E-1,3.5950628E-1,-1.078206E0,-4.496023E-1,1.1997895E-1,7.056061E-1,-2.7716247E-2,-3.8819946E-2,-1.6973147E-2,4.6876012E-4,5.631955E-3,-1.6958015E-2,1.7230386E-2,3.00848E-2],"categories":[],"categories_nodes":[],"categories_segments":[],"categories_sizes":[],"default_left":[0,0,0,0,0,0,0,0,0,0,0,0,0,0,0],"id":10,"left_children":[1,3,5,7,9,11,13,-1,-1,-1,-1,-1,-1,-1,-1],"loss_changes":[7.850782E2,9.77348E1,1.8727798E2,9.612549E0,5.7082672E1,6.2174824E1,3.5479828E1,0E0,0E0,0E0,0E0,0E0,0E0,0E0,0E0],"parents":[2147483647,0,0,1,1,2,2,3,3,4,4,5,5,6,6],"right_children":[2,4,6,8,10,12,14,-1,-1,-1,-1,-1,-1,-1,-1],"split_conditions":[-4.9461422E1,3.5714287E-1,9.2445885E1,7.8723407E-1,5.2380955E-1,5.121951E-1,2.0434995E2,-2.7716247E-2,-3.8819946E-2,-1.6973147E-2,4.6876012E-4,5.631955E-3,-1.6958015E-2,1.7230386E-2,3.00848E-2],"split_indices":[2,23,2,24,23,24,2,0,0,0,0,0,0,0,0],"split_type":[0,0,0,0,0,0,0,0,0,0,0,0,0,0,0],"sum_hessian":[3.637666E3,1.3785719E3,2.2590942E3,3.2353268E2,1.0550393E3,1.3358981E3,9.231961E2,1.9170782E2,1.3182487E2,8.440583E2,2.1098097E2,1.2163582E3,1.1953992E2,6.4242004E2,2.8077606E2],"tree_param":{"num_deleted":"0","num_feature":"25","num_nodes":"15","size_leaf_vector":"1"}},{"base_weights":[4.962687E-3,-4.4498283E-1,4.6680093E-1,-3.121771E-1,-1.0491025E0,3.2029405E-1,8.970022E-1,-1.3848989E-2,1.5634478E-3,-3.2167878E-2,7.261208E-4,5.0917757E-3,1.854105E-2,3.515169E-2,2.3218978E-2],"categories":[],"categories_nodes":[],"categories_segments":[],"categories_sizes":[],"default_left":[0,0,0,0,0,0,0,0,0,0,0,0,0,0,0],"id":11,"left_children":[1,3,5,7,9,11,13,-1,-1,-1,-1,-1,-1,-1,-1],"loss_changes":[7.5665424E2,1.4764703E2,1.12964264E2,8.242232E1,8.277771E0,6.0054794E1,1.45034485E1,0E0,0E0,0E0,0E0,0E0,0E0,0E0,0E0],"parents":[2147483647,0,0,1,1,2,2,3,3,4,4,5,5,6,6],"right_children":[2,4,6,8,10,12,14,-1,-1,-1,-1,-1,-1,-1,-1],"split_conditions":[5.96007E-1,6.875E-1,8.039216E-1,5.121951E-1,1.186E2,6.2E0,1.25E-1,-1.3848989E-2,1.5634478E-3,-3.2167878E-2,7.261208E-4,5.0917757E-3,1.854105E-2,3.515169E-2,2.3218978E-2],"split_indices":[3,24,23,23,7,15,24,0,0,0,0,0,0,0,0],"split_type":[0,0,0,0,0,0,0,0,0,0,0,0,0,0,0],"sum_hessian":[3.6392268E3,1.8433657E3,1.7958611E3,1.5124053E3,3.309605E2,1.3409421E3,4.5491898E2,1.0722375E3,4.401677E2,3.2397076E2,6.989751E0,8.916188E2,4.493233E2,1.380814E2,3.1683755E2],"tree_param":{"num_deleted":"0","num_feature":"25","num_nodes":"15","size_leaf_vector":"1"}},{"base_weights":[-9.229596E-3,-4.4228092E-1,4.4129723E-1,-9.3865377E-1,-2.9738984E-1,2.9569188E-1,8.666408E-1,-3.812476E-2,-2.482877E-2,-1.2038379E-2,3.7954124E-3,1.0041185E-2,-1.8676402E-2,3.3877186E-2,2.2516081E-2],"categories":[],"categories_nodes":[],"categories_segments":[],"categories_sizes":[],"default_left":[0,0,0,0,0,0,0,0,0,0,0,0,0,0,0],"id":12,"left_children":[1,3,5,7,9,11,13,-1,-1,-1,-1,-1,-1,-1,-1],"loss_changes":[7.1086255E2,1.3333377E2,1.1033981E2,1.4412109E1,6.3445107E1,4.792166E1,1.3021637E1,0E0,0E0,0E0,0E0,0E0,0E0,0E0,0E0],"parents":[2147483647,0,0,1,1,2,2,3,3,4,4,5,5,6,6],"right_children":[2,4,6,8,10,12,14,-1,-1,-1,-1,-1,-1,-1,-1],"split_conditions":[5.96007E-1,3.4470183E-1,8.039216E-1,2.4096386E-1,5.833333E-1,5.121951E-1,1.25E-1,-3.812476E-2,-2.482877E-2,-1.2038379E-2,3.7954124E-3,1.0041185E-2,-1.8676402E-2,3.3877186E-2,2.2516081E-2],"split_indices":[3,3,23,23,23,24,24,0,0,0,0,0,0,0,0],"split_type":[0,0,0,0,0,0,0,0,0,0,0,0,0,0,0],"sum_hessian":[3.641557E3,1.8567993E3,1.7847576E3,4.182988E2,1.4385006E3,1.3308655E3,4.5389215E2,1.02173195E2,3.161256E2,1.1553926E3,2.83108E2,1.2772336E3,5.3631836E1,1.3648111E2,3.1741104E2],"tree_param":{"num_deleted":"0","num_feature":"25","num_nodes":"15","size_leaf_vector":"1"}},{"base_weights":[7.231331E-4,-5.600182E-1,3.46843E-1,-9.4190824E-1,-4.0401968E-1,9.942979E-2,6.6055655E-1,-3.8258858E-2,-2.4994612E-2,-2.3856996E-2,-9.447819E-3,4.9687508E-3,-1.7617276E-2,1.6200813E-2,2.9734729E-2],"categories":[],"categories_nodes":[],"categories_segments":[],"categories_sizes":[],"default_left":[0,0,0,0,0,0,0,0,0,0,0,0,0,0,0],"id":13,"left_children":[1,3,5,7,9,11,13,-1,-1,-1,-1,-1,-1,-1,-1],"loss_changes":[7.089693E2,8.2677795E1,1.7524811E2,1.357074E1,3.4311035E1,5.7550327E1,3.914206E1,0E0,0E0,0E0,0E0,0E0,0E0,0E0,0E0],"parents":[2147483647,0,0,1,1,2,2,3,3,4,4,5,5,6,6],"right_children":[2,4,6,8,10,12,14,-1,-1,-1,-1,-1,-1,-1,-1],"split_conditions":[-4.9461422E1,-1.8466005E2,8.1026306E1,2.4096386E-1,3.9215687E-1,5.2380955E-1,8.6013985E-1,-3.8258858E-2,-2.4994612E-2,-2.3856996E-2,-9.447819E-3,4.9687508E-3,-1.7617276E-2,1.6200813E-2,2.9734729E-2],"split_indices":[2,2,2,23,23,24,23,0,0,0,0,0,0,0,0],"split_type":[0,0,0,0,0,0,0,0,0,0,0,0,0,0,0],"sum_hessian":[3.6509043E3,1.3931974E3,2.257707E3,4.0259415E2,9.906032E2,1.2629702E3,9.947367E2,9.638856E1,3.0620557E2,1.8227771E2,8.083255E2,1.1526167E3,1.1035351E2,7.3090076E2,2.6383594E2],"tree_param":{"num_deleted":"0","num_feature":"25","num_nodes":"15","size_leaf_vector":"1"}},{"base_weights":[-8.08167E-3,-5.33836E-1,3.2134256E-1,-9.2976344E-1,-3.73669E-1,8.51389E-2,6.312474E-1,-3.8205218E-2,-2.4534235E-2,-1.4179826E-2,-2.5732952E-4,1.4711103E-2,-7.689072E-4,1.5462424E-2,2.780136E-2],"categories":[],"categories_nodes":[],"categories_segments":[],"categories_sizes":[],"default_left":[0,0,0,0,0,0,0,0,0,0,0,0,0,0,0],"id":14,"left_children":[1,3,5,7,9,11,13,-1,-1,-1,-1,-1,-1,-1,-1],"loss_changes":[6.288569E2,8.83475E1,1.6334825E2,1.4435669E1,3.6046112E1,5.692533E1,3.256076E1,0E0,0E0,0E0,0E0,0E0,0E0,0E0,0E0],"parents":[2147483647,0,0,1,1,2,2,3,3,4,4,5,5,6,6],"right_children":[2,4,6,8,10,12,14,-1,-1,-1,-1,-1,-1,-1,-1],"split_conditions":[-4.9461422E1,-1.8466005E2,8.276769E1,2.4096386E-1,5.121951E-1,3.448276E-1,2.0434995E2,-3.8205218E-2,-2.4534235E-2,-1.4179826E-2,-2.5732952E-4,1.4711103E-2,-7.689072E-4,1.5462424E-2,2.780136E-2],"split_indices":[2,2,2,23,23,24,2,0,0,0,0,0,0,0,0],"split_type":[0,0,0,0,0,0,0,0,0,0,0,0,0,0,0],"sum_hessian":[3.628902E3,1.3976542E3,2.231248E3,4.011701E2,9.9648413E2,1.2669087E3,9.6433936E2,9.600998E1,3.0516013E2,7.836959E2,2.1278816E2,2.7123E2,9.9567865E2,6.947252E2,2.696141E2],"tree_param":{"num_deleted":"0","num_feature":"25","num_nodes":"15","size_leaf_vector":"1"}},{"base_weights":[5.3845816E-3,-5.173294E-1,3.292537E-1,-8.981253E-1,-3.631022E-1,1.12505086E-1,6.542433E-1,-2.3612255E-2,-3.4524605E-2,-2.3153644E-2,-8.10312E-3,-9.6667405E-5,1.4334369E-2,1.6610058E-2,2.9911982E-2],"categories":[],"categories_nodes":[],"categories_segments":[],"categories_sizes":[],"default_left":[0,0,0,0,0,0,0,0,0,0,0,0,0,0,0],"id":15,"left_children":[1,3,5,7,9,11,13,-1,-1,-1,-1,-1,-1,-1,-1],"loss_changes":[6.147378E2,8.125897E1,1.5786E2,1.0312408E1,3.743399E1,5.6914703E1,3.0370361E1,0E0,0E0,0E0,0E0,0E0,0E0,0E0,0E0],"parents":[2147483647,0,0,1,1,2,2,3,3,4,4,5,5,6,6],"right_children":[2,4,6,8,10,12,14,-1,-1,-1,-1,-1,-1,-1,-1],"split_conditions":[-4.9461422E1,-1.8466005E2,9.2445885E1,7.777778E-1,3.9215687E-1,6.969697E-1,8.876405E-1,-2.3612255E-2,-3.4524605E-2,-2.3153644E-2,-8.10312E-3,-9.6667405E-5,1.4334369E-2,1.6610058E-2,2.9911982E-2],"split_indices":[2,2,2,24,23,23,23,0,0,0,0,0,0,0,0],"split_type":[0,0,0,0,0,0,0,0,0,0,0,0,0,0,0],"sum_hessian":[3.6292444E3,1.3881765E3,2.2410679E3,3.9876907E2,9.894074E2,1.3452277E3,8.958403E2,2.7988477E2,1.18884315E2,1.8205534E2,8.0735205E2,1.0223454E3,3.2288223E2,6.9466113E2,2.0117914E2],"tree_param":{"num_deleted":"0","num_feature":"25","num_nodes":"15","size_leaf_vector":"1"}},{"base_weights":[-5.1579247E-3,-3.8506028E-1,4.1226903E-1,-7.102268E-1,-1.9181214E-1,2.610062E-1,7.718103E-1,-3.0288205E-2,-1.7662859E-2,-1.9888093E-3,-1.6855327E-2,3.9392747E-3,1.556971E-2,3.3015884E-2,2.0464055E-2],"categories":[],"categories_nodes":[],"categories_segments":[],"categories_sizes":[],"default_left":[0,0,0,0,0,0,0,0,0,0,0,0,0,0,0],"id":16,"left_children":[1,3,5,7,9,11,13,-1,-1,-1,-1,-1,-1,-1,-1],"loss_changes":[5.7300476E2,1.18732605E2,9.3430145E1,2.5034515E1,5.5135395E1,4.052944E1,1.4262756E1,0E0,0E0,0E0,0E0,0E0,0E0,0E0,0E0],"parents":[2147483647,0,0,1,1,2,2,3,3,4,4,5,5,6,6],"right_children":[2,4,6,8,10,12,14,-1,-1,-1,-1,-1,-1,-1,-1],"split_conditions":[5.154212E-2,-1.3295764E2,1.4911153E2,3.125E-1,5.4545456E-1,7.1428573E-1,1.1764706E-1,-3.0288205E-2,-1.7662859E-2,-1.9888093E-3,-1.6855327E-2,3.9392747E-3,1.556971E-2,3.3015884E-2,2.0464055E-2],"split_indices":[2,2,2,23,24,23,24,0,0,0,0,0,0,0,0],"split_type":[0,0,0,0,0,0,0,0,0,0,0,0,0,0,0],"sum_hessian":[3.6113135E3,1.8906766E3,1.7206367E3,7.0378564E2,1.186891E3,1.2123248E3,5.0831192E2,2.0101718E2,5.0276846E2,8.871427E2,2.997483E2,8.07751E2,4.0457385E2,1.0653129E2,4.0178064E2],"tree_param":{"num_deleted":"0","num_feature":"25","num_nodes":"15","size_leaf_vector":"1"}},{"base_weights":[7.3963376E-3,-4.843362E-1,3.153228E-1,-5.836322E-1,3.5898414E-2,1.3317342E-1,6.505595E-1,-2.5993168E-2,-1.3299052E-2,1.5535465E-2,-2.9696499E-3,-1.3577739E-4,1.4021121E-2,1.5307688E-2,2.6554346E-2],"categories":[],"categories_nodes":[],"categories_segments":[],"categories_sizes":[],"default_left":[0,0,0,0,0,0,0,0,0,0,0,0,0,0,0],"id":17,"left_children":[1,3,5,7,9,11,13,-1,-1,-1,-1,-1,-1,-1,-1],"loss_changes":[5.444889E2,7.155087E1,1.3493817E2,4.5764374E1,1.4540216E1,6.599344E1,2.5162048E1,0E0,0E0,0E0,0E0,0E0,0E0,0E0,0E0],"parents":[2147483647,0,0,1,1,2,2,3,3,4,4,5,5,6,6],"right_children":[2,4,6,8,10,12,14,-1,-1,-1,-1,-1,-1,-1,-1],"split_conditions":[-4.9461422E1,5.121951E-1,6.2E0,-1.8466005E2,3.846154E-1,6.875E-1,1.7688686E2,-2.5993168E-2,-1.3299052E-2,1.5535465E-2,-2.9696499E-3,-1.3577739E-4,1.4021121E-2,1.5307688E-2,2.6554346E-2],"split_indices":[2,23,15,2,24,23,2,0,0,0,0,0,0,0,0],"split_type":[0,0,0,0,0,0,0,0,0,0,0,0,0,0,0],"sum_hessian":[3.5939365E3,1.3837045E3,2.210232E3,1.1618274E3,2.2187709E2,1.4330098E3,7.772222E2,3.8359558E2,7.7823175E2,4.789808E1,1.7397902E2,1.01555646E3,4.1745334E2,4.8833127E2,2.8889096E2],"tree_param":{"num_deleted":"0","num_feature":"25","num_nodes":"15","size_leaf_vector":"1"}},{"base_weights":[1.5377854E-3,-4.6971363E-1,2.99207E-1,-8.147769E-1,-3.2392237E-1,6.828328E-1,1.4427997E-1,-2.070729E-2,-3.227224E-2,-1.6675994E-2,-4.7202404E-3,1.6812705E-2,2.7823007E-2,5.7531E-4,1.3222896E-2],"categories":[],"categories_nodes":[],"categories_segments":[],"categories_sizes":[],"default_left":[0,0,0,0,0,0,0,0,0,0,0,0,0,0,0],"id":18,"left_children":[1,3,5,7,9,11,13,-1,-1,-1,-1,-1,-1,-1,-1],"loss_changes":[5.0665784E2,7.0077484E1,1.3146445E2,1.2732758E1,3.7954994E1,1.8538666E1,5.8523758E1,0E0,0E0,0E0,0E0,0E0,0E0,0E0,0E0],"parents":[2147483647,0,0,1,1,2,2,3,3,4,4,5,5,6,6],"right_children":[2,4,6,8,10,12,14,-1,-1,-1,-1,-1,-1,-1,-1],"split_conditions":[5.29523E-1,3.9215687E-1,2.8985506E-1,7.8723407E-1,-6.6E0,8.876405E-1,7.066982E-1,-2.070729E-2,-3.227224E-2,-1.6675994E-2,-4.7202404E-3,1.6812705E-2,2.7823007E-2,5.7531E-4,1.3222896E-2],"split_indices":[3,23,24,24,15,23,3,0,0,0,0,0,0,0,0],"split_type":[0,0,0,0,0,0,0,0,0,0,0,0,0,0,0],"sum_hessian":[3.609835E3,1.3972374E3,2.2125974E3,4.136379E2,9.8359955E2,6.355241E2,1.5770734E3,2.824811E2,1.311568E2,4.101617E2,5.7343787E2,4.2575052E2,2.097736E2,1.1098358E3,4.6723755E2],"tree_param":{"num_deleted":"0","num_feature":"25","num_nodes":"15","size_leaf_vector":"1"}},{"base_weights":[-2.7675992E-3,-3.223806E-1,4.139351E-1,-1.9063048E-1,-7.649416E-1,2.8263617E-1,7.6045763E-1,-7.980629E-3,1.1454736E-2,-2.8643558E-2,-1.7723028E-2,6.8935016E-3,2.38456E-2,2.9858077E-2,1.9699993E-2],"categories":[],"categories_nodes":[],"categories_segments":[],"categories_sizes":[],"default_left":[0,0,0,0,0,0,0,0,0,0,0,0,0,0,0],"id":19,"left_children":[1,3,5,7,9,11,13,-1,-1,-1,-1,-1,-1,-1,-1],"loss_changes":[4.7758685E2,1.1818202E2,7.060501E1,6.765016E1,1.4818787E1,3.042025E1,9.7561035E0,0E0,0E0,0E0,0E0,0E0,0E0,0E0,0E0],"parents":[2147483647,0,0,1,1,2,2,3,3,4,4,5,5,6,6],"right_children":[2,4,6,8,10,12,14,-1,-1,-1,-1,-1,-1,-1,-1],"split_conditions":[1.4537428E1,6.296296E-1,8.039216E-1,6.551724E-1,3.125E-1,2.0434995E2,1.25E-1,-7.980629E-3,1.1454736E-2,-2.8643558E-2,-1.7723028E-2,6.8935016E-3,2.38456E-2,2.9858077E-2,1.9699993E-2],"split_indices":[2,24,23,23,23,2,24,0,0,0,0,0,0,0,0],"split_type":[0,0,0,0,0,0,0,0,0,0,0,0,0,0,0],"sum_hessian":[3.5839265E3,2.0283774E3,1.555549E3,1.5641589E3,4.642184E2,1.1294218E3,4.261273E2,1.3826091E3,1.8154984E2,2.1997327E2,2.4424513E2,1.0250964E3,1.0432526E2,1.2798709E2,2.981402E2],"tree_param":{"num_deleted":"0","num_feature":"25","num_nodes":"15","size_leaf_vector":"1"}},{"base_weights":[8.247678E-3,-3.341293E-1,3.8913465E-1,-7.6066023E-1,-2.1930248E-1,7.471435E-1,2.603817E-1,-2.3562143E-2,8.618046E-3,6.532737E-3,-8.661185E-3,3.035327E-2,1.9292735E-2,3.8162088E-3,1.5797596E-2],"categories":[],"categories_nodes":[],"categories_segments":[],"categories_sizes":[],"default_left":[0,0,0,0,0,0,0,0,0,0,0,0,0,0,0],"id":20,"left_children":[1,3,5,7,9,11,13,-1,-1,-1,-1,-1,-1,-1,-1],"loss_changes":[4.6736758E2,9.227194E1,7.8006744E1,1.05959015E1,4.5213158E1,1.1691208E1,4.4223648E1,0E0,0E0,0E0,0E0,0E0,0E0,0E0,0E0],"parents":[2147483647,0,0,1,1,2,2,3,3,4,4,5,5,6,6],"right_children":[2,4,6,8,10,12,14,-1,-1,-1,-1,-1,-1,-1,-1],"split_conditions":[5.154212E-2,-1.8466005E2,2.3980816E-1,5.049505E-1,4.1666666E-1,1.25E-1,6.2E0,-2.3562143E-2,8.618046E-3,6.532737E-3,-8.661185E-3,3.035327E-2,1.9292735E-2,3.8162088E-3,1.5797596E-2],"split_indices":[2,2,24,23,24,24,15,0,0,0,0,0,0,0,0],"split_type":[0,0,0,0,0,0,0,0,0,0,0,0,0,0,0],"sum_hessian":[3.5819192E3,1.8863834E3,1.6955358E3,3.989258E2,1.4874576E3,4.4721436E2,1.2483214E3,3.8996808E2,8.95774E0,2.0354199E2,1.2839156E3,1.2375347E2,3.2346088E2,8.330487E2,4.1527274E2],"tree_param":{"num_deleted":"0","num_feature":"25","num_nodes":"15","size_leaf_vector":"1"}},{"base_weights":[1.1919119E-3,-3.0462772E-1,4.042045E-1,-7.5376517E-1,-1.9420302E-1,3.0030546E-1,7.912651E-1,-3.227773E-2,-1.9416353E-2,-7.5661708E-3,8.824888E-3,5.7371515E-3,1.6914478E-2,2.1394001E-2,3.3714276E-2],"categories":[],"categories_nodes":[],"categories_segments":[],"categories_sizes":[],"default_left":[0,0,0,0,0,0,0,0,0,0,0,0,0,0,0],"id":21,"left_children":[1,3,5,7,9,11,13,-1,-1,-1,-1,-1,-1,-1,-1],"loss_changes":[4.400643E2,1.0053598E2,6.171277E1,1.3043655E1,4.6268757E1,3.4842766E1,7.652954E0,0E0,0E0,0E0,0E0,0E0,0E0,0E0,0E0],"parents":[2147483647,0,0,1,1,2,2,3,3,4,4,5,5,6,6],"right_children":[2,4,6,8,10,12,14,-1,-1,-1,-1,-1,-1,-1,-1],"split_conditions":[1.3399332E1,-1.8466005E2,1.834979E2,2.4096386E-1,6.551724E-1,7.5609756E-1,9.411765E-1,-3.227773E-2,-1.9416353E-2,-7.5661708E-3,8.824888E-3,5.7371515E-3,1.6914478E-2,2.1394001E-2,3.3714276E-2],"split_indices":[2,2,2,23,23,23,23,0,0,0,0,0,0,0,0],"split_type":[0,0,0,0,0,0,0,0,0,0,0,0,0,0,0],"sum_hessian":[3.5685266E3,2.029055E3,1.5394717E3,3.992665E2,1.6297885E3,1.2150819E3,3.2438974E2,9.697364E1,3.0229288E2,1.4572019E3,1.7258664E2,8.606036E2,3.5447833E2,2.6522034E2,5.9169388E1],"tree_param":{"num_deleted":"0","num_feature":"25","num_nodes":"15","size_leaf_vector":"1"}},{"base_weights":[-1.0715183E-2,-4.3524134E-1,2.5840104E-1,-7.489878E-1,-3.087675E-1,7.596449E-2,5.591729E-1,-1.9900853E-2,-3.162954E-2,2.1025864E-3,-1.1313491E-2,1.2001263E-2,-6.4599275E-4,2.6363809E-2,1.384526E-2],"categories":[],"categories_nodes":[],"categories_segments":[],"categories_sizes":[],"default_left":[0,0,0,0,0,0,0,0,0,0,0,0,0,0,0],"id":22,"left_children":[1,3,5,7,9,11,13,-1,-1,-1,-1,-1,-1,-1,-1],"loss_changes":[4.085341E2,5.481964E1,1.20047485E2,9.702866E0,2.5673836E1,4.3088253E1,2.538272E1,0E0,0E0,0E0,0E0,0E0,0E0,0E0,0E0],"parents":[2147483647,0,0,1,1,2,2,3,3,4,4,5,5,6,6],"right_children":[2,4,6,8,10,12,14,-1,-1,-1,-1,-1,-1,-1,-1],"split_conditions":[-4.9461422E1,-1.8466005E2,9.833073E1,8.076923E-1,4.878049E-1,3.448276E-1,1.6E-1,-1.9900853E-2,-3.162954E-2,2.1025864E-3,-1.1313491E-2,1.2001263E-2,-6.4599275E-4,2.6363809E-2,1.384526E-2],"split_indices":[2,2,2,24,24,24,24,0,0,0,0,0,0,0,0],"split_type":[0,0,0,0,0,0,0,0,0,0,0,0,0,0,0],"sum_hessian":[3.5739036E3,1.3863474E3,2.1875562E3,3.9687897E2,9.8946844E2,1.3624185E3,8.251377E2,3.1243353E2,8.444541E1,1.5122295E2,8.3824554E2,3.1436853E2,1.04805E3,1.912489E2,6.338888E2],"tree_param":{"num_deleted":"0","num_feature":"25","num_nodes":"15","size_leaf_vector":"1"}},{"base_weights":[8.327579E-3,-3.124816E-1,3.414702E-1,-6.0780144E-1,-1.5910484E-1,2.1478432E-1,7.178939E-1,-2.3288727E-2,-1.408549E-2,-2.9182057E-3,-1.7309662E-2,2.582905E-3,1.4860886E-2,2.9417364E-2,1.8496085E-2],"categories":[],"categories_nodes":[],"categories_segments":[],"categories_sizes":[],"default_left":[0,0,0,0,0,0,0,0,0,0,0,0,0,0,0],"id":23,"left_children":[1,3,5,7,9,11,13,-1,-1,-1,-1,-1,-1,-1,-1],"loss_changes":[3.80967E2,8.215604E1,8.323575E1,1.4090042E1,3.0860628E1,4.7249268E1,1.1107819E1,0E0,0E0,0E0,0E0,0E0,0E0,0E0,0E0],"parents":[2147483647,0,0,1,1,2,2,3,3,4,4,5,5,6,6],"right_children":[2,4,6,8,10,12,14,-1,-1,-1,-1,-1,-1,-1,-1],"split_conditions":[-6.5905786E0,-1.432757E2,8E-1,-2.126538E2,6.226415E-1,6.2E0,1.25E-1,-2.3288727E-2,-1.408549E-2,-2.9182057E-3,-1.7309662E-2,2.582905E-3,1.4860886E-2,2.9417364E-2,1.8496085E-2],"split_indices":[2,2,23,2,24,15,24,0,0,0,0,0,0,0,0],"split_type":[0,0,0,0,0,0,0,0,0,0,0,0,0,0,0],"sum_hessian":[3.562598E3,1.8149257E3,1.7476722E3,6.193784E2,1.1955472E3,1.3087734E3,4.3889886E2,2.771181E2,3.4226035E2,1.042525E3,1.5302225E2,8.9814545E2,4.10628E2,1.1978424E2,3.191146E2],"tree_param":{"num_deleted":"0","num_feature":"25","num_nodes":"15","size_leaf_vector":"1"}},{"base_weights":[5.7960796E-4,-4.3665698E-1,2.406882E-1,-5.1859707E-1,7.894035E-2,6.313635E-2,5.3351676E-1,-2.486605E-2,-1.3189675E-2,-5.099965E-3,8.39263E-3,-1.113337E-4,1.3254784E-2,1.3449251E-2,2.553343E-2],"categories":[],"categories_nodes":[],"categories_segments":[],"categories_sizes":[],"default_left":[0,0,0,0,0,0,0,0,0,0,0,0,0,0,0],"id":24,"left_children":[1,3,5,7,9,11,13,-1,-1,-1,-1,-1,-1,-1,-1],"loss_changes":[3.7350266E2,5.332219E1,1.19369064E2,2.6292572E1,8.736359E0,3.6222008E1,2.3073883E1,0E0,0E0,0E0,0E0,0E0,0E0,0E0,0E0],"parents":[2147483647,0,0,1,1,2,2,3,3,4,4,5,5,6,6],"right_children":[2,4,6,8,10,12,14,-1,-1,-1,-1,-1,-1,-1,-1],"split_conditions":[-6.3472885E1,5.121951E-1,9.074391E1,3.125E-1,9.98E1,7.297297E-1,8.876405E-1,-2.486605E-2,-1.3189675E-2,-5.099965E-3,8.39263E-3,-1.113337E-4,1.3254784E-2,1.3449251E-2,2.553343E-2],"split_indices":[2,23,2,23,8,23,23,0,0,0,0,0,0,0,0],"split_type":[0,0,0,0,0,0,0,0,0,0,0,0,0,0,0],"sum_hessian":[3.5557004E3,1.2601517E3,2.2955486E3,1.0873425E3,1.7280913E2,1.4298176E3,8.657311E2,2.1861118E2,8.687314E2,7.722749E1,9.558164E1,1.2161324E3,2.1368518E2,6.844983E2,1.812328E2],"tree_param":{"num_deleted":"0","num_feature":"25","num_nodes":"15","size_leaf_vector":"1"}},{"base_weights":[6.090564E-4,-4.22714E-1,2.3938511E-1,-5.114275E-1,1.2799022E-1,8.006126E-2,5.551605E-1,-2.3806887E-2,-1.2604892E-2,2.108896E-3,2.4752552E-2,-3.8661773E-4,1.4104518E-2,1.2725943E-2,2.3913048E-2],"categories":[],"categories_nodes":[],"categories_segments":[],"categories_sizes":[],"default_left":[0,0,0,0,0,0,0,0,0,0,0,0,0,0,0],"id":25,"left_children":[1,3,5,7,9,11,13,-1,-1,-1,-1,-1,-1,-1,-1],"loss_changes":[3.5840524E2,6.2537796E1,1.140119E2,2.8029541E1,7.1093454E0,5.4682156E1,2.3745224E1,0E0,0E0,0E0,0E0,0E0,0E0,0E0,0E0],"parents":[2147483647,0,0,1,1,2,2,3,3,4,4,5,5,6,6],"right_children":[2,4,6,8,10,12,14,-1,-1,-1,-1,-1,-1,-1,-1],"split_conditions":[-6.0412518E1,5.2380955E-1,6.2E0,-2.126538E2,7.2602737E-1,7.297297E-1,1.7987065E2,-2.3806887E-2,-1.2604892E-2,2.108896E-3,2.4752552E-2,-3.8661773E-4,1.4104518E-2,1.2725943E-2,2.3913048E-2],"split_indices":[2,23,15,2,23,23,2,0,0,0,0,0,0,0,0],"split_type":[0,0,0,0,0,0,0,0,0,0,0,0,0,0,0],"sum_hessian":[3.543778E3,1.2777323E3,2.266046E3,1.1005198E3,1.7721257E2,1.5069639E3,7.59082E2,2.6710242E2,8.334173E2,1.6468369E2,1.252888E1,1.2177673E3,2.8919647E2,4.942813E2,2.6480066E2],"tree_param":{"num_deleted":"0","num_feature":"25","num_nodes":"15","size_leaf_vector":"1"}},{"base_weights":[-1.2776173E-4,-2.8495547E-1,3.2384428E-1,-1.9296652E-1,-7.264056E-1,2.4504314E-1,7.732773E-1,6.1439867E-3,-7.6345163E-3,-2.2281164E-2,4.140237E-4,3.2194564E-3,1.1657643E-2,2.1073889E-2,3.0562619E-2],"categories":[],"categories_nodes":[],"categories_segments":[],"categories_sizes":[],"default_left":[0,0,0,0,0,0,0,0,0,0,0,0,0,0,0],"id":26,"left_children":[1,3,5,7,9,11,13,-1,-1,-1,-1,-1,-1,-1,-1],"loss_changes":[3.2693787E2,7.642404E1,5.851628E1,3.826498E1,3.9286957E0,2.7869743E1,3.5748444E0,0E0,0E0,0E0,0E0,0E0,0E0,0E0,0E0],"parents":[2147483647,0,0,1,1,2,2,3,3,4,4,5,5,6,6],"right_children":[2,4,6,8,10,12,14,-1,-1,-1,-1,-1,-1,-1,-1],"split_conditions":[1.3519357E0,6.875E-1,8.6013985E-1,4.1666666E-1,1.186E2,8.1026306E1,9.5238096E-1,6.1439867E-3,-7.6345163E-3,-2.2281164E-2,4.140237E-4,3.2194564E-3,1.1657643E-2,2.1073889E-2,3.0562619E-2],"split_indices":[2,24,23,24,7,2,23,0,0,0,0,0,0,0,0],"split_type":[0,0,0,0,0,0,0,0,0,0,0,0,0,0,0],"sum_hessian":[3.541035E3,1.8844215E3,1.6566134E3,1.5606516E3,3.2376993E2,1.4107971E3,2.458163E2,2.0872487E2,1.3519268E3,3.167906E2,6.979335E0,7.208789E2,6.899182E2,1.9377762E2,5.2038692E1],"tree_param":{"num_deleted":"0","num_feature":"25","num_nodes":"15","size_leaf_vector":"1"}},{"base_weights":[-8.335866E-3,-2.7013147E-1,3.2683957E-1,-1.8448797E-1,-7.1585345E-1,2.2717446E-1,7.179704E-1,-1.1792135E-2,-1.9286344E-3,-1.7482685E-2,-2.7542502E-2,1.4253245E-2,3.73216E-3,2.9695157E-2,1.869507E-2],"categories":[],"categories_nodes":[],"categories_segments":[],"categories_sizes":[],"default_left":[0,0,0,0,0,0,0,0,0,0,0,0,0,0,0],"id":27,"left_children":[1,3,5,7,9,11,13,-1,-1,-1,-1,-1,-1,-1,-1],"loss_changes":[3.1078564E2,7.577812E1,6.0385452E1,4.182971E1,8.082596E0,3.1517906E1,7.500534E0,0E0,0E0,0E0,0E0,0E0,0E0,0E0,0E0],"parents":[2147483647,0,0,1,1,2,2,3,3,4,4,5,5,6,6],"right_children":[2,4,6,8,10,12,14,-1,-1,-1,-1,-1,-1,-1,-1],"split_conditions":[1.0468545E1,6.875E-1,1.834979E2,-5.9E0,7.8723407E-1,2.8985506E-1,1.1764706E-1,-1.1792135E-2,-1.9286344E-3,-1.7482685E-2,-2.7542502E-2,1.4253245E-2,3.73216E-3,2.9695157E-2,1.869507E-2],"split_indices":[2,24,2,15,24,24,24,0,0,0,0,0,0,0,0],"split_type":[0,0,0,0,0,0,0,0,0,0,0,0,0,0,0],"sum_hessian":[3.5398135E3,1.987573E3,1.5522404E3,1.6684093E3,3.1916357E2,1.2382893E3,3.1395105E2,6.091251E2,1.0592843E3,1.948229E2,1.2434067E2,3.6180368E2,8.764857E2,7.873013E1,2.3522092E2],"tree_param":{"num_deleted":"0","num_feature":"25","num_nodes":"15","size_leaf_vector":"1"}},{"base_weights":[5.796659E-3,-2.5011954E-1,3.5289064E-1,-5.4733664E-1,-1.217894E-1,2.4085236E-1,6.6869414E-1,-2.7081937E-2,-1.4291952E-2,-3.6777437E-4,-1.2538967E-2,3.4281602E-3,1.3920378E-2,2.7931754E-2,1.6809512E-2],"categories":[],"categories_nodes":[],"categories_segments":[],"categories_sizes":[],"default_left":[0,0,0,0,0,0,0,0,0,0,0,0,0,0,0],"id":28,"left_children":[1,3,5,7,9,11,13,-1,-1,-1,-1,-1,-1,-1,-1],"loss_changes":[3.114196E2,7.690464E1,5.248372E1,1.4905319E1,4.575979E1,3.10145E1,1.0541214E1,0E0,0E0,0E0,0E0,0E0,0E0,0E0,0E0],"parents":[2147483647,0,0,1,1,2,2,3,3,4,4,5,5,6,6],"right_children":[2,4,6,8,10,12,14,-1,-1,-1,-1,-1,-1,-1,-1],"split_conditions":[1.4537428E1,-1.432757E2,8.039216E-1,2.4096386E-1,5.2380955E-1,6.2E0,1.25E-1,-2.7081937E-2,-1.4291952E-2,-3.6777437E-4,-1.2538967E-2,3.4281602E-3,1.3920378E-2,2.7931754E-2,1.6809512E-2],"split_indices":[2,2,23,23,24,15,24,0,0,0,0,0,0,0,0],"split_type":[0,0,0,0,0,0,0,0,0,0,0,0,0,0,0],"sum_hessian":[3.5039185E3,2.0170239E3,1.4868945E3,6.072792E2,1.4097448E3,1.0988248E3,3.8806976E2,9.9095184E1,5.08184E2,1.0299104E3,3.7983444E2,7.020959E2,3.9672888E2,1.1122351E2,2.7684625E2],"tree_param":{"num_deleted":"0","num_feature":"25","num_nodes":"15","size_leaf_vector":"1"}},{"base_weights":[1.3800745E-4,-2.4867079E-1,3.23806E-1,-6.3090885E-1,-1.5532276E-1,2.0736921E-1,5.88899E-1,-1.9640597E-2,1.2600018E-2,-6.1904513E-3,8.8989055E-3,7.065075E-3,-1.9658962E-2,2.8352223E-2,1.516406E-2],"categories":[],"categories_nodes":[],"categories_segments":[],"categories_sizes":[],"default_left":[0,0,0,0,0,0,0,0,0,0,0,0,0,0,0],"id":29,"left_children":[1,3,5,7,9,11,13,-1,-1,-1,-1,-1,-1,-1,-1],"loss_changes":[2.8305023E2,7.0807335E1,4.7029236E1,1.0013367E1,3.6923885E1,2.5951447E1,1.3359497E1,0E0,0E0,0E0,0E0,0E0,0E0,0E0,0E0],"parents":[2147483647,0,0,1,1,2,2,3,3,4,4,5,5,6,6],"right_children":[2,4,6,8,10,12,14,-1,-1,-1,-1,-1,-1,-1,-1],"split_conditions":[1.0468545E1,-1.8466005E2,1.4911153E2,5.3488374E-1,6.551724E-1,5.2380955E-1,1.1764706E-1,-1.9640597E-2,1.2600018E-2,-6.1904513E-3,8.8989055E-3,7.065075E-3,-1.9658962E-2,2.8352223E-2,1.516406E-2],"split_indices":[2,2,2,23,23,24,24,0,0,0,0,0,0,0,0],"split_type":[0,0,0,0,0,0,0,0,0,0,0,0,0,0,0],"sum_hessian":[3.512779E3,1.9861925E3,1.5265864E3,3.8871948E2,1.597473E3,1.061935E3,4.6465146E2,3.8048767E2,8.231827E0,1.4359026E3,1.6157039E2,1.029101E3,3.2834015E1,8.62236E1,3.7842786E2],"tree_param":{"num_deleted":"0","num_feature":"25","num_nodes":"15","size_leaf_vector":"1"}},{"base_weights":[-6.0409727E-4,-2.1742971E-1,3.3586472E-1,-1.1142348E-1,-5.9511244E-1,1.8335004E-1,5.7297605E-1,-5.1015993E-3,8.7406E-3,-1.4843363E-2,-2.6108012E-2,1.1930204E-2,3.0834614E-3,2.7144412E-2,1.4948745E-2],"categories":[],"categories_nodes":[],"categories_segments":[],"categories_sizes":[],"default_left":[0,0,0,0,0,0,0,0,0,0,0,0,0,0,0],"id":30,"left_children":[1,3,5,7,9,11,13,-1,-1,-1,-1,-1,-1,-1,-1],"loss_changes":[2.56332E2,8.547857E1,4.9687653E1,3.9477097E1,1.2490845E1,1.445352E1,1.2894882E1,0E0,0E0,0E0,0E0,0E0,0E0,0E0,0E0],"parents":[2147483647,0,0,1,1,2,2,3,3,4,4,5,5,6,6],"right_children":[2,4,6,8,10,12,14,-1,-1,-1,-1,-1,-1,-1,-1],"split_conditions":[2.6771E1,6.296296E-1,1.3580928E2,6.551724E-1,7.8723407E-1,2.8985506E-1,1.25E-1,-5.1015993E-3,8.7406E-3,-1.4843363E-2,-2.6108012E-2,1.1930204E-2,3.0834614E-3,2.7144412E-2,1.4948745E-2],"split_indices":[2,24,2,23,24,24,24,0,0,0,0,0,0,0,0],"split_type":[0,0,0,0,0,0,0,0,0,0,0,0,0,0,0],"sum_hessian":[3.511559E3,2.1356606E3,1.3758983E3,1.6686163E3,4.6704443E2,8.383977E2,5.375007E2,1.4570936E3,2.1152269E2,3.4429672E2,1.2274771E2,2.2798534E2,6.1041235E2,9.670531E1,4.4079535E2],"tree_param":{"num_deleted":"0","num_feature":"25","num_nodes":"15","size_leaf_vector":"1"}},{"base_weights":[5.7206308E-3,-2.0778798E-1,3.3975372E-1,-5.1447713E-1,-9.03946E-2,2.4519715E-1,6.7198354E-1,-2.2229273E-2,-1.159663E-2,-1.2626879E-2,-5.1316514E-4,1.3327129E-2,4.5455513E-3,2.8363893E-2,1.7470168E-2],"categories":[],"categories_nodes":[],"categories_segments":[],"categories_sizes":[],"default_left":[0,0,0,0,0,0,0,0,0,0,0,0,0,0,0],"id":31,"left_children":[1,3,5,7,9,11,13,-1,-1,-1,-1,-1,-1,-1,-1],"loss_changes":[2.5070586E2,7.7164154E1,4.2896423E1,1.6907928E1,3.758827E1,1.9858086E1,6.8806915E0,0E0,0E0,0E0,0E0,0E0,0E0,0E0,0E0],"parents":[2147483647,0,0,1,1,2,2,3,3,4,4,5,5,6,6],"right_children":[2,4,6,8,10,12,14,-1,-1,-1,-1,-1,-1,-1,-1],"split_conditions":[2.6771E1,4.651163E-1,1.834979E2,3.125E-1,-1.3871228E2,2.8985506E-1,1.1764706E-1,-2.2229273E-2,-1.159663E-2,-1.2626879E-2,-5.1316514E-4,1.3327129E-2,4.5455513E-3,2.8363893E-2,1.7470168E-2],"split_indices":[2,23,2,23,2,24,24,0,0,0,0,0,0,0,0],"split_type":[0,0,0,0,0,0,0,0,0,0,0,0,0,0,0],"sum_hessian":[3.5132876E3,2.1435457E3,1.3697422E3,5.9243414E2,1.5511115E3,1.0676222E3,3.0211996E2,2.1209993E2,3.8033423E2,2.806702E2,1.2704413E3,3.4047287E2,7.271493E2,7.2227646E1,2.2989232E2],"tree_param":{"num_deleted":"0","num_feature":"25","num_nodes":"15","size_leaf_vector":"1"}},{"base_weights":[-3.8093037E-3,-3.2533357E-1,2.0523565E-1,-3.9608988E-1,4.022905E-2,5.890123E-2,4.456937E-1,-1.049446E-2,-2.3666399E-2,-5.8802734E-3,6.6137374E-3,3.4133715E-3,-1.3784808E-2,1.0889452E-2,2.277754E-2],"categories":[],"categories_nodes":[],"categories_segments":[],"categories_sizes":[],"default_left":[0,0,0,0,0,0,0,0,0,0,0,0,0,0,0],"id":32,"left_children":[1,3,5,7,9,11,13,-1,-1,-1,-1,-1,-1,-1,-1],"loss_changes":[2.3382094E2,3.5468964E1,7.415426E1,2.059877E1,9.545579E0,3.7369095E1,2.0405594E1,0E0,0E0,0E0,0E0,0E0,0E0,0E0,0E0],"parents":[2147483647,0,0,1,1,2,2,3,3,4,4,5,5,6,6],"right_children":[2,4,6,8,10,12,14,-1,-1,-1,-1,-1,-1,-1,-1],"split_conditions":[-4.9461422E1,5.121951E-1,9.2445885E1,7.8723407E-1,9.97E1,5.121951E-1,8.876405E-1,-1.049446E-2,-2.3666399E-2,-5.8802734E-3,6.6137374E-3,3.4133715E-3,-1.3784808E-2,1.0889452E-2,2.277754E-2],"split_indices":[2,23,2,24,8,24,23,0,0,0,0,0,0,0,0],"split_type":[0,0,0,0,0,0,0,0,0,0,0,0,0,0,0],"sum_hessian":[3.4768108E3,1.3696488E3,2.107162E3,1.1474677E3,2.2218108E2,1.3107377E3,7.9642444E2,1.0282235E3,1.1924424E2,9.611244E1,1.2606863E2,1.1859702E3,1.2476753E2,6.318968E2,1.6452765E2],"tree_param":{"num_deleted":"0","num_feature":"25","num_nodes":"15","size_leaf_vector":"1"}},{"base_weights":[1.0922521E-3,-3.1416625E-1,2.0437177E-1,-3.8788617E-1,6.476435E-2,1.1878048E-1,5.89504E-1,-2.0841194E-2,-9.5608635E-3,-5.097816E-3,7.460599E-3,4.8389975E-3,-1.2320116E-2,1.3740382E-2,2.3504263E-2],"categories":[],"categories_nodes":[],"categories_segments":[],"categories_sizes":[],"default_left":[0,0,0,0,0,0,0,0,0,0,0,0,0,0,0],"id":33,"left_children":[1,3,5,7,9,11,13,-1,-1,-1,-1,-1,-1,-1,-1],"loss_changes":[2.2359615E2,3.8233765E1,6.98544E1,2.4089462E1,9.694726E0,3.9164726E1,9.47229E0,0E0,0E0,0E0,0E0,0E0,0E0,0E0,0E0],"parents":[2147483647,0,0,1,1,2,2,3,3,4,4,5,5,6,6],"right_children":[2,4,6,8,10,12,14,-1,-1,-1,-1,-1,-1,-1,-1],"split_conditions":[-4.9461422E1,5.121951E-1,8.039216E-1,3.125E-1,9.97E1,5.121951E-1,8.947368E-1,-2.0841194E-2,-9.5608635E-3,-5.097816E-3,7.460599E-3,4.8389975E-3,-1.2320116E-2,1.3740382E-2,2.3504263E-2],"split_indices":[2,23,23,23,8,24,23,0,0,0,0,0,0,0,0],"split_type":[0,0,0,0,0,0,0,0,0,0,0,0,0,0,0],"sum_hessian":[3.4870215E3,1.3667833E3,2.120238E3,1.1441655E3,2.2261789E2,1.7357874E3,3.844507E2,2.0887712E2,9.352884E2,9.784289E1,1.2477501E2,1.6073951E3,1.2839221E2,2.3113074E2,1.5331996E2],"tree_param":{"num_deleted":"0","num_feature":"25","num_nodes":"15","size_leaf_vector":"1"}},{"base_weights":[4.076456E-3,-2.9731143E-1,1.9875582E-1,-5.552946E-1,-1.9654499E-1,9.423839E-2,5.1354504E-1,-2.5656695E-2,-1.3946123E-2,1.4002193E-2,-6.7954273E-3,4.0403926E-3,-1.1332647E-2,2.6616426E-2,1.3249093E-2],"categories":[],"categories_nodes":[],"categories_segments":[],"categories_sizes":[],"default_left":[0,0,0,0,0,0,0,0,0,0,0,0,0,0,0],"id":34,"left_children":[1,3,5,7,9,11,13,-1,-1,-1,-1,-1,-1,-1,-1],"loss_changes":[2.0379192E2,3.532563E1,6.937926E1,9.9711685E0,1.9621391E1,3.0313679E1,1.3735611E1,0E0,0E0,0E0,0E0,0E0,0E0,0E0,0E0],"parents":[2147483647,0,0,1,1,2,2,3,3,4,4,5,5,6,6],"right_children":[2,4,6,8,10,12,14,-1,-1,-1,-1,-1,-1,-1,-1],"split_conditions":[-4.9461422E1,-1.8466005E2,1.3580928E2,2.4096386E-1,3.846154E-1,5.121951E-1,1.1764706E-1,-2.5656695E-2,-1.3946123E-2,1.4002193E-2,-6.7954273E-3,4.0403926E-3,-1.1332647E-2,2.6616426E-2,1.3249093E-2],"split_indices":[2,2,2,23,24,24,24,0,0,0,0,0,0,0,0],"split_type":[0,0,0,0,0,0,0,0,0,0,0,0,0,0,0],"sum_hessian":[3.471285E3,1.3620833E3,2.1092017E3,3.813182E2,9.807651E2,1.5844321E3,5.247694E2,8.6371765E1,2.9494644E2,4.1768276E1,9.389968E2,1.460047E3,1.2438517E2,8.285896E1,4.4191043E2],"tree_param":{"num_deleted":"0","num_feature":"25","num_nodes":"15","size_leaf_vector":"1"}},{"base_weights":[3.327497E-3,-3.075236E-1,1.9221056E-1,-3.7875256E-1,9.769695E-2,1.124909E-1,5.5764693E-1,-1.852729E-2,-9.126943E-3,-2.3082003E-2,4.1934107E-3,4.577846E-3,-1.056279E-2,1.5146609E-2,2.8156025E-2],"categories":[],"categories_nodes":[],"categories_segments":[],"categories_sizes":[],"default_left":[0,0,0,0,0,0,0,0,0,0,0,0,0,0,0],"id":35,"left_children":[1,3,5,7,9,11,13,-1,-1,-1,-1,-1,-1,-1,-1],"loss_changes":[2.0512335E2,3.8149963E1,6.3245193E1,1.9803207E1,7.340048E0,3.3314827E1,7.341568E0,0E0,0E0,0E0,0E0,0E0,0E0,0E0,0E0],"parents":[2147483647,0,0,1,1,2,2,3,3,4,4,5,5,6,6],"right_children":[2,4,6,8,10,12,14,-1,-1,-1,-1,-1,-1,-1,-1],"split_conditions":[-5.566089E1,5.121951E-1,8.039216E-1,-2.126538E2,-1.03E1,5.121951E-1,9.5238096E-1,-1.852729E-2,-9.126943E-3,-2.3082003E-2,4.1934107E-3,4.577846E-3,-1.056279E-2,1.5146609E-2,2.8156025E-2],"split_indices":[2,23,23,2,13,24,23,0,0,0,0,0,0,0,0],"split_type":[0,0,0,0,0,0,0,0,0,0,0,0,0,0,0],"sum_hessian":[3.491565E3,1.3194591E3,2.1721057E3,1.1222563E3,1.9720285E2,1.7841932E3,3.8791254E2,2.6516702E2,8.5708923E2,8.327995E0,1.8887485E2,1.6430342E3,1.4115898E2,3.4275955E2,4.515297E1],"tree_param":{"num_deleted":"0","num_feature":"25","num_nodes":"15","size_leaf_vector":"1"}},{"base_weights":[-1.00434E-2,-2.2159868E-1,2.6218858E-1,3.640053E-1,-2.8382215E-1,1.446866E-1,5.1909363E-1,1.7339064E-2,1.702358E-3,-1.7626328E-2,-6.098097E-3,5.457017E-3,-7.92489E-3,2.7510146E-2,1.3162632E-2],"categories":[],"categories_nodes":[],"categories_segments":[],"categories_sizes":[],"default_left":[0,0,0,0,0,0,0,0,0,0,0,0,0,0,0],"id":36,"left_children":[1,3,5,7,9,11,13,-1,-1,-1,-1,-1,-1,-1,-1],"loss_changes":[2.0003383E2,7.131932E1,4.577417E1,1.2337288E1,4.311766E1,1.5925854E1,1.48233795E1,0E0,0E0,0E0,0E0,0E0,0E0,0E0,0E0],"parents":[2147483647,0,0,1,1,2,2,3,3,4,4,5,5,6,6],"right_children":[2,4,6,8,10,12,14,-1,-1,-1,-1,-1,-1,-1,-1],"split_conditions":[6E-1,3.6363637E-1,1.3580928E2,3.5E0,-1.8466005E2,5.121951E-1,1.1764706E-1,1.7339064E-2,1.702358E-3,-1.7626328E-2,-6.098097E-3,5.457017E-3,-7.92489E-3,2.7510146E-2,1.3162632E-2],"split_indices":[15,24,2,9,2,24,24,0,0,0,0,0,0,0,0],"split_type":[0,0,0,0,0,0,0,0,0,0,0,0,0,0,0],"sum_hessian":[3.4712761E3,1.9534268E3,1.5178494E3,1.8715974E2,1.7662671E3,1.042568E3,4.7528143E2,1.09810844E2,7.73489E1,3.6892853E2,1.3973385E3,9.560979E2,8.647006E1,7.809107E1,3.9719034E2],"tree_param":{"num_deleted":"0","num_feature":"25","num_nodes":"15","size_leaf_vector":"1"}},{"base_weights":[2.9636938E-3,-1.9529931E-1,2.5590152E-1,-4.988688E-1,-9.323471E-2,1.1124801E-1,4.353209E-1,-2.0547561E-2,-1.1232147E-2,1.2497728E-2,-4.10184E-3,4.5984085E-3,-7.5159413E-3,1.035844E-2,1.9307377E-2],"categories":[],"categories_nodes":[],"categories_segments":[],"categories_sizes":[],"default_left":[0,0,0,0,0,0,0,0,0,0,0,0,0,0,0],"id":37,"left_children":[1,3,5,7,9,11,13,-1,-1,-1,-1,-1,-1,-1,-1],"loss_changes":[1.7349554E2,6.004483E1,3.9406525E1,1.1038597E1,3.226869E1,1.2857258E1,1.2495392E1,0E0,0E0,0E0,0E0,0E0,0E0,0E0,0E0],"parents":[2147483647,0,0,1,1,2,2,3,3,4,4,5,5,6,6],"right_children":[2,4,6,8,10,12,14,-1,-1,-1,-1,-1,-1,-1,-1],"split_conditions":[6E-1,-1.5804358E2,9.433054E1,1.3669915E3,3.1746033E-1,5.121951E-1,2.0719781E2,-2.0547561E-2,-1.1232147E-2,1.2497728E-2,-4.10184E-3,4.5984085E-3,-7.5159413E-3,1.035844E-2,1.9307377E-2],"split_indices":[15,2,2,0,24,24,2,0,0,0,0,0,0,0,0],"split_type":[0,0,0,0,0,0,0,0,0,0,0,0,0,0,0],"sum_hessian":[3.457659E3,1.9384503E3,1.5192087E3,4.8676962E2,1.4516807E3,8.4199005E2,6.772186E2,1.9330792E2,2.934617E2,1.1343416E2,1.3382466E3,7.548646E2,8.712544E1,4.7465958E2,2.0255905E2],"tree_param":{"num_deleted":"0","num_feature":"25","num_nodes":"15","size_leaf_vector":"1"}},{"base_weights":[-4.864288E-3,-2.8935644E-1,1.6858779E-1,-3.597582E-1,9.974524E-2,7.224017E-2,4.7218153E-1,-2.1718664E-2,-9.680947E-3,4.2196144E-3,-3.2208588E-2,-1.60593E-2,2.9901036E-3,6.39359E-4,1.5641473E-2],"categories":[],"categories_nodes":[],"categories_segments":[],"categories_sizes":[],"default_left":[0,0,0,0,0,0,0,0,0,0,0,0,0,0,0],"id":38,"left_children":[1,3,5,7,9,11,13,-1,-1,-1,-1,-1,-1,-1,-1],"loss_changes":[1.7078946E2,3.5946457E1,6.2859463E1,1.4752075E1,9.829502E0,2.7273483E1,1.1475449E1,0E0,0E0,0E0,0E0,0E0,0E0,0E0,0E0],"parents":[2147483647,0,0,1,1,2,2,3,3,4,4,5,5,6,6],"right_children":[2,4,6,8,10,12,14,-1,-1,-1,-1,-1,-1,-1,-1],"split_conditions":[-5.566089E1,5.121951E-1,1.3333803E2,2.4096386E-1,1.5882612E3,4.7619048E-1,1.3E0,-2.1718664E-2,-9.680947E-3,4.2196144E-3,-3.2208588E-2,-1.60593E-2,2.9901036E-3,6.39359E-4,1.5641473E-2],"split_indices":[2,23,2,23,0,23,15,0,0,0,0,0,0,0,0],"split_type":[0,0,0,0,0,0,0,0,0,0,0,0,0,0,0],"sum_hessian":[3.459088E3,1.3099194E3,2.1491685E3,1.1092871E3,2.0063235E2,1.632364E3,5.168044E2,1.0074143E2,1.0085457E3,1.9472357E2,5.90878E0,6.971523E1,1.5626488E3,5.0988335E1,4.6581604E2],"tree_param":{"num_deleted":"0","num_feature":"25","num_nodes":"15","size_leaf_vector":"1"}},{"base_weights":[-5.524289E-3,-2.1030231E-1,2.3541725E-1,3.2675743E-1,-2.6292744E-1,9.262703E-2,4.2547485E-1,1.6829565E-2,-1.5328017E-3,-1.6011495E-2,-5.7008835E-3,6.611021E-4,7.891006E-3,1.01195555E-2,1.897512E-2],"categories":[],"categories_nodes":[],"categories_segments":[],"categories_sizes":[],"default_left":[0,0,0,0,0,0,0,0,0,0,0,0,0,0,0],"id":39,"left_children":[1,3,5,7,9,11,13,-1,-1,-1,-1,-1,-1,-1,-1],"loss_changes":[1.6967963E2,5.262677E1,4.283941E1,1.4751097E1,3.3331375E1,1.0862085E1,1.2152344E1,0E0,0E0,0E0,0E0,0E0,0E0,0E0,0E0],"parents":[2147483647,0,0,1,1,2,2,3,3,4,4,5,5,6,6],"right_children":[2,4,6,8,10,12,14,-1,-1,-1,-1,-1,-1,-1,-1],"split_conditions":[1E-1,3.6363637E-1,9.632586E1,4E0,-1.8466005E2,6.2E0,2.0719781E2,1.6829565E-2,-1.5328017E-3,-1.6011495E-2,-5.7008835E-3,6.611021E-4,7.891006E-3,1.01195555E-2,1.897512E-2],"split_indices":[15,24,2,9,2,15,2,0,0,0,0,0,0,0,0],"split_type":[0,0,0,0,0,0,0,0,0,0,0,0,0,0,0],"sum_hessian":[3.437016E3,1.8580083E3,1.5790079E3,1.65349E2,1.6926593E3,9.0247E2,6.76538E2,1.01774666E2,6.3574337E1,3.5768192E2,1.3349773E3,6.389263E2,2.6354367E2,4.7633588E2,2.0020215E2],"tree_param":{"num_deleted":"0","num_feature":"25","num_nodes":"15","size_leaf_vector":"1"}},{"base_weights":[-9.078904E-4,-1.8803637E-1,2.5414485E-1,-2.3918602E-1,3.1240967E-1,8.496052E-2,4.3167347E-1,-1.6292082E-2,-5.0725853E-3,2.483126E-2,6.0193124E-3,3.7743996E-3,-7.0962883E-3,1.0415567E-2,1.937948E-2],"categories":[],"categories_nodes":[],"categories_segments":[],"categories_sizes":[],"default_left":[0,0,0,0,0,0,0,0,0,0,0,0,0,0,0],"id":40,"left_children":[1,3,5,7,9,11,13,-1,-1,-1,-1,-1,-1,-1,-1],"loss_changes":[1.6446185E2,5.0952057E1,4.376229E1,3.833381E1,1.0473776E1,9.853226E0,1.2655563E1,0E0,0E0,0E0,0E0,0E0,0E0,0E0,0E0],"parents":[2147483647,0,0,1,1,2,2,3,3,4,4,5,5,6,6],"right_children":[2,4,6,8,10,12,14,-1,-1,-1,-1,-1,-1,-1,-1],"split_conditions":[9E-1,6.875E-1,8.276769E1,-1.9149911E2,-8.1E0,5.121951E-1,2.0719781E2,-1.6292082E-2,-5.0725853E-3,2.483126E-2,6.0193124E-3,3.7743996E-3,-7.0962883E-3,1.0415567E-2,1.937948E-2],"split_indices":[15,23,2,2,6,24,2,0,0,0,0,0,0,0,0],"split_type":[0,0,0,0,0,0,0,0,0,0,0,0,0,0,0],"sum_hessian":[3.4438398E3,1.9865787E3,1.4572611E3,1.8028363E3,1.8374245E2,7.469235E2,7.1033765E2,3.3666104E2,1.4661753E3,3.1607899E1,1.5213455E2,6.6325385E2,8.366966E1,5.1136172E2,1.9897594E2],"tree_param":{"num_deleted":"0","num_feature":"25","num_nodes":"15","size_leaf_vector":"1"}},{"base_weights":[5.907558E-4,-1.648079E-1,2.668789E-1,-4.0991527E-1,-7.1736224E-2,5.759341E-1,1.9336012E-1,-1.0240679E-2,-2.0592071E-2,-1.1854058E-2,-1.15152354E-4,1.9203968E-2,5.6024217E-3,4.8868144E-3,2.166219E-2],"categories":[],"categories_nodes":[],"categories_segments":[],"categories_sizes":[],"default_left":[0,0,0,0,0,0,0,0,0,0,0,0,0,0,0],"id":41,"left_children":[1,3,5,7,9,11,13,-1,-1,-1,-1,-1,-1,-1,-1],"loss_changes":[1.5153133E2,4.838516E1,2.9839943E1,1.0833374E1,3.3800953E1,6.1969757E0,1.70597E1,0E0,0E0,0E0,0E0,0E0,0E0,0E0,0E0],"parents":[2147483647,0,0,1,1,2,2,3,3,4,4,5,5,6,6],"right_children":[2,4,6,8,10,12,14,-1,-1,-1,-1,-1,-1,-1,-1],"split_conditions":[2.6771E1,4.651163E-1,1.9417475E-1,7.8723407E-1,-8.8E0,1.4802698E3,1.45E1,-1.0240679E-2,-2.0592071E-2,-1.1854058E-2,-1.15152354E-4,1.9203968E-2,5.6024217E-3,4.8868144E-3,2.166219E-2],"split_indices":[2,23,24,24,15,1,15,0,0,0,0,0,0,0,0],"split_type":[0,0,0,0,0,0,0,0,0,0,0,0,0,0,0],"sum_hessian":[3.4384778E3,2.121277E3,1.3172007E3,5.828687E2,1.5384084E3,2.518116E2,1.0653892E3,4.6884564E2,1.1402306E2,2.6610828E2,1.2723002E3,2.1560217E2,3.620942E1,1.00857935E3,5.68098E1],"tree_param":{"num_deleted":"0","num_feature":"25","num_nodes":"15","size_leaf_vector":"1"}},{"base_weights":[9.435675E-3,-1.482957E-1,2.6525623E-1,-4.4068804E-1,-7.974201E-2,4.9050498E-1,1.7755978E-1,-1.7073566E-2,-9.2276335E-3,-3.7872687E-3,7.284E-3,2.3394443E-2,1.207673E-2,9.912278E-3,-5.4269034E-4],"categories":[],"categories_nodes":[],"categories_segments":[],"categories_sizes":[],"default_left":[0,0,0,0,0,0,0,0,0,0,0,0,0,0,0],"id":42,"left_children":[1,3,5,7,9,11,13,-1,-1,-1,-1,-1,-1,-1,-1],"loss_changes":[1.3830861E2,4.246651E1,2.5736923E1,6.7052383E0,2.5810665E1,8.992996E0,2.8192324E1,0E0,0E0,0E0,0E0,0E0,0E0,0E0,0E0],"parents":[2147483647,0,0,1,1,2,2,3,3,4,4,5,5,6,6],"right_children":[2,4,6,8,10,12,14,-1,-1,-1,-1,-1,-1,-1,-1],"split_conditions":[6.357717E-1,3.9215687E-1,2.4390244E-1,3.125E-1,6.551724E-1,1.1764706E-1,5.121951E-1,-1.7073566E-2,-9.2276335E-3,-3.7872687E-3,7.284E-3,2.3394443E-2,1.207673E-2,9.912278E-3,-5.4269034E-4],"split_indices":[3,23,24,23,23,24,23,0,0,0,0,0,0,0,0],"split_type":[0,0,0,0,0,0,0,0,0,0,0,0,0,0,0],"sum_hessian":[3.4256692E3,2.119357E3,1.3063124E3,4.014938E2,1.717863E3,3.6478003E2,9.415323E2,2.0266388E2,1.9882994E2,1.5019398E3,2.1592325E2,8.320468E1,2.8157535E2,5.281954E2,4.1333694E2],"tree_param":{"num_deleted":"0","num_feature":"25","num_nodes":"15","size_leaf_vector":"1"}},{"base_weights":[6.415141E-3,-2.4018411E-1,1.6888362E-1,-3.6343786E-1,-9.495133E-2,7.646101E-2,4.1079885E-1,-2.0086415E-2,-9.619389E-3,-1.3455553E-2,-3.4747674E-4,1.0337035E-2,5.8263255E-4,2.4898162E-2,1.0293795E-2],"categories":[],"categories_nodes":[],"categories_segments":[],"categories_sizes":[],"default_left":[0,0,0,0,0,0,0,0,0,0,0,0,0,0,0],"id":43,"left_children":[1,3,5,7,9,11,13,-1,-1,-1,-1,-1,-1,-1,-1],"loss_changes":[1.3702037E2,2.4280045E1,4.6063965E1,9.405182E0,1.8415085E1,2.2824991E1,1.5873856E1,0E0,0E0,0E0,0E0,0E0,0E0,0E0,0E0],"parents":[2147483647,0,0,1,1,2,2,3,3,4,4,5,5,6,6],"right_children":[2,4,6,8,10,12,14,-1,-1,-1,-1,-1,-1,-1,-1],"split_conditions":[-4.9461422E1,-5.9E0,7.3E0,2.4096386E-1,4.2553192E-1,2.8985506E-1,1.25E-1,-2.0086415E-2,-9.619389E-3,-1.3455553E-2,-3.4747674E-4,1.0337035E-2,5.8263255E-4,2.4898162E-2,1.0293795E-2],"split_indices":[2,15,15,23,23,24,24,0,0,0,0,0,0,0,0],"split_type":[0,0,0,0,0,0,0,0,0,0,0,0,0,0,0],"sum_hessian":[3.417973E3,1.3573184E3,2.0606545E3,7.334034E2,6.23915E2,1.4919702E3,5.686844E2,8.815316E1,6.4525024E2,1.18209274E2,5.057057E2,2.6084943E2,1.2311207E3,7.748767E1,4.9119672E2],"tree_param":{"num_deleted":"0","num_feature":"25","num_nodes":"15","size_leaf_vector":"1"}},{"base_weights":[7.4063772E-3,-1.13090366E-1,3.147485E-1,3.3838123E-1,-1.5939969E-1,2.4300362E-1,5.693923E-1,2.7476227E-2,7.812471E-3,-3.3409926E-3,-1.3956085E-2,1.3154699E-2,4.7254497E-3,1.876896E-2,-3.075644E-3],"categories":[],"categories_nodes":[],"categories_segments":[],"categories_sizes":[],"default_left":[0,0,0,0,0,0,0,0,0,0,0,0,0,0,0],"id":44,"left_children":[1,3,5,7,9,11,13,-1,-1,-1,-1,-1,-1,-1,-1],"loss_changes":[1.266526E2,5.1418705E1,1.7458397E1,1.0066633E1,3.268793E1,1.2518414E1,8.036591E0,0E0,0E0,0E0,0E0,0E0,0E0,0E0,0E0],"parents":[2147483647,0,0,1,1,2,2,3,3,4,4,5,5,6,6],"right_children":[2,4,6,8,10,12,14,-1,-1,-1,-1,-1,-1,-1,-1],"split_conditions":[6.619953E1,3.448276E-1,2.0434995E2,-8.1E0,6.875E-1,2E0,7E-1,2.7476227E-2,7.812471E-3,-3.3409926E-3,-1.3956085E-2,1.3154699E-2,4.7254497E-3,1.876896E-2,-3.075644E-3],"split_indices":[2,24,2,6,24,19,14,0,0,0,0,0,0,0,0],"split_type":[0,0,0,0,0,0,0,0,0,0,0,0,0,0,0],"sum_hessian":[3.4179648E3,2.4557815E3,9.621832E2,2.2787836E2,2.2279033E3,7.522064E2,2.099768E2,2.5827337E1,2.0205103E2,1.9266445E3,3.0125867E2,2.2760782E2,5.2459863E2,1.9382259E2,1.6154217E1],"tree_param":{"num_deleted":"0","num_feature":"25","num_nodes":"15","size_leaf_vector":"1"}},{"base_weights":[2.17103E-3,-1.7294925E-1,2.3174231E-1,3.038471E-1,-2.2211748E-1,1.407826E-1,4.4300088E-1,1.5414109E-2,-1.2757931E-3,-1.4714653E-2,-4.625338E-3,5.1867887E-3,-5.8644614E-3,1.1947105E-2,2.619178E-2],"categories":[],"categories_nodes":[],"categories_segments":[],"categories_sizes":[],"default_left":[0,0,0,0,0,0,0,0,0,0,0,0,0,0,0],"id":45,"left_children":[1,3,5,7,9,11,13,-1,-1,-1,-1,-1,-1,-1,-1],"loss_changes":[1.3745784E2,4.553781E1,2.83685E1,1.3238556E1,3.1993553E1,1.1216888E1,8.215942E0,0E0,0E0,0E0,0E0,0E0,0E0,0E0,0E0],"parents":[2147483647,0,0,1,1,2,2,3,3,4,4,5,5,6,6],"right_children":[2,4,6,8,10,12,14,-1,-1,-1,-1,-1,-1,-1,-1],"split_conditions":[6E-1,3.6363637E-1,1.3580928E2,3.9E0,-1.8466005E2,5.121951E-1,9.4736844E-1,1.5414109E-2,-1.2757931E-3,-1.4714653E-2,-4.625338E-3,5.1867887E-3,-5.8644614E-3,1.1947105E-2,2.619178E-2],"split_indices":[15,24,2,9,2,24,23,0,0,0,0,0,0,0,0],"split_type":[0,0,0,0,0,0,0,0,0,0,0,0,0,0,0],"sum_hessian":[3.4171323E3,1.9385925E3,1.4785397E3,1.8073935E2,1.7578533E3,1.0347031E3,4.4383655E2,1.1222815E2,6.85112E1,3.5385513E2,1.403998E3,9.4495404E2,8.974913E1,4.0373813E2,4.00984E1],"tree_param":{"num_deleted":"0","num_feature":"25","num_nodes":"15","size_leaf_vector":"1"}},{"base_weights":[9.290708E-3,-2.296387E-1,1.4859824E-1,-2.879715E-1,1.2776075E-1,4.712599E-1,7.951124E-2,-1.1610445E-2,-4.3462054E-3,2.1684417E-3,2.5494797E-2,2.1769442E-2,1.1698227E-2,3.436749E-3,-8.66866E-3],"categories":[],"categories_nodes":[],"categories_segments":[],"categories_sizes":[],"default_left":[0,0,0,0,0,0,0,0,0,0,0,0,0,0,0],"id":46,"left_children":[1,3,5,7,9,11,13,-1,-1,-1,-1,-1,-1,-1,-1],"loss_changes":[1.13284386E2,2.6170952E1,4.7888073E1,1.5221863E1,7.0124273E0,7.556175E0,2.2915836E1,0E0,0E0,0E0,0E0,0E0,0E0,0E0,0E0],"parents":[2147483647,0,0,1,1,2,2,3,3,4,4,5,5,6,6],"right_children":[2,4,6,8,10,12,14,-1,-1,-1,-1,-1,-1,-1,-1],"split_conditions":[5.13794E-1,5.2380955E-1,2.4390244E-1,-2.9E0,7.2602737E-1,1.25E-1,5.121951E-1,-1.1610445E-2,-4.3462054E-3,2.1684417E-3,2.5494797E-2,2.1769442E-2,1.1698227E-2,3.436749E-3,-8.66866E-3],"split_indices":[3,23,24,13,23,24,24,0,0,0,0,0,0,0,0],"split_type":[0,0,0,0,0,0,0,0,0,0,0,0,0,0,0],"sum_hessian":[3.4014758E3,1.2525505E3,2.1489253E3,1.0769679E3,1.755826E2,3.77948E2,1.7709773E3,6.3544714E2,4.4152075E2,1.6407605E2,1.150655E1,8.963174E1,2.8831628E2,1.6177888E3,1.531885E2],"tree_param":{"num_deleted":"0","num_feature":"25","num_nodes":"15","size_leaf_vector":"1"}},{"base_weights":[-8.761421E-4,-2.2199704E-1,1.3447247E-1,-2.8689498E-1,1.3837604E-1,7.2190784E-2,4.4758302E-1,-1.1386181E-2,-4.5726667E-3,6.2385583E-3,-1.0970397E-2,3.292788E-3,-1.0278924E-2,2.0250088E-2,9.71131E-3],"categories":[],"categories_nodes":[],"categories_segments":[],"categories_sizes":[],"default_left":[0,0,0,0,0,0,0,0,0,0,0,0,0,0,0],"id":47,"left_children":[1,3,5,7,9,11,13,-1,-1,-1,-1,-1,-1,-1,-1],"loss_changes":[1.0196996E2,3.0295097E1,4.118266E1,1.36033325E1,7.0231476E0,2.7528698E1,9.654243E0,0E0,0E0,0E0,0E0,0E0,0E0,0E0,0E0],"parents":[2147483647,0,0,1,1,2,2,3,3,4,4,5,5,6,6],"right_children":[2,4,6,8,10,12,14,-1,-1,-1,-1,-1,-1,-1,-1],"split_conditions":[-5.566089E1,5.121951E-1,8.039216E-1,1.4354967E3,4.9E0,5.121951E-1,1.018E2,-1.1386181E-2,-4.5726667E-3,6.2385583E-3,-1.0970397E-2,3.292788E-3,-1.0278924E-2,2.0250088E-2,9.71131E-3],"split_indices":[2,23,23,0,13,24,4,0,0,0,0,0,0,0,0],"split_type":[0,0,0,0,0,0,0,0,0,0,0,0,0,0,0],"sum_hessian":[3.4051326E3,1.2926584E3,2.112474E3,1.0955668E3,1.9709166E2,1.763018E3,3.494562E2,6.4759E2,4.4797675E2,1.7370258E2,2.338909E1,1.6172822E3,1.4573572E2,1.2165627E2,2.2779993E2],"tree_param":{"num_deleted":"0","num_feature":"25","num_nodes":"15","size_leaf_vector":"1"}},{"base_weights":[3.6819726E-3,-1.500876E-1,1.9193041E-1,4.5712492E-1,-1.8505847E-1,1.3772778E-1,5.8355546E-1,4.165884E-3,1.9713726E-2,-1.6116004E-2,-4.21189E-3,2.8114892E-3,1.0297274E-2,1.5605796E-2,3.0994173E-2],"categories":[],"categories_nodes":[],"categories_segments":[],"categories_sizes":[],"default_left":[0,0,0,0,0,0,0,0,0,0,0,0,0,0,0],"id":48,"left_children":[1,3,5,7,9,11,13,-1,-1,-1,-1,-1,-1,-1,-1],"loss_changes":[9.812782E1,3.9705387E1,3.227156E1,6.394598E0,2.7682663E1,1.2089041E1,4.732189E0,0E0,0E0,0E0,0E0,0E0,0E0,0E0,0E0],"parents":[2147483647,0,0,1,1,2,2,3,3,4,4,5,5,6,6],"right_children":[2,4,6,8,10,12,14,-1,-1,-1,-1,-1,-1,-1,-1],"split_conditions":[2E-1,3.1746033E-1,2.0719781E2,1.005E2,3.125E-1,8E-1,9.6153843E-1,4.165884E-3,1.9713726E-2,-1.6116004E-2,-4.21189E-3,2.8114892E-3,1.0297274E-2,1.5605796E-2,3.0994173E-2],"split_indices":[15,24,2,5,23,23,23,0,0,0,0,0,0,0,0],"split_type":[0,0,0,0,0,0,0,0,0,0,0,0,0,0,0],"sum_hessian":[3.387932E3,1.8648464E3,1.5230854E3,1.008951E2,1.7639513E3,1.3390997E3,1.8398564E2,3.958969E1,6.130541E1,1.9729973E2,1.5666516E3,1.1041083E3,2.3499146E2,1.631492E2,2.0836452E1],"tree_param":{"num_deleted":"0","num_feature":"25","num_nodes":"15","size_leaf_vector":"1"}},{"base_weights":[1.3074263E-3,-1.18469626E-1,2.2286572E-1,-6.886668E-2,-4.330524E-1,1.6630608E-1,5.142335E-1,1.0025654E-2,-3.0794875E-3,-1.2128968E-2,-3.365441E-2,9.216544E-3,1.0373116E-3,1.684992E-2,-4.40077E-3],"categories":[],"categories_nodes":[],"categories_segments":[],"categories_sizes":[],"default_left":[0,0,0,0,0,0,0,0,0,0,0,0,0,0,0],"id":49,"left_children":[1,3,5,7,9,11,13,-1,-1,-1,-1,-1,-1,-1,-1],"loss_changes":[8.9947716E1,3.430059E1,1.951503E1,2.5927269E1,5.477154E0,1.850535E1,6.128475E0,0E0,0E0,0E0,0E0,0E0,0E0,0E0,0E0],"parents":[2147483647,0,0,1,1,2,2,3,3,4,4,5,5,6,6],"right_children":[2,4,6,8,10,12,14,-1,-1,-1,-1,-1,-1,-1,-1],"split_conditions":[3.6166622E1,6.875E-1,8.6013985E-1,3.448276E-1,1.5417916E3,5.049505E-1,6E0,1.0025654E-2,-3.0794875E-3,-1.2128968E-2,-3.365441E-2,9.216544E-3,1.0373116E-3,1.684992E-2,-4.40077E-3],"split_indices":[2,24,23,24,0,23,9,0,0,0,0,0,0,0,0],"split_type":[0,0,0,0,0,0,0,0,0,0,0,0,0,0,0],"sum_hessian":[3.3874495E3,2.1990708E3,1.1883785E3,1.9006051E3,2.984657E2,9.965093E2,1.918693E2,1.4629575E2,1.7543093E3,2.8802847E2,1.0437225E1,4.808289E2,5.156804E2,1.7916212E2,1.27071705E1],"tree_param":{"num_deleted":"0","num_feature":"25","num_nodes":"15","size_leaf_vector":"1"}},{"base_weights":[-2.186491E-3,-1.0537466E-1,2.7450338E-1,-3.619811E-2,-3.3250257E-1,1.877793E-1,4.4719487E-1,-8.509417E-3,4.2531776E-4,-8.162552E-3,-1.6441176E-2,1.4751818E-3,9.63726E-3,1.0418692E-2,2.0058783E-2],"categories":[],"categories_nodes":[],"categories_segments":[],"categories_sizes":[],"default_left":[0,0,0,0,0,0,0,0,0,0,0,0,0,0,0],"id":50,"left_children":[1,3,5,7,9,11,13,-1,-1,-1,-1,-1,-1,-1,-1],"loss_changes":[9.650308E1,3.866861E1,1.3666428E1,2.3541454E1,7.3339005E0,1.1322472E1,6.5418587E0,0E0,0E0,0E0,0E0,0E0,0E0,0E0,0E0],"parents":[2147483647,0,0,1,1,2,2,3,3,4,4,5,5,6,6],"right_children":[2,4,6,8,10,12,14,-1,-1,-1,-1,-1,-1,-1,-1],"split_conditions":[6.7857895E1,5.833333E-1,1E0,-8.2E0,7.777778E-1,6.6E0,1.7688686E2,-8.509417E-3,4.2531776E-4,-8.162552E-3,-1.6441176E-2,1.4751818E-3,9.63726E-3,1.0418692E-2,2.0058783E-2],"split_indices":[2,24,22,15,24,15,2,0,0,0,0,0,0,0,0],"split_type":[0,0,0,0,0,0,0,0,0,0,0,0,0,0,0],"sum_hessian":[3.377997E3,2.460866E3,9.171312E2,1.88723E3,5.736359E2,6.119187E2,3.0521252E2,3.1843127E2,1.5687987E3,4.4981085E2,1.2382505E2,3.00846E2,3.110727E2,2.1209024E2,9.312229E1],"tree_param":{"num_deleted":"0","num_feature":"25","num_nodes":"15","size_leaf_vector":"1"}},{"base_weights":[5.610284E-4,-1.3747829E-1,1.9145271E-1,-4.5454556E-1,-9.1721594E-2,9.6096724E-2,4.130941E-1,-1.4400679E-2,1.1076084E-2,-3.53482E-3,1.0817792E-2,-4.27197E-3,4.0345704E-3,4.860275E-3,1.4889139E-2],"categories":[],"categories_nodes":[],"categories_segments":[],"categories_sizes":[],"default_left":[0,0,0,0,0,0,0,0,0,0,0,0,0,0,0],"id":51,"left_children":[1,3,5,7,9,11,13,-1,-1,-1,-1,-1,-1,-1,-1],"loss_changes":[8.860476E1,2.8269367E1,2.9784157E1,5.3367157E0,2.0193691E1,9.064394E0,8.781876E0,0E0,0E0,0E0,0E0,0E0,0E0,0E0,0E0],"parents":[2147483647,0,0,1,1,2,2,3,3,4,4,5,5,6,6],"right_children":[2,4,6,8,10,12,14,-1,-1,-1,-1,-1,-1,-1,-1],"split_conditions":[9E-1,-2.126538E2,1.3580928E2,3E0,7.468355E-1,1.4203912E3,1.5584353E3,-1.4400679E-2,1.1076084E-2,-3.53482E-3,1.0817792E-2,-4.27197E-3,4.0345704E-3,4.860275E-3,1.4889139E-2],"split_indices":[15,2,2,22,23,0,0,0,0,0,0,0,0,0,0],"split_type":[0,0,0,0,0,0,0,0,0,0,0,0,0,0,0],"sum_hessian":[3.3605396E3,1.9504165E3,1.410123E3,2.4484555E2,1.7055709E3,9.869462E2,4.231768E2,2.3790485E2,6.940709E0,1.613203E3,9.236792E1,1.364605E2,8.504857E2,1.060678E2,3.1710898E2],"tree_param":{"num_deleted":"0","num_feature":"25","num_nodes":"15","size_leaf_vector":"1"}},{"base_weights":[2.874833E-3,-1.392906E-1,1.742079E-1,-1.7752197E-1,2.7875128E-1,1.166391E-1,4.5970753E-1,-1.5229169E-2,-4.04704E-3,2.4373224E-2,4.9106716E-3,-4.147907E-3,4.5829196E-3,1.193346E-2,2.6448831E-2],"categories":[],"categories_nodes":[],"categories_segments":[],"categories_sizes":[],"default_left":[0,0,0,0,0,0,0,0,0,0,0,0,0,0,0],"id":52,"left_children":[1,3,5,7,9,11,13,-1,-1,-1,-1,-1,-1,-1,-1],"loss_changes":[8.23741E1,2.9589012E1,2.5152412E1,2.3765858E1,9.400897E0,1.178562E1,6.364277E0,0E0,0E0,0E0,0E0,0E0,0E0,0E0,0E0],"parents":[2147483647,0,0,1,1,2,2,3,3,4,4,5,5,6,6],"right_children":[2,4,6,8,10,12,14,-1,-1,-1,-1,-1,-1,-1,-1],"split_conditions":[1E-1,6.875E-1,1.7987065E2,3.125E-1,-8.7E0,1.4203912E3,9.5238096E-1,-1.5229169E-2,-4.04704E-3,2.4373224E-2,4.9106716E-3,-4.147907E-3,4.5829196E-3,1.193346E-2,2.6448831E-2],"split_indices":[15,23,2,23,6,0,23,0,0,0,0,0,0,0,0],"split_type":[0,0,0,0,0,0,0,0,0,0,0,0,0,0,0],"sum_hessian":[3.3798625E3,1.8472632E3,1.5325992E3,1.6930072E3,1.5425601E2,1.2765928E3,2.5600653E2,1.9233914E2,1.5006681E3,2.6283796E1,1.2797221E2,1.5811093E2,1.1184818E3,2.2493538E2,3.1071144E1],"tree_param":{"num_deleted":"0","num_feature":"25","num_nodes":"15","size_leaf_vector":"1"}},{"base_weights":[1.7993372E-4,-6.960064E-2,3.3559906E-1,-1.2674528E-1,1.898757E-1,5.501804E-1,2.5886503E-1,-2.6148667E-3,-1.2006935E-2,1.0506152E-2,-5.466039E-3,1.8839814E-2,5.414087E-3,1.2855113E-2,4.535198E-3],"categories":[],"categories_nodes":[],"categories_segments":[],"categories_sizes":[],"default_left":[0,0,0,0,0,0,0,0,0,0,0,0,0,0,0],"id":53,"left_children":[1,3,5,7,9,11,13,-1,-1,-1,-1,-1,-1,-1,-1],"loss_changes":[7.8892235E1,4.1395847E1,9.415367E0,2.4724918E1,3.012858E1,4.2597427E0,7.780838E0,0E0,0E0,0E0,0E0,0E0,0E0,0E0,0E0],"parents":[2147483647,0,0,1,1,2,2,3,3,4,4,5,5,6,6],"right_children":[2,4,6,8,10,12,14,-1,-1,-1,-1,-1,-1,-1,-1],"split_conditions":[7.3333335E-1,4.6E0,1.6E-1,6.875E-1,5.2380955E-1,1.073E2,3.9E0,-2.6148667E-3,-1.2006935E-2,1.0506152E-2,-5.466039E-3,1.8839814E-2,5.414087E-3,1.2855113E-2,4.535198E-3],"split_indices":[23,15,24,24,23,7,15,0,0,0,0,0,0,0,0],"split_type":[0,0,0,0,0,0,0,0,0,0,0,0,0,0,0],"sum_hessian":[3.3686382E3,2.7891716E3,5.7946655E2,2.2861934E3,5.0297833E2,1.5100943E2,4.2845712E2,1.998289E3,2.8790427E2,3.51552E2,1.5142632E2,1.24175476E2,2.683396E1,1.6521982E2,2.632373E2],"tree_param":{"num_deleted":"0","num_feature":"25","num_nodes":"15","size_leaf_vector":"1"}},{"base_weights":[-2.2365155E-3,-9.376053E-2,2.4560015E-1,2.8221014E-1,-1.3174115E-1,1.1005769E-1,3.6973518E-1,2.6489777E-2,6.172717E-3,-2.732052E-3,-1.1976795E-2,5.9929554E-4,8.950497E-3,1.0059006E-2,3.0796733E-2],"categories":[],"categories_nodes":[],"categories_segments":[],"categories_sizes":[],"default_left":[0,0,0,0,0,0,0,0,0,0,0,0,0,0,0],"id":54,"left_children":[1,3,5,7,9,11,13,-1,-1,-1,-1,-1,-1,-1,-1],"loss_changes":[7.640231E1,3.5162704E1,1.5243774E1,1.0199404E1,2.427715E1,7.3837724E0,1.0370522E1,0E0,0E0,0E0,0E0,0E0,0E0,0E0,0E0],"parents":[2147483647,0,0,1,1,2,2,3,3,4,4,5,5,6,6],"right_children":[2,4,6,8,10,12,14,-1,-1,-1,-1,-1,-1,-1,-1],"split_conditions":[6.7857895E1,3.448276E-1,6.4E0,-8.1E0,6.875E-1,1E0,9.6153843E-1,2.6489777E-2,6.172717E-3,-2.732052E-3,-1.1976795E-2,5.9929554E-4,8.950497E-3,1.0059006E-2,3.0796733E-2],"split_indices":[2,24,15,6,24,22,23,0,0,0,0,0,0,0,0],"split_type":[0,0,0,0,0,0,0,0,0,0,0,0,0,0,0],"sum_hessian":[3.366247E3,2.4588398E3,9.0740735E2,2.2501205E2,2.2338276E3,4.3467465E2,4.7273267E2,2.4210611E1,2.0080145E2,1.9401559E3,2.936718E2,2.9476285E2,1.3991183E2,4.5061874E2,2.2113914E1],"tree_param":{"num_deleted":"0","num_feature":"25","num_nodes":"15","size_leaf_vector":"1"}},{"base_weights":[-1.0203822E-3,-1.3881455E-1,1.6206011E-1,-1.6561441E-1,3.422555E-1,1.0609665E-1,4.571044E-1,-4.1448763E-3,-1.7842881E-2,1.312127E-2,-6.2517407E-3,1.8604201E-3,1.0422295E-2,1.0588573E-2,2.1620572E-2],"categories":[],"categories_nodes":[],"categories_segments":[],"categories_sizes":[],"default_left":[0,0,0,0,0,0,0,0,0,0,0,0,0,0,0],"id":55,"left_children":[1,3,5,7,9,11,13,-1,-1,-1,-1,-1,-1,-1,-1],"loss_changes":[7.533133E1,2.348273E1,2.5301659E1,2.0202286E1,5.130312E0,1.3720329E1,6.457176E0,0E0,0E0,0E0,0E0,0E0,0E0,0E0,0E0],"parents":[2147483647,0,0,1,1,2,2,3,3,4,4,5,5,6,6],"right_children":[2,4,6,8,10,12,14,-1,-1,-1,-1,-1,-1,-1,-1],"split_conditions":[0E0,7.222222E-1,1.834979E2,7.8723407E-1,1.610457E3,8E-1,1.45E1,-4.1448763E-3,-1.7842881E-2,1.312127E-2,-6.2517407E-3,1.8604201E-3,1.0422295E-2,1.0588573E-2,2.1620572E-2],"split_indices":[15,23,2,24,0,23,15,0,0,0,0,0,0,0,0],"split_type":[0,0,0,0,0,0,0,0,0,0,0,0,0,0,0],"sum_hessian":[3.350298E3,1.8160138E3,1.5342843E3,1.7208055E3,9.520835E1,1.2908062E3,2.4347816E2,1.6185891E3,1.0221638E2,8.135976E1,1.3848591E1,1.0924893E3,1.9831688E2,1.7619516E2,6.7283E1],"tree_param":{"num_deleted":"0","num_feature":"25","num_nodes":"15","size_leaf_vector":"1"}},{"base_weights":[2.6473666E-3,-7.1140744E-2,2.9506803E-1,-2.5855348E-1,7.552996E-3,2.709281E-1,9.4512624E-1,-2.4232516E-2,-6.96824E-3,4.9347267E-3,-1.9401166E-3,9.653317E-3,-7.152519E-4,1.4185022E-2,3.2826375E-2],"categories":[],"categories_nodes":[],"categories_segments":[],"categories_sizes":[],"default_left":[0,0,0,0,0,0,0,0,0,0,0,0,0,0,0],"id":56,"left_children":[1,3,5,7,9,11,13,-1,-1,-1,-1,-1,-1,-1,-1],"loss_changes":[7.2224884E1,3.9421867E1,1.0327629E1,1.1220413E1,2.1358324E1,9.775887E0,1.1547012E0,0E0,0E0,0E0,0E0,0E0,0E0,0E0,0E0],"parents":[2147483647,0,0,1,1,2,2,3,3,4,4,5,5,6,6],"right_children":[2,4,6,8,10,12,14,-1,-1,-1,-1,-1,-1,-1,-1],"split_conditions":[6.2E0,1.4203912E3,9.6153843E-1,-3.1962628E2,1.4890366E3,1.105E2,1.28E1,-2.4232516E-2,-6.96824E-3,4.9347267E-3,-1.9401166E-3,9.653317E-3,-7.152519E-4,1.4185022E-2,3.2826375E-2],"split_indices":[15,0,23,2,1,8,15,0,0,0,0,0,0,0,0],"split_type":[0,0,0,0,0,0,0,0,0,0,0,0,0,0,0],"sum_hessian":[3.34531E3,2.6718613E3,6.7344867E2,7.894543E2,1.882407E3,6.5070166E2,2.2747038E1,3.4692066E1,7.547622E2,5.928652E2,1.2895417E3,5.5488916E2,9.5812485E1,6.458533E0,1.6288506E1],"tree_param":{"num_deleted":"0","num_feature":"25","num_nodes":"15","size_leaf_vector":"1"}},{"base_weights":[5.810373E-3,-1.9486162E-1,9.6607916E-2,-8.909825E-2,-3.538876E-1,2.3281075E-1,-1.5749058E-2,3.3798087E-2,-3.077092E-3,-1.1561854E-2,6.3425736E-3,1.41867045E-2,5.3070653E-3,3.1591143E-4,-1.0518687E-2],"categories":[],"categories_nodes":[],"categories_segments":[],"categories_sizes":[],"default_left":[0,0,0,0,0,0,0,0,0,0,0,0,0,0,0],"id":57,"left_children":[1,3,5,7,9,11,13,-1,-1,-1,-1,-1,-1,-1,-1],"loss_changes":[6.1017693E1,1.7514675E1,3.528676E1,1.0398446E1,7.497349E0,1.3906071E1,1.1130097E1,0E0,0E0,0E0,0E0,0E0,0E0,0E0,0E0],"parents":[2147483647,0,0,1,1,2,2,3,3,4,4,5,5,6,6],"right_children":[2,4,6,8,10,12,14,-1,-1,-1,-1,-1,-1,-1,-1],"split_conditions":[1.441679E3,1.5311693E3,1.4993284E3,9.01E1,1.108E2,1.9417475E-1,6.666667E-1,3.3798087E-2,-3.077092E-3,-1.1561854E-2,6.3425736E-3,1.41867045E-2,5.3070653E-3,3.1591143E-4,-1.0518687E-2],"split_indices":[0,1,1,7,8,24,24,0,0,0,0,0,0,0,0],"split_type":[0,0,0,0,0,0,0,0,0,0,0,0,0,0,0],"sum_hessian":[3.3468105E3,1.0422294E3,2.3045813E3,6.268744E2,4.1535498E2,1.0412598E3,1.2633215E3,5.964826E0,6.209096E2,3.9372867E2,2.1626322E1,1.9527267E2,8.4598706E2,1.1722936E3,9.102794E1],"tree_param":{"num_deleted":"0","num_feature":"25","num_nodes":"15","size_leaf_vector":"1"}},{"base_weights":[7.7904123E-3,-1.1607862E-1,1.7382252E-1,-1.4981796E-1,2.3252442E-1,7.273243E-2,2.902859E-1,-1.2309847E-2,-3.5534352E-3,1.2913475E-2,-1.3934465E-3,2.0569403E-2,1.7260007E-3,6.4611156E-3,1.3748767E-2],"categories":[],"categories_nodes":[],"categories_segments":[],"categories_sizes":[],"default_left":[0,0,0,0,0,0,0,0,0,0,0,0,0,0,0],"id":58,"left_children":[1,3,5,7,9,11,13,-1,-1,-1,-1,-1,-1,-1,-1],"loss_changes":[6.855091E1,2.2487953E1,1.67462E1,1.4180603E1,9.343169E0,7.075395E0,8.226311E0,0E0,0E0,0E0,0E0,0E0,0E0,0E0,0E0],"parents":[2147483647,0,0,1,1,2,2,3,3,4,4,5,5,6,6],"right_children":[2,4,6,8,10,12,14,-1,-1,-1,-1,-1,-1,-1,-1],"split_conditions":[6E-1,6.875E-1,8.276769E1,3.125E-1,3.5E0,1.8691589E-1,1E0,-1.2309847E-2,-3.5534352E-3,1.2913475E-2,-1.3934465E-3,2.0569403E-2,1.7260007E-3,6.4611156E-3,1.3748767E-2],"split_indices":[15,23,2,23,9,24,21,0,0,0,0,0,0,0,0],"split_type":[0,0,0,0,0,0,0,0,0,0,0,0,0,0,0],"sum_hessian":[3.3311958E3,1.9080139E3,1.4231819E3,1.7401636E3,1.6785042E2,7.6274475E2,6.6043713E2,1.8572734E2,1.5544362E3,9.787052E1,6.99799E1,1.7389488E1,7.453553E2,4.5834113E2,2.0209605E2],"tree_param":{"num_deleted":"0","num_feature":"25","num_nodes":"15","size_leaf_vector":"1"}},{"base_weights":[9.762871E-4,-6.534598E-2,2.797257E-1,-3.4159797E-1,-1.9809013E-2,2.5215176E-1,3.16238E-2,-8.898101E-3,-2.3526264E-2,-1.0305477E-2,1.9792566E-4,8.190269E-3,-1.8729378E-2],"categories":[],"categories_nodes":[],"categories_segments":[],"categories_sizes":[],"default_left":[0,0,0,0,0,0,0,0,0,0,0,0,0],"id":59,"left_children":[1,3,5,7,9,11,-1,-1,-1,-1,-1,-1,-1],"loss_changes":[6.1791367E1,3.395815E1,1.34515E1,7.3753395E0,1.9824726E1,1.1534115E1,0E0,0E0,0E0,0E0,0E0,0E0,0E0],"parents":[2147483647,0,0,1,1,2,2,3,3,4,4,5,5],"right_children":[2,4,6,8,10,12,-1,-1,-1,-1,-1,-1,-1],"split_conditions":[6.4E0,3.9215687E-1,9.6153843E-1,1.6E0,-1.8159816E2,5.121951E-1,3.16238E-2,-8.898101E-3,-2.3526264E-2,-1.0305477E-2,1.9792566E-4,8.190269E-3,-1.8729378E-2],"split_indices":[15,23,23,13,2,24,0,0,0,0,0,0,0],"split_type":[0,0,0,0,0,0,0,0,0,0,0,0,0],"sum_hessian":[3.3403806E3,2.698983E3,6.413978E2,3.8101816E2,2.3179646E3,6.2062494E2,2.0772858E1,3.4737506E2,3.3643097E1,1.7392166E2,2.144043E3,6.0687177E2,1.37532E1],"tree_param":{"num_deleted":"0","num_feature":"25","num_nodes":"13","size_leaf_vector":"1"}},{"base_weights":[-3.969902E-3,-1.8514025E-1,9.870978E-2,-2.3732117E-1,1.2681367E-1,2.7466822E-2,2.7412435E-1,-8.069694E-3,2.3450153E-3,-2.773814E-3,9.092148E-3,1.891203E-3,-8.544195E-3,7.4395663E-3,2.9981583E-2],"categories":[],"categories_nodes":[],"categories_segments":[],"categories_sizes":[],"default_left":[0,0,0,0,0,0,0,0,0,0,0,0,0,0,0],"id":60,"left_children":[1,3,5,7,9,11,13,-1,-1,-1,-1,-1,-1,-1,-1],"loss_changes":[6.216522E1,1.970763E1,2.6647957E1,1.0371391E1,6.748267E0,1.6880657E1,1.1429089E1,0E0,0E0,0E0,0E0,0E0,0E0,0E0,0E0],"parents":[2147483647,0,0,1,1,2,2,3,3,4,4,5,5,6,6],"right_children":[2,4,6,8,10,12,14,-1,-1,-1,-1,-1,-1,-1,-1],"split_conditions":[-6.3472885E1,5.121951E-1,6.4E0,7E-1,9.99E1,5.121951E-1,9.6153843E-1,-8.069694E-3,2.3450153E-3,-2.773814E-3,9.092148E-3,1.891203E-3,-8.544195E-3,7.4395663E-3,2.9981583E-2],"split_indices":[2,23,15,15,8,24,23,0,0,0,0,0,0,0,0],"split_type":[0,0,0,0,0,0,0,0,0,0,0,0,0,0,0],"sum_hessian":[3.3397817E3,1.2078394E3,2.1319421E3,1.0349597E3,1.7287973E2,1.5169884E3,6.1495386E2,9.406817E2,9.427801E1,7.725094E1,9.562879E1,1.3625669E3,1.5442155E2,5.948569E2,2.0096996E1],"tree_param":{"num_deleted":"0","num_feature":"25","num_nodes":"15","size_leaf_vector":"1"}},{"base_weights":[4.0640826E-3,-1.0853072E-1,1.4261167E-1,-1.3433433E-1,3.3917627E-1,5.330347E-1,1.0227997E-1,-1.2592146E-2,-3.0035684E-3,-2.2130186E-4,1.529329E-2,2.632237E-2,1.0629444E-2,6.0415664E-3,1.6704525E-4],"categories":[],"categories_nodes":[],"categories_segments":[],"categories_sizes":[],"default_left":[0,0,0,0,0,0,0,0,0,0,0,0,0,0,0],"id":61,"left_children":[1,3,5,7,9,11,13,-1,-1,-1,-1,-1,-1,-1,-1],"loss_changes":[5.1867798E1,2.1235931E1,2.3417856E1,1.6900923E1,5.930211E0,8.264629E0,1.2960388E1,0E0,0E0,0E0,0E0,0E0,0E0,0E0,0E0],"parents":[2147483647,0,0,1,1,2,2,3,3,4,4,5,5,6,6],"right_children":[2,4,6,8,10,12,14,-1,-1,-1,-1,-1,-1,-1,-1],"split_conditions":[1E-1,7.222222E-1,1.6E-1,3.125E-1,1E2,1.027E2,5.2380955E-1,-1.2592146E-2,-3.0035684E-3,-2.2130186E-4,1.529329E-2,2.632237E-2,1.0629444E-2,6.0415664E-3,1.6704525E-4],"split_indices":[15,23,24,23,5,4,23,0,0,0,0,0,0,0,0],"split_type":[0,0,0,0,0,0,0,0,0,0,0,0,0,0,0],"sum_hessian":[3.3229224E3,1.8332743E3,1.4896481E3,1.7340332E3,9.92411E1,1.3833241E2,1.3513157E3,1.8442279E2,1.5496104E3,3.3053585E1,6.6187515E1,4.592653E1,9.240588E1,6.6686365E2,6.84452E2],"tree_param":{"num_deleted":"0","num_feature":"25","num_nodes":"15","size_leaf_vector":"1"}},{"base_weights":[-1.0132876E-3,-1.8857986E-1,8.3798684E-2,-9.198647E-2,-3.3775172E-1,2.0039711E-2,2.602604E-1,2.6856577E-2,-3.221686E-3,-1.2631711E-2,-5.0389017E-3,-1.8580745E-4,1.2330336E-2,1.2627466E-2,4.577222E-3],"categories":[],"categories_nodes":[],"categories_segments":[],"categories_sizes":[],"default_left":[0,0,0,0,0,0,0,0,0,0,0,0,0,0,0],"id":62,"left_children":[1,3,5,7,9,11,13,-1,-1,-1,-1,-1,-1,-1,-1],"loss_changes":[5.2745655E1,1.4845131E1,2.5683949E1,9.645849E0,5.6633644E0,1.7216343E1,1.0418758E1,0E0,0E0,0E0,0E0,0E0,0E0,0E0,0E0],"parents":[2147483647,0,0,1,1,2,2,3,3,4,4,5,5,6,6],"right_children":[2,4,6,8,10,12,14,-1,-1,-1,-1,-1,-1,-1,-1],"split_conditions":[1.441679E3,1.5311693E3,6.2E0,-1.67E1,1E0,8.039216E-1,5.049505E-1,2.6856577E-2,-3.221686E-3,-1.2631711E-2,-5.0389017E-3,-1.8580745E-4,1.2330336E-2,1.2627466E-2,4.577222E-3],"split_indices":[0,1,15,15,21,23,23,0,0,0,0,0,0,0,0],"split_type":[0,0,0,0,0,0,0,0,0,0,0,0,0,0,0],"sum_hessian":[3.313698E3,1.031423E3,2.2822751E3,6.2702295E2,4.0440005E2,1.6773354E3,6.0493964E2,8.755416E0,6.182675E2,2.7029968E2,1.3410037E2,1.5727891E3,1.04546394E2,2.41597E2,3.6334262E2],"tree_param":{"num_deleted":"0","num_feature":"25","num_nodes":"15","size_leaf_vector":"1"}},{"base_weights":[1.101476E-3,-8.535959E-2,1.6162561E-1,-1.1623552E-1,3.0763108E-1,4.736091E-1,1.22424446E-1,-8.824884E-3,-2.3620315E-3,2.1544505E-2,7.1206014E-3,2.4910567E-2,1.1221868E-2,7.2849044E-3,3.148058E-4],"categories":[],"categories_nodes":[],"categories_segments":[],"categories_sizes":[],"default_left":[0,0,0,0,0,0,0,0,0,0,0,0,0,0,0],"id":63,"left_children":[1,3,5,7,9,11,13,-1,-1,-1,-1,-1,-1,-1,-1],"loss_changes":[4.6019302E1,2.6184597E1,1.413777E1,1.3313528E1,4.3663483E0,4.2782516E0,1.3912628E1,0E0,0E0,0E0,0E0,0E0,0E0,0E0,0E0],"parents":[2147483647,0,0,1,1,2,2,3,3,4,4,5,5,6,6],"right_children":[2,4,6,8,10,12,14,-1,-1,-1,-1,-1,-1,-1,-1],"split_conditions":[2.3E0,7.222222E-1,1.6E-1,-1.8466005E2,9.57E1,1.008E2,5.2380955E-1,-8.824884E-3,-2.3620315E-3,2.1544505E-2,7.1206014E-3,2.4910567E-2,1.1221868E-2,7.2849044E-3,3.148058E-4],"split_indices":[15,23,24,2,5,8,23,0,0,0,0,0,0,0,0],"split_type":[0,0,0,0,0,0,0,0,0,0,0,0,0,0,0],"sum_hessian":[3.3137356E3,2.1540144E3,1.1597211E3,1.9977615E3,1.5625304E2,1.2821747E2,1.0315037E3,3.465729E2,1.6511886E3,2.1491888E1,1.3476114E2,2.6371023E1,1.0184644E2,4.9637567E2,5.35128E2],"tree_param":{"num_deleted":"0","num_feature":"25","num_nodes":"15","size_leaf_vector":"1"}},{"base_weights":[-2.1953657E-3,-1.8684235E-1,8.210225E-2,2.1561985E-1,-2.1495752E-1,2.0808478E-1,-7.3874244E-3,-8.982464E-3,1.023189E-2,-1.6106384E-4,-7.772085E-3,1.3630521E-2,4.4770576E-3,-6.9376924E-3,7.3542073E-4],"categories":[],"categories_nodes":[],"categories_segments":[],"categories_sizes":[],"default_left":[0,0,0,0,0,0,0,0,0,0,0,0,0,0,0],"id":64,"left_children":[1,3,5,7,9,11,13,-1,-1,-1,-1,-1,-1,-1,-1],"loss_changes":[5.1620304E1,1.1808311E1,2.5671734E1,4.519553E0,8.986053E0,1.3637554E1,9.520133E0,0E0,0E0,0E0,0E0,0E0,0E0,0E0,0E0],"parents":[2147483647,0,0,1,1,2,2,3,3,4,4,5,5,6,6],"right_children":[2,4,6,8,10,12,14,-1,-1,-1,-1,-1,-1,-1,-1],"split_conditions":[1.441679E3,3.3898306E-1,1.4890366E3,1.3669915E3,-3.4E0,1.9417475E-1,-9.5E0,-8.982464E-3,1.023189E-2,-1.6106384E-4,-7.772085E-3,1.3630521E-2,4.4770576E-3,-6.9376924E-3,7.3542073E-4],"split_indices":[0,24,1,0,9,24,15,0,0,0,0,0,0,0,0],"split_type":[0,0,0,0,0,0,0,0,0,0,0,0,0,0,0],"sum_hessian":[3.3143853E3,1.038475E3,2.2759104E3,6.737324E1,9.711017E2,9.446781E2,1.3312322E3,1.2923992E1,5.444925E1,1.690445E2,8.020572E2,1.8090973E2,7.637684E2,1.65261E2,1.1659712E3],"tree_param":{"num_deleted":"0","num_feature":"25","num_nodes":"15","size_leaf_vector":"1"}},{"base_weights":[-1.9201273E-4,-1.1415924E-1,1.23813495E-1,-1.4491032E-1,2.7904826E-1,1.6516833E-1,-1.9566084E-1,-1.2538497E-2,-3.4732327E-3,-2.3677874E-2,1.0541277E-2,3.5965755E-3,1.1270986E-2,-4.084911E-3,-3.4300297E-2],"categories":[],"categories_nodes":[],"categories_segments":[],"categories_sizes":[],"default_left":[0,0,0,0,0,0,0,0,0,0,0,0,0,0,0],"id":65,"left_children":[1,3,5,7,9,11,13,-1,-1,-1,-1,-1,-1,-1,-1],"loss_changes":[4.6945732E1,2.0970509E1,2.1050268E1,1.2728317E1,1.0004985E1,1.3388062E1,1.0150566E1,0E0,0E0,0E0,0E0,0E0,0E0,0E0,0E0],"parents":[2147483647,0,0,1,1,2,2,3,3,4,4,5,5,6,6],"right_children":[2,4,6,8,10,12,14,-1,-1,-1,-1,-1,-1,-1,-1],"split_conditions":[-1E-1,7.468355E-1,5.2380955E-1,3.030303E-1,1.3669915E3,1.6833958E2,4E0,-1.2538497E-2,-3.4732327E-3,-2.3677874E-2,1.0541277E-2,3.5965755E-3,1.1270986E-2,-4.084911E-3,-3.4300297E-2],"split_indices":[13,23,24,23,0,2,19,0,0,0,0,0,0,0,0],"split_type":[0,0,0,0,0,0,0,0,0,0,0,0,0,0,0],"sum_hessian":[3.3198123E3,1.7299664E3,1.5898458E3,1.6050721E3,1.2489435E2,1.4080604E3,1.8178549E2,1.5347502E2,1.4515972E3,7.2909884E0,1.1760336E2,1.1601063E3,2.4795404E2,1.72123E2,9.662496E0],"tree_param":{"num_deleted":"0","num_feature":"25","num_nodes":"15","size_leaf_vector":"1"}},{"base_weights":[5.0294246E-3,-5.1129006E-2,2.3532192E-1,-1.9444399E-2,-3.2608992E-1,2.0834891E-1,7.565316E-1,1.0681789E-2,-1.1276446E-3,-1.060552E-2,1.7281357E-2,6.9870935E-3,-5.767792E-3,2.693562E-2,1.2470432E-2],"categories":[],"categories_nodes":[],"categories_segments":[],"categories_sizes":[],"default_left":[0,0,0,0,0,0,0,0,0,0,0,0,0,0,0],"id":66,"left_children":[1,3,5,7,9,11,13,-1,-1,-1,-1,-1,-1,-1,-1],"loss_changes":[4.2862434E1,2.3207281E1,8.976902E0,1.6298582E1,7.0143433E0,6.135187E0,1.1484814E0,0E0,0E0,0E0,0E0,0E0,0E0,0E0,0E0],"parents":[2147483647,0,0,1,1,2,2,3,3,4,4,5,5,6,6],"right_children":[2,4,6,8,10,12,14,-1,-1,-1,-1,-1,-1,-1,-1],"split_conditions":[6.2E0,6.875E-1,9.4736844E-1,2.3809524E-1,7.6E0,1.098E2,-5.9E0,1.0681789E-2,-1.1276446E-3,-1.060552E-2,1.7281357E-2,6.9870935E-3,-5.767792E-3,2.693562E-2,1.2470432E-2],"split_indices":[15,24,23,24,6,5,14,0,0,0,0,0,0,0,0],"split_type":[0,0,0,0,0,0,0,0,0,0,0,0,0,0,0],"sum_hessian":[3.3122957E3,2.6635486E3,6.4874695E2,2.3892937E3,2.7425507E2,6.1815656E2,3.059034E1,1.0926733E2,2.2800264E3,2.6675317E2,7.5019035E0,5.8285095E2,3.530562E1,2.0469273E1,1.0121068E1],"tree_param":{"num_deleted":"0","num_feature":"25","num_nodes":"15","size_leaf_vector":"1"}},{"base_weights":[-1.1444177E-3,6.0266387E-2,-2.1432526E-1,-1.0958834E-1,1.2638865E-1,-2.87942E-1,-1.0288668E-1,-1.5798343E-3,-1.6455496E-2,2.5998666E-3,1.1976349E-2,1.3925955E-2,-9.150206E-3,-1.193152E-2,-3.525855E-4],"categories":[],"categories_nodes":[],"categories_segments":[],"categories_sizes":[],"default_left":[0,0,0,0,0,0,0,0,0,0,0,0,0,0,0],"id":67,"left_children":[1,3,5,7,9,11,13,-1,-1,-1,-1,-1,-1,-1,-1],"loss_changes":[4.3211094E1,2.8793865E1,6.026169E0,1.7925926E1,1.996142E1,5.8399696E0,7.927302E0,0E0,0E0,0E0,0E0,0E0,0E0,0E0,0E0],"parents":[2147483647,0,0,1,1,2,2,3,3,4,4,5,5,6,6],"right_children":[2,4,6,8,10,12,14,-1,-1,-1,-1,-1,-1,-1,-1],"split_conditions":[5.2380955E-1,1.4563842E3,1.056E2,5.6E0,1.834979E2,8.71E1,1.8E0,-1.5798343E-3,-1.6455496E-2,2.5998666E-3,1.1976349E-2,1.3925955E-2,-9.150206E-3,-1.193152E-2,-3.525855E-4],"split_indices":[24,0,5,14,2,4,14,0,0,0,0,0,0,0,0],"split_type":[0,0,0,0,0,0,0,0,0,0,0,0,0,0,0],"sum_hessian":[3.2986848E3,2.5615103E3,7.3717456E2,7.1756744E2,1.8439429E3,4.4296585E2,2.942087E2,6.3617773E2,8.138969E1,1.6107196E3,2.3322328E2,9.245935E0,4.337199E2,6.867415E1,2.2553456E2],"tree_param":{"num_deleted":"0","num_feature":"25","num_nodes":"15","size_leaf_vector":"1"}},{"base_weights":[-1.0512915E-2,-7.782452E-2,1.7938642E-1,-2.1099843E-1,-2.0844614E-2,1.08209915E-1,3.6915523E-1,-1.1836371E-2,-4.40207E-3,9.891884E-4,-6.375367E-3,8.4539745E-3,1.0188204E-3,1.2842474E-2,-2.2902307E-3],"categories":[],"categories_nodes":[],"categories_segments":[],"categories_sizes":[],"default_left":[0,0,0,0,0,0,0,0,0,0,0,0,0,0,0],"id":68,"left_children":[1,3,5,7,9,11,13,-1,-1,-1,-1,-1,-1,-1,-1],"loss_changes":[4.2279774E1,1.852558E1,1.1652077E1,8.571751E0,1.7659359E1,8.1223545E0,6.2201347E0,0E0,0E0,0E0,0E0,0E0,0E0,0E0,0E0],"parents":[2147483647,0,0,1,1,2,2,3,3,4,4,5,5,6,6],"right_children":[2,4,6,8,10,12,14,-1,-1,-1,-1,-1,-1,-1,-1],"split_conditions":[6.7857895E1,-7.1E0,1.834979E2,-2.126538E2,5.2380955E-1,2E0,1.062E2,-1.1836371E-2,-4.40207E-3,9.891884E-4,-6.375367E-3,8.4539745E-3,1.0188204E-3,1.2842474E-2,-2.2902307E-3],"split_indices":[2,15,2,2,24,19,5,0,0,0,0,0,0,0,0],"split_type":[0,0,0,0,0,0,0,0,0,0,0,0,0,0,0],"sum_hessian":[3.3055562E3,2.4409343E3,8.646219E2,7.3061993E2,1.7103143E3,6.29926E2,2.3469585E2,1.881335E2,5.4248645E2,1.3360096E3,3.743047E2,1.8788031E2,4.4204572E2,2.0731297E2,2.7382875E1],"tree_param":{"num_deleted":"0","num_feature":"25","num_nodes":"15","size_leaf_vector":"1"}},{"base_weights":[2.6668662E-3,-1.7650698E-1,6.997309E-2,-2.688735E-1,-2.6296386E-2,1.1007991E-1,-2.2142638E-1,-2.2048641E-2,-7.400778E-3,1.0434012E-3,-1.0368381E-2,2.537266E-3,1.2016958E-2,1.4363201E-2,-7.967173E-3],"categories":[],"categories_nodes":[],"categories_segments":[],"categories_sizes":[],"default_left":[0,0,0,0,0,0,0,0,0,0,0,0,0,0,0],"id":69,"left_children":[1,3,5,7,9,11,13,-1,-1,-1,-1,-1,-1,-1,-1],"loss_changes":[3.961312E1,1.2438074E1,2.7930782E1,5.559742E0,6.69471E0,1.552116E1,9.0671215E0,0E0,0E0,0E0,0E0,0E0,0E0,0E0,0E0],"parents":[2147483647,0,0,1,1,2,2,3,3,4,4,5,5,6,6],"right_children":[2,4,6,8,10,12,14,-1,-1,-1,-1,-1,-1,-1,-1],"split_conditions":[-5.9E0,1.4575325E3,5.4545456E-1,9.29E1,6.363636E-1,8.666667E-1,9.28E1,-2.2048641E-2,-7.400778E-3,1.0434012E-3,-1.0368381E-2,2.537266E-3,1.2016958E-2,1.4363201E-2,-7.967173E-3],"split_indices":[15,0,24,5,24,23,7,0,0,0,0,0,0,0,0],"split_type":[0,0,0,0,0,0,0,0,0,0,0,0,0,0,0],"sum_hessian":[3.2827783E3,8.95984E2,2.3867942E3,5.543294E2,3.4165457E2,2.0985784E3,2.88216E2,2.3722395E1,5.30607E2,2.8754602E2,5.4108566E1,1.9303834E3,1.6819493E2,1.650976E1,2.7170624E2],"tree_param":{"num_deleted":"0","num_feature":"25","num_nodes":"15","size_leaf_vector":"1"}},{"base_weights":[1.9415882E-3,-1.3870284E-1,7.46893E-2,-2.0279622E-1,-7.3248795E-3,5.3286734E-3,1.992447E-1,-1.3763078E-2,-4.7656796E-3,8.300679E-3,-4.369807E-3,-8.619748E-4,7.149044E-3,1.200614E-2,3.4287209E-3],"categories":[],"categories_nodes":[],"categories_segments":[],"categories_sizes":[],"default_left":[0,0,0,0,0,0,0,0,0,0,0,0,0,0,0],"id":70,"left_children":[1,3,5,7,9,11,13,-1,-1,-1,-1,-1,-1,-1,-1],"loss_changes":[3.358149E1,9.420372E0,1.868743E1,8.385263E0,1.4495715E1,1.1040854E1,1.3163443E1,0E0,0E0,0E0,0E0,0E0,0E0,0E0,0E0],"parents":[2147483647,0,0,1,1,2,2,3,3,4,4,5,5,6,6],"right_children":[2,4,6,8,10,12,14,-1,-1,-1,-1,-1,-1,-1,-1],"split_conditions":[-2.9E0,1E0,6.619953E1,9.39E1,1.013E2,6.969697E-1,2E0,-1.3763078E-2,-4.7656796E-3,8.300679E-3,-4.369807E-3,-8.619748E-4,7.149044E-3,1.200614E-2,3.4287209E-3],"split_indices":[13,22,2,8,7,23,19,0,0,0,0,0,0,0,0],"split_type":[0,0,0,0,0,0,0,0,0,0,0,0,0,0,0],"sum_hessian":[3.2801345E3,1.1179246E3,2.16221E3,7.5100134E2,3.6692328E2,1.3894922E3,7.727177E2,1.0864588E2,6.4235547E2,1.1985359E2,2.470697E2,1.2130221E3,1.7646999E2,2.2849603E2,5.442217E2],"tree_param":{"num_deleted":"0","num_feature":"25","num_nodes":"15","size_leaf_vector":"1"}},{"base_weights":[-9.719483E-3,-6.271382E-2,2.1030284E-1,2.6151586E-1,-8.8257164E-2,1.5054382E-1,4.8411438E-1,1.0774305E-2,-7.372936E-3,-5.5248043E-3,-8.3035324E-4,1.4988904E-2,3.2594535E-3,4.1544675E-3,1.8442964E-2],"categories":[],"categories_nodes":[],"categories_segments":[],"categories_sizes":[],"default_left":[0,0,0,0,0,0,0,0,0,0,0,0,0,0,0],"id":71,"left_children":[1,3,5,7,9,11,13,-1,-1,-1,-1,-1,-1,-1,-1],"loss_changes":[3.8322304E1,2.1958221E1,1.0366093E1,9.67981E0,1.4262827E1,7.6258287E0,5.055626E0,0E0,0E0,0E0,0E0,0E0,0E0,0E0,0E0],"parents":[2147483647,0,0,1,1,2,2,3,3,4,4,5,5,6,6],"right_children":[2,4,6,8,10,12,14,-1,-1,-1,-1,-1,-1,-1,-1],"split_conditions":[6.2E0,2.857143E-1,1.42E1,5.1E0,1.441679E3,1.5384616E-1,1.5562501E3,1.0774305E-2,-7.372936E-3,-5.5248043E-3,-8.3035324E-4,1.4988904E-2,3.2594535E-3,4.1544675E-3,1.8442964E-2],"split_indices":[15,24,15,15,0,24,0,0,0,0,0,0,0,0,0],"split_type":[0,0,0,0,0,0,0,0,0,0,0,0,0,0,0],"sum_hessian":[3.284534E3,2.6475603E3,6.369735E2,1.9267232E2,2.4548882E3,5.2413214E2,1.12841354E2,1.6182133E2,3.0850992E1,9.4957043E2,1.5053176E3,5.4992294E1,4.6913986E2,3.1519016E1,8.1322334E1],"tree_param":{"num_deleted":"0","num_feature":"25","num_nodes":"15","size_leaf_vector":"1"}},{"base_weights":[1.3385391E-2,-3.6571886E-2,2.325199E-1,-2.5037533E-1,-4.977939E-3,8.6219895E-1,2.0335743E-1,2.4086393E-3,-9.344228E-3,6.644996E-3,-7.858357E-4,1.6676353E-2,2.8790541E-2,1.003195E-2,3.3163193E-3],"categories":[],"categories_nodes":[],"categories_segments":[],"categories_sizes":[],"default_left":[0,0,0,0,0,0,0,0,0,0,0,0,0,0,0],"id":72,"left_children":[1,3,5,7,9,11,13,-1,-1,-1,-1,-1,-1,-1,-1],"loss_changes":[3.5799652E1,1.7988955E1,1.0972874E1,6.952011E0,1.1160407E1,2.5976944E-1,7.0359116E0,0E0,0E0,0E0,0E0,0E0,0E0,0E0,0E0],"parents":[2147483647,0,0,1,1,2,2,3,3,4,4,5,5,6,6],"right_children":[2,4,6,8,10,12,14,-1,-1,-1,-1,-1,-1,-1,-1],"split_conditions":[6.4E0,-1.8466005E2,8.695652E-2,-1.7E0,2.857143E-1,9.6153843E-1,5.2380955E-1,2.4086393E-3,-9.344228E-3,6.644996E-3,-7.858357E-4,1.6676353E-2,2.8790541E-2,1.003195E-2,3.3163193E-3],"split_indices":[15,2,24,9,24,23,23,0,0,0,0,0,0,0,0],"split_type":[0,0,0,0,0,0,0,0,0,0,0,0,0,0,0],"sum_hessian":[3.2683855E3,2.6622834E3,6.061021E2,3.4186697E2,2.3204165E3,2.556364E1,5.8053845E2,5.3268322E1,2.8859866E2,1.979497E2,2.1224668E3,7.7895145E0,1.7774126E1,2.3962096E2,3.4091748E2],"tree_param":{"num_deleted":"0","num_feature":"25","num_nodes":"15","size_leaf_vector":"1"}},{"base_weights":[-5.846334E-4,-5.083832E-2,2.1677439E-1,-2.648798E-1,-1.6037326E-2,1.9307649E-1,2.8721098E-2,-1.38210505E-2,-5.7352255E-3,-1.05583025E-2,7.92393E-5,9.470641E-3,3.2652772E-3],"categories":[],"categories_nodes":[],"categories_segments":[],"categories_sizes":[],"default_left":[0,0,0,0,0,0,0,0,0,0,0,0,0],"id":73,"left_children":[1,3,5,7,9,11,-1,-1,-1,-1,-1,-1,-1],"loss_changes":[3.578683E1,1.9817257E1,1.0612827E1,5.2822533E0,1.436857E1,6.1357117E0,0E0,0E0,0E0,0E0,0E0,0E0,0E0],"parents":[2147483647,0,0,1,1,2,2,3,3,4,4,5,5],"right_children":[2,4,6,8,10,12,-1,-1,-1,-1,-1,-1,-1],"split_conditions":[6.4E0,3.9215687E-1,9.6153843E-1,6E-1,-2.0218256E2,5.2380955E-1,2.8721098E-2,-1.38210505E-2,-5.7352255E-3,-1.05583025E-2,7.92393E-5,9.470641E-3,3.2652772E-3],"split_indices":[15,23,23,11,2,23,0,0,0,0,0,0,0],"split_type":[0,0,0,0,0,0,0,0,0,0,0,0,0],"sum_hessian":[3.2742456E3,2.6600132E3,6.1423236E2,3.7108228E2,2.288931E3,5.9640894E2,1.7823454E1,1.0004117E2,2.710411E2,1.1963527E2,2.1692957E3,2.4175732E2,3.546516E2],"tree_param":{"num_deleted":"0","num_feature":"25","num_nodes":"13","size_leaf_vector":"1"}},{"base_weights":[-2.3409477E-5,-5.102768E-2,1.9796175E-1,-8.281764E-2,1.4303295E-1,2.735619E-1,2.0307757E-2,-9.756271E-3,-1.861671E-3,-2.3953022E-2,5.1526325E-3,3.098685E-2,7.5852065E-3,1.7385993E-3,-3.0311326E-2],"categories":[],"categories_nodes":[],"categories_segments":[],"categories_sizes":[],"default_left":[0,0,0,0,0,0,0,0,0,0,0,0,0,0,0],"id":74,"left_children":[1,3,5,7,9,11,13,-1,-1,-1,-1,-1,-1,-1,-1],"loss_changes":[3.317532E1,1.6127758E1,9.033001E0,1.1279113E1,1.0089832E1,7.1656647E0,7.895309E0,0E0,0E0,0E0,0E0,0E0,0E0,0E0,0E0],"parents":[2147483647,0,0,1,1,2,2,3,3,4,4,5,5,6,6],"right_children":[2,4,6,8,10,12,14,-1,-1,-1,-1,-1,-1,-1,-1],"split_conditions":[5.9E0,6.875E-1,1.019E2,3.125E-1,-9.6E0,7.1428575E-2,5E0,-9.756271E-3,-1.861671E-3,-2.3953022E-2,5.1526325E-3,3.098685E-2,7.5852065E-3,1.7385993E-3,-3.0311326E-2],"split_indices":[15,23,5,23,14,24,19,0,0,0,0,0,0,0,0],"split_type":[0,0,0,0,0,0,0,0,0,0,0,0,0,0,0],"sum_hessian":[3.2833064E3,2.6113274E3,6.719791E2,2.2442583E3,3.670689E2,4.710046E2,2.0097449E2,1.7590773E2,2.0683506E3,1.0073346E1,3.5699557E2,1.1214373E1,4.5979025E2,1.9480312E2,6.171368E0],"tree_param":{"num_deleted":"0","num_feature":"25","num_nodes":"15","size_leaf_vector":"1"}},{"base_weights":[9.822459E-4,-2.0267463E-1,5.3628393E-2,-2.1461615E-1,1.7555755E-2,8.966396E-2,-1.4980157E-1,-3.231313E-2,-6.0754945E-3,2.0894231E-3,1.0255355E-2,7.478376E-4,-7.781696E-3],"categories":[],"categories_nodes":[],"categories_segments":[],"categories_sizes":[],"default_left":[0,0,0,0,0,0,0,0,0,0,0,0,0],"id":75,"left_children":[1,3,5,7,-1,9,11,-1,-1,-1,-1,-1,-1],"loss_changes":[3.522217E1,6.474163E0,1.9148926E1,6.7262726E0,0E0,1.1172871E1,7.535268E0,0E0,0E0,0E0,0E0,0E0,0E0],"parents":[2147483647,0,0,1,1,2,2,3,3,5,5,6,6],"right_children":[2,4,6,8,-1,10,12,-1,-1,-1,-1,-1,-1],"split_conditions":[-7.6E0,1.6154955E3,5.2380955E-1,9.15E1,1.7555755E-2,2.0719781E2,-1E-1,-3.231313E-2,-6.0754945E-3,2.0894231E-3,1.0255355E-2,7.478376E-4,-7.781696E-3],"split_indices":[15,0,24,7,0,2,12,0,0,0,0,0,0],"split_type":[0,0,0,0,0,0,0,0,0,0,0,0,0],"sum_hessian":[3.2831006E3,6.737828E2,2.6093179E3,6.6443964E2,9.343162E0,2.217134E3,3.9218375E2,7.9746037E0,6.56465E2,2.0552756E3,1.6185838E2,1.5146223E2,2.4072151E2],"tree_param":{"num_deleted":"0","num_feature":"25","num_nodes":"13","size_leaf_vector":"1"}},{"base_weights":[4.4048997E-3,-3.514649E-2,2.0610419E-1,-4.6418063E-2,4.4861117E-1,2.9070953E-1,5.1369935E-2,-6.0557486E-3,-4.5911476E-4,5.592412E-4,2.6905622E-2,5.9485063E-3,1.5237006E-2,-4.1682084E-4,1.846608E-2],"categories":[],"categories_nodes":[],"categories_segments":[],"categories_sizes":[],"default_left":[0,0,0,0,0,0,0,0,0,0,0,0,0,0,0],"id":76,"left_children":[1,3,5,7,9,11,13,-1,-1,-1,-1,-1,-1,-1,-1],"loss_changes":[2.6071754E1,1.4920181E1,6.999277E0,1.2915707E1,1.1992484E1,6.8484592E0,7.0268946E0,0E0,0E0,0E0,0E0,0E0,0E0,0E0,0E0],"parents":[2147483647,0,0,1,1,2,2,3,3,4,4,5,5,6,6],"right_children":[2,4,6,8,10,12,14,-1,-1,-1,-1,-1,-1,-1,-1],"split_conditions":[7.3333335E-1,1.31E1,5.3E0,-9.8E0,1.6138569E3,2.8E0,9.4736844E-1,-6.0557486E-3,-4.5911476E-4,5.592412E-4,2.6905622E-2,5.9485063E-3,1.5237006E-2,-4.1682084E-4,1.846608E-2],"split_indices":[23,15,13,15,0,13,23,0,0,0,0,0,0,0,0],