{"learner":{"attributes":{},"feature_names":["elo_home","elo_away","elo_diff","elo_prob","pf_roll_home","pf_roll_away","pf_roll_diff","pa_roll_home","pa_roll_away","pa_roll_diff","win_roll_home","win_roll_away","win_roll_diff","margin_roll_home","margin_roll_away","margin_roll_diff","games_in_window_home","games_in_window_away","home_rest_days","away_rest_days","home_b2b","away_b2b","rest_diff","market_prob_home","market_prob_away","home_players_out","away_players_out","home_players_questionable","away_players_questionable","home_injury_severity","away_injury_severity"],"feature_types":["float","float","float","float","float","float","float","float","float","float","float","float","float","float","float","float","float","float","float","float","int","int","float","float","float","float","float","float","float","float","float"],"gradient_booster":{"model":{"cats":{"enc":[],"feature_segments":[],"sorted_idx":[]},"gbtree_model_param":{"num_parallel_tree":"1","num_trees":"800"},"iteration_indptr":[0,1,2,3,4,5,6,7,8,9,10,11,12,13,14,15,16,17,18,19,20,21,22,23,24,25,26,27,28,29,30,31,32,33,34,35,36,37,38,39,40,41,42,43,44,45,46,47,48,49,50,51,52,53,54,55,56,57,58,59,60,61,62,63,64,65,66,67,68,69,70,71,72,73,74,75,76,77,78,79,80,81,82,83,84,85,86,87,88,89,90,91,92,93,94,95,96,97,98,99,100,101,102,103,104,105,106,107,108,109,110,111,112,113,114,115,116,117,118,119,120,121,122,123,124,125,126,127,128,129,130,131,132,133,134,135,136,137,138,139,140,141,142,143,144,145,146,147,148,149,150,151,152,153,154,155,156,157,158,159,160,161,162,163,164,165,166,167,168,169,170,171,172,173,174,175,176,177,178,179,180,181,182,183,184,185,186,187,188,189,190,191,192,193,194,195,196,197,198,199,200,201,202,203,204,205,206,207,208,209,210,211,212,213,214,215,216,217,218,219,220,221,222,223,224,225,226,227,228,229,230,231,232,233,234,235,236,237,238,239,240,241,242,243,244,245,246,247,248,249,250,251,252,253,254,255,256,257,258,259,260,261,262,263,264,265,266,267,268,269,270,271,272,273,274,275,276,277,278,279,280,281,282,283,284,285,286,287,288,289,290,291,292,293,294,295,296,297,298,299,300,301,302,303,304,305,306,307,308,309,310,311,312,313,314,315,316,317,318,319,320,321,322,323,324,325,326,327,328,329,330,331,332,333,334,335,336,337,338,339,340,341,342,343,344,345,346,347,348,349,350,351,352,353,354,355,356,357,358,359,360,361,362,363,364,365,366,367,368,369,370,371,372,373,374,375,376,377,378,379,380,381,382,383,384,385,386,387,388,389,390,391,392,393,394,395,396,397,398,399,400,401,402,403,404,405,406,407,408,409,410,411,412,413,414,415,416,417,418,419,420,421,422,423,424,425,426,427,428,429,430,431,432,433,434,435,436,437,438,439,440,441,442,443,444,445,446,447,448,449,450,451,452,453,454,455,456,457,458,459,460,461,462,463,464,465,466,467,468,469,470,471,472,473,474,475,476,477,478,479,480,481,482,483,484,485,486,487,488,489,490,491,492,493,494,495,496,497,498,499,500,501,502,503,504,505,506,507,508,509,510,511,512,513,514,515,516,517,518,519,520,521,522,523,524,525,526,527,528,529,530,531,532,533,534,535,536,537,538,539,540,541,542,543,544,545,546,547,548,549,550,551,552,553,554,555,556,557,558,559,560,561,562,563,564,565,566,567,568,569,570,571,572,573,574,575,576,577,578,579,580,581,582,583,584,585,586,587,588,589,590,591,592,593,594,595,596,597,598,599,600,601,602,603,604,605,606,607,608,609,610,611,612,613,614,615,616,617,618,619,620,621,622,623,624,625,626,627,628,629,630,631,632,633,634,635,636,637,638,639,640,641,642,643,644,645,646,647,648,649,650,651,652,653,654,655,656,657,658,659,660,661,662,663,664,665,666,667,668,669,670,671,672,673,674,675,676,677,678,679,680,681,682,683,684,685,686,687,688,689,690,691,692,693,694,695,696,697,698,699,700,701,702,703,704,705,706,707,708,709,710,711,712,713,714,715,716,717,718,719,720,721,722,723,724,725,726,727,728,729,730,731,732,733,734,735,736,737,738,739,740,741,742,743,744,745,746,747,748,749,750,751,752,753,754,755,756,757,758,759,760,761,762,763,764,765,766,767,768,769,770,771,772,773,774,775,776,777,778,779,780,781,782,783,784,785,786,787,788,789,790,791,792,793,794,795,796,797,798,799,800],"tree_info":[0,0,0,0,0,0,0,0,0,0,0,0,0,0,0,0,0,0,0,0,0,0,0,0,0,0,0,0,0,0,0,0,0,0,0,0,0,0,0,0,0,0,0,0,0,0,0,0,0,0,0,0,0,0,0,0,0,0,0,0,0,0,0,0,0,0,0,0,0,0,0,0,0,0,0,0,0,0,0,0,0,0,0,0,0,0,0,0,0,0,0,0,0,0,0,0,0,0,0,0,0,0,0,0,0,0,0,0,0,0,0,0,0,0,0,0,0,0,0,0,0,0,0,0,0,0,0,0,0,0,0,0,0,0,0,0,0,0,0,0,0,0,0,0,0,0,0,0,0,0,0,0,0,0,0,0,0,0,0,0,0,0,0,0,0,0,0,0,0,0,0,0,0,0,0,0,0,0,0,0,0,0,0,0,0,0,0,0,0,0,0,0,0,0,0,0,0,0,0,0,0,0,0,0,0,0,0,0,0,0,0,0,0,0,0,0,0,0,0,0,0,0,0,0,0,0,0,0,0,0,0,0,0,0,0,0,0,0,0,0,0,0,0,0,0,0,0,0,0,0,0,0,0,0,0,0,0,0,0,0,0,0,0,0,0,0,0,0,0,0,0,0,0,0,0,0,0,0,0,0,0,0,0,0,0,0,0,0,0,0,0,0,0,0,0,0,0,0,0,0,0,0,0,0,0,0,0,0,0,0,0,0,0,0,0,0,0,0,0,0,0,0,0,0,0,0,0,0,0,0,0,0,0,0,0,0,0,0,0,0,0,0,0,0,0,0,0,0,0,0,0,0,0,0,0,0,0,0,0,0,0,0,0,0,0,0,0,0,0,0,0,0,0,0,0,0,0,0,0,0,0,0,0,0,0,0,0,0,0,0,0,0,0,0,0,0,0,0,0,0,0,0,0,0,0,0,0,0,0,0,0,0,0,0,0,0,0,0,0,0,0,0,0,0,0,0,0,0,0,0,0,0,0,0,0,0,0,0,0,0,0,0,0,0,0,0,0,0,0,0,0,0,0,0,0,0,0,0,0,0,0,0,0,0,0,0,0,0,0,0,0,0,0,0,0,0,0,0,0,0,0,0,0,0,0,0,0,0,0,0,0,0,0,0,0,0,0,0,0,0,0,0,0,0,0,0,0,0,0,0,0,0,0,0,0,0,0,0,0,0,0,0,0,0,0,0,0,0,0,0,0,0,0,0,0,0,0,0,0,0,0,0,0,0,0,0,0,0,0,0,0,0,0,0,0,0,0,0,0,0,0,0,0,0,0,0,0,0,0,0,0,0,0,0,0,0,0,0,0,0,0,0,0,0,0,0,0,0,0,0,0,0,0,0,0,0,0,0,0,0,0,0,0,0,0,0,0,0,0,0,0,0,0,0,0,0,0,0,0,0,0,0,0,0,0,0,0,0,0,0,0,0,0,0,0,0,0,0,0,0,0,0,0,0,0,0,0,0,0,0,0,0,0,0,0,0,0,0,0,0,0,0,0,0,0,0,0,0,0,0,0,0,0,0,0,0,0,0,0,0,0,0,0,0,0,0,0,0,0,0,0,0,0,0,0,0,0,0,0,0,0,0,0,0,0,0,0,0,0,0,0,0,0,0,0,0,0,0,0,0,0,0,0,0,0,0,0,0,0,0,0,0,0,0,0,0,0,0,0,0,0,0,0,0,0,0,0,0,0,0,0,0,0,0,0,0,0,0,0,0,0,0,0,0,0,0,0,0,0,0,0,0,0,0,0,0,0,0,0,0,0,0,0,0,0,0,0,0,0,0,0,0,0,0,0,0,0,0,0,0],"trees":[{"base_weights":[-4.0711593E-3,-1.188042E0,3.4646195E-1,-1.7316458E0,-1.0105486E0,-4.8246168E-2,7.822047E-1,-5.6026265E-2,-2.1409176E-2,-2.6052695E-2,-4.4447444E-2,-8.8906735E-3,4.658974E-3,7.3341588E-3,2.719413E-2],"categories":[],"categories_nodes":[],"categories_segments":[],"categories_sizes":[],"default_left":[0,0,0,0,0,0,0,0,0,0,0,0,0,0,0],"id":0,"left_children":[1,3,5,7,9,11,13,-1,-1,-1,-1,-1,-1,-1,-1],"loss_changes":[4.7597546E2,2.3527863E1,1.52232E2,7.3945312E0,1.2095779E1,2.354197E1,2.7886627E1,0E0,0E0,0E0,0E0,0E0,0E0,0E0,0E0],"parents":[2147483647,0,0,1,1,2,2,3,3,4,4,5,5,6,6],"right_children":[2,4,6,8,10,12,14,-1,-1,-1,-1,-1,-1,-1,-1],"split_conditions":[-3.288846E1,-1.02703606E2,2E-1,1.4773549E3,8.6E0,-7E-1,2.857143E-1,-5.6026265E-2,-2.1409176E-2,-2.6052695E-2,-4.4447444E-2,-8.8906735E-3,4.658974E-3,7.3341588E-3,2.719413E-2],"split_indices":[2,2,12,0,9,13,13,0,0,0,0,0,0,0,0],"split_type":[0,0,0,0,0,0,0,0,0,0,0,0,0,0,0],"sum_hessian":[1.1448789E3,2.6098364E2,8.838953E2,6.2084217E1,1.9889944E2,4.6425198E2,4.196433E2,5.4036263E1,8.047955E0,1.549806E2,4.3918835E1,2.0901686E2,2.5523512E2,7.9329834E1,3.4031348E2],"tree_param":{"num_deleted":"0","num_feature":"31","num_nodes":"15","size_leaf_vector":"1"}},{"base_weights":[1.6030207E-2,-8.757748E-1,5.286765E-1,-1.3282759E0,-4.5603907E-1,1.0494209E-1,8.680344E-1,-5.3843632E-2,-3.420738E-2,-1.5782885E-2,1.1519001E-2,-8.436469E-3,5.9798057E-3,2.1862393E-2,3.3835314E-2],"categories":[],"categories_nodes":[],"categories_segments":[],"categories_sizes":[],"default_left":[0,0,0,0,0,0,1,0,0,0,0,0,0,0,0],"id":1,"left_children":[1,3,5,7,9,11,13,-1,-1,-1,-1,-1,-1,-1,-1],"loss_changes":[5.2814606E2,7.948459E1,1.05388824E2,1.57074585E1,1.3165337E1,1.1987067E1,1.3913269E1,0E0,0E0,0E0,0E0,0E0,0E0,0E0,0E0],"parents":[2147483647,0,0,1,1,2,2,3,3,4,4,5,5,6,6],"right_children":[2,4,6,8,10,12,14,-1,-1,-1,-1,-1,-1,-1,-1],"split_conditions":[-2.1E0,-4.0501038E1,5.5833335E0,-1.34E1,1.5728607E3,-1.6962082E1,1.38E1,-5.3843632E-2,-3.420738E-2,-1.5782885E-2,1.1519001E-2,-8.436469E-3,5.9798057E-3,2.1862393E-2,3.3835314E-2],"split_indices":[15,2,15,15,0,2,15,0,0,0,0,0,0,0,0],"split_type":[0,0,0,0,0,0,0,0,0,0,0,0,0,0,0],"sum_hessian":[1.1532115E3,4.2068137E2,7.3253015E2,2.0139766E2,2.1928372E2,3.263487E2,4.0618143E2,5.540064E1,1.4599702E2,2.0274808E2,1.6535639E1,6.371032E1,2.6263837E2,2.6689807E2,1.3928339E2],"tree_param":{"num_deleted":"0","num_feature":"31","num_nodes":"15","size_leaf_vector":"1"}},{"base_weights":[-1.7719211E-2,-8.5354376E-1,4.890968E-1,-1.2694732E0,-4.6856797E-1,6.840098E-2,8.200671E-1,-5.0445337E-2,-3.262209E-2,-1.6627863E-2,1.5400049E-2,-5.182923E-3,7.560166E-3,2.0047424E-2,3.3146914E-2],"categories":[],"categories_nodes":[],"categories_segments":[],"categories_sizes":[],"default_left":[0,0,0,0,0,0,1,0,0,0,0,0,0,0,0],"id":2,"left_children":[1,3,5,7,9,11,13,-1,-1,-1,-1,-1,-1,-1,-1],"loss_changes":[4.9024942E2,6.935516E1,1.0026161E2,1.3880585E1,1.9507317E1,1.4138806E1,1.6694946E1,0E0,0E0,0E0,0E0,0E0,0E0,0E0,0E0],"parents":[2147483647,0,0,1,1,2,2,3,3,4,4,5,5,6,6],"right_children":[2,4,6,8,10,12,14,-1,-1,-1,-1,-1,-1,-1,-1],"split_conditions":[-1.9E0,-4.0501038E1,5.5833335E0,-1.31E1,1.5728607E3,2E-1,1.38E1,-5.0445337E-2,-3.262209E-2,-1.6627863E-2,1.5400049E-2,-5.182923E-3,7.560166E-3,2.0047424E-2,3.3146914E-2],"split_indices":[15,2,15,15,0,13,15,0,0,0,0,0,0,0,0],"split_type":[0,0,0,0,0,0,0,0,0,0,0,0,0,0,0],"sum_hessian":[1.1553297E3,4.3585223E2,7.1947754E2,2.0839926E2,2.2745299E2,3.173285E2,4.0214905E2,6.134208E1,1.4705717E2,2.095963E2,1.7856684E1,1.371892E2,1.801393E2,2.6450775E2,1.376413E2],"tree_param":{"num_deleted":"0","num_feature":"31","num_nodes":"15","size_leaf_vector":"1"}},{"base_weights":[3.9527123E-3,-7.8187865E-1,4.8793736E-1,-1.1379055E0,-3.3819056E-1,6.798009E-2,8.1857264E-1,-4.980864E-2,-2.7685659E-2,-1.2785383E-2,1.8708296E-2,-3.0203217E-3,9.040392E-3,2.0474508E-2,3.2353476E-2],"categories":[],"categories_nodes":[],"categories_segments":[],"categories_sizes":[],"default_left":[0,0,0,0,0,0,1,0,0,0,0,0,0,0,0],"id":3,"left_children":[1,3,5,7,9,11,13,-1,-1,-1,-1,-1,-1,-1,-1],"loss_changes":[4.390955E2,6.9125824E1,9.9150345E1,2.5846222E1,1.6964905E1,1.246044E1,1.3398346E1,0E0,0E0,0E0,0E0,0E0,0E0,0E0,0E0],"parents":[2147483647,0,0,1,1,2,2,3,3,4,4,5,5,6,6],"right_children":[2,4,6,8,10,12,14,-1,-1,-1,-1,-1,-1,-1,-1],"split_conditions":[-1.9E0,-3.1329523E1,5.5833335E0,-1.31E1,1.5746376E3,8E-1,1.38E1,-4.980864E-2,-2.7685659E-2,-1.2785383E-2,1.8708296E-2,-3.0203217E-3,9.040392E-3,2.0474508E-2,3.2353476E-2],"split_indices":[15,2,15,15,0,14,15,0,0,0,0,0,0,0,0],"split_type":[0,0,0,0,0,0,0,0,0,0,0,0,0,0,0],"sum_hessian":[1.1525079E3,4.390386E2,7.134693E2,2.4271397E2,1.9632463E2,3.148136E2,3.986557E2,6.882043E1,1.7389354E2,1.8037975E2,1.5944879E1,1.830727E2,1.3174089E2,2.6402206E2,1.3463365E2],"tree_param":{"num_deleted":"0","num_feature":"31","num_nodes":"15","size_leaf_vector":"1"}},{"base_weights":[-2.472538E-3,-5.7662773E-1,6.0481966E-1,-1.0326843E0,-2.2282894E-1,3.463813E-1,9.0063506E-1,-4.692425E-2,-2.5196522E-2,-8.755605E-3,9.193147E-3,-5.287678E-3,1.2570465E-2,1.5608488E-2,3.0591812E-2],"categories":[],"categories_nodes":[],"categories_segments":[],"categories_sizes":[],"default_left":[0,0,0,0,0,0,1,0,0,0,0,0,0,0,0],"id":4,"left_children":[1,3,5,7,9,11,13,-1,-1,-1,-1,-1,-1,-1,-1],"loss_changes":[4.0060083E2,9.505867E1,4.2373383E1,2.5093842E1,1.22854595E1,1.1447945E1,1.1234009E1,0E0,0E0,0E0,0E0,0E0,0E0,0E0,0E0],"parents":[2147483647,0,0,1,1,2,2,3,3,4,4,5,5,6,6],"right_children":[2,4,6,8,10,12,14,-1,-1,-1,-1,-1,-1,-1,-1],"split_conditions":[1.6222222E0,5.532056E-1,1.01E1,-1.31E1,1.5601467E3,1.4674658E3,3E-1,-4.692425E-2,-2.5196522E-2,-8.755605E-3,9.193147E-3,-5.287678E-3,1.2570465E-2,1.5608488E-2,3.0591812E-2],"split_indices":[15,3,15,15,1,0,13,0,0,0,0,0,0,0,0],"split_type":[0,0,0,0,0,0,0,0,0,0,0,0,0,0,0],"sum_hessian":[1.1469067E3,5.895634E2,5.5734326E2,2.5672226E2,3.3284116E2,2.98623E2,2.5872028E2,6.644705E1,1.9027522E2,2.948383E2,3.8002853E1,3.626349E1,2.623595E2,6.2971775E1,1.9574849E2],"tree_param":{"num_deleted":"0","num_feature":"31","num_nodes":"15","size_leaf_vector":"1"}},{"base_weights":[-2.955436E-4,-7.5259835E-1,4.640136E-1,-1.1682868E0,-3.9711237E-1,8.179629E-2,7.7119404E-1,-4.9543545E-2,-3.0727383E-2,-1.3866897E-2,1.3830915E-2,-1.0340122E-3,1.0452492E-2,1.9120565E-2,3.092243E-2],"categories":[],"categories_nodes":[],"categories_segments":[],"categories_sizes":[],"default_left":[0,0,0,0,0,0,1,0,0,0,0,0,0,0,0],"id":5,"left_children":[1,3,5,7,9,11,13,-1,-1,-1,-1,-1,-1,-1,-1],"loss_changes":[4.0213458E2,6.446181E1,8.351959E1,1.2368042E1,1.3532013E1,9.879363E0,1.3050003E1,0E0,0E0,0E0,0E0,0E0,0E0,0E0,0E0],"parents":[2147483647,0,0,1,1,2,2,3,3,4,4,5,5,6,6],"right_children":[2,4,6,8,10,12,14,-1,-1,-1,-1,-1,-1,-1,-1],"split_conditions":[-1.9E0,-4.412986E1,5.5833335E0,-1.5E1,1.5728607E3,2.6E0,1.38E1,-4.9543545E-2,-3.0727383E-2,-1.3866897E-2,1.3830915E-2,-1.0340122E-3,1.0452492E-2,1.9120565E-2,3.092243E-2],"split_indices":[15,2,15,15,0,14,15,0,0,0,0,0,0,0,0],"split_type":[0,0,0,0,0,0,0,0,0,0,0,0,0,0,0],"sum_hessian":[1.1492551E3,4.3836606E2,7.108891E2,2.010183E2,2.3734776E2,3.173207E2,3.9356836E2,4.3761448E1,1.5725685E2,2.2103645E2,1.6311314E1,2.2157196E2,9.5748764E1,2.6194754E2,1.3162082E2],"tree_param":{"num_deleted":"0","num_feature":"31","num_nodes":"15","size_leaf_vector":"1"}},{"base_weights":[1.8457128E-2,-7.416654E-1,4.5745522E-1,-1.0909365E0,-4.0376738E-1,8.955818E-2,7.7105296E-1,-3.730542E-2,-2.2888329E-2,-1.720221E-2,4.3155807E-3,-3.2829947E-3,7.660119E-3,1.9056644E-2,3.0872056E-2],"categories":[],"categories_nodes":[],"categories_segments":[],"categories_sizes":[],"default_left":[0,0,0,0,0,0,1,0,0,0,0,0,0,0,0],"id":6,"left_children":[1,3,5,7,9,11,13,-1,-1,-1,-1,-1,-1,-1,-1],"loss_changes":[3.8415814E2,4.930133E1,8.412247E1,9.393539E0,2.013115E1,1.1142808E1,1.3148071E1,0E0,0E0,0E0,0E0,0E0,0E0,0E0,0E0],"parents":[2147483647,0,0,1,1,2,2,3,3,4,4,5,5,6,6],"right_children":[2,4,6,8,10,12,14,-1,-1,-1,-1,-1,-1,-1,-1],"split_conditions":[-2.3333333E0,-4.19565E1,5.5833335E0,1.4762474E3,1.5376127E3,5.8215823E0,1.38E1,-3.730542E-2,-2.2888329E-2,-1.720221E-2,4.3155807E-3,-3.2829947E-3,7.660119E-3,1.9056644E-2,3.0872056E-2],"split_indices":[15,2,15,0,1,2,15,0,0,0,0,0,0,0,0],"split_type":[0,0,0,0,0,0,0,0,0,0,0,0,0,0,0],"sum_hessian":[1.1492179E3,4.204763E2,7.287416E2,2.056627E2,2.1481358E2,3.3593045E2,3.9281113E2,1.3846118E2,6.720152E1,1.6397191E2,5.084167E1,1.5282652E2,1.8310393E2,2.5960495E2,1.3320618E2],"tree_param":{"num_deleted":"0","num_feature":"31","num_nodes":"15","size_leaf_vector":"1"}},{"base_weights":[1.2853255E-3,-7.1669E-1,4.240862E-1,-1.0906093E0,-3.6813775E-1,1.2420738E-1,7.752172E-1,-3.931063E-2,-2.4832534E-2,-1.5014468E-2,4.1661905E-3,-2.8679916E-3,8.379672E-3,2.5394302E-2,7.2002313E-3],"categories":[],"categories_nodes":[],"categories_segments":[],"categories_sizes":[],"default_left":[0,0,0,0,0,0,1,0,0,0,0,0,0,0,0],"id":7,"left_children":[1,3,5,7,9,11,13,-1,-1,-1,-1,-1,-1,-1,-1],"loss_changes":[3.5123965E2,5.5489273E1,7.658354E1,1.0836304E1,1.5063532E1,1.3459236E1,1.2583099E1,0E0,0E0,0E0,0E0,0E0,0E0,0E0,0E0],"parents":[2147483647,0,0,1,1,2,2,3,3,4,4,5,5,6,6],"right_children":[2,4,6,8,10,12,14,-1,-1,-1,-1,-1,-1,-1,-1],"split_conditions":[-2.3333333E0,5.390122E-1,7.5E0,1.460407E3,1.5419478E3,6.0741615E-1,1.1E0,-3.931063E-2,-2.4832534E-2,-1.5014468E-2,4.1661905E-3,-2.8679916E-3,8.379672E-3,2.5394302E-2,7.2002313E-3],"split_indices":[15,3,15,0,1,3,9,0,0,0,0,0,0,0,0],"split_type":[0,0,0,0,0,0,0,0,0,0,0,0,0,0,0],"sum_hessian":[1.1550648E3,4.27839E2,7.2722577E2,2.0538132E2,2.2245767E2,3.9296927E2,3.3425653E2,1.09694E2,9.5687325E1,1.7641985E2,4.6037815E1,1.6274033E2,2.3022893E2,2.9446848E2,3.9788067E1],"tree_param":{"num_deleted":"0","num_feature":"31","num_nodes":"15","size_leaf_vector":"1"}},{"base_weights":[-6.4970492E-3,-5.1609194E-1,5.675749E-1,-9.7904176E-1,-2.2651741E-1,3.2909116E-1,8.401925E-1,-3.3531826E-2,-1.6129198E-2,-1.1072354E-2,2.514695E-3,-8.317607E-3,1.2423281E-2,2.032284E-2,3.23564E-2],"categories":[],"categories_nodes":[],"categories_segments":[],"categories_sizes":[],"default_left":[0,0,0,0,0,0,0,0,0,0,0,0,0,0,0],"id":8,"left_children":[1,3,5,7,9,11,13,-1,-1,-1,-1,-1,-1,-1,-1],"loss_changes":[3.3786148E2,8.179588E1,3.5033173E1,1.3792465E1,1.674048E1,1.5132969E1,9.075775E0,0E0,0E0,0E0,0E0,0E0,0E0,0E0,0E0],"parents":[2147483647,0,0,1,1,2,2,3,3,4,4,5,5,6,6],"right_children":[2,4,6,8,10,12,14,-1,-1,-1,-1,-1,-1,-1,-1],"split_conditions":[1.9E0,-4.0501038E1,1.01E1,-5.2E0,1.5236243E3,1.4674658E3,5.99387E1,-3.3531826E-2,-1.6129198E-2,-1.1072354E-2,2.514695E-3,-8.317607E-3,1.2423281E-2,2.032284E-2,3.23564E-2],"split_indices":[15,2,15,15,0,0,2,0,0,0,0,0,0,0,0],"split_type":[0,0,0,0,0,0,0,0,0,0,0,0,0,0,0],"sum_hessian":[1.1529064E3,6.1080505E2,5.421013E2,2.3412416E2,3.7668094E2,2.9033002E2,2.517713E2,1.7698447E2,5.7139687E1,2.5798236E2,1.1869856E2,3.542436E1,2.5490564E2,1.518915E2,9.987981E1],"tree_param":{"num_deleted":"0","num_feature":"31","num_nodes":"15","size_leaf_vector":"1"}},{"base_weights":[-2.1550131E-3,-6.594692E-1,4.09743E-1,-9.167358E-1,-3.2003564E-1,5.4805107E-2,7.0434964E-1,-4.15998E-2,-2.1682609E-2,-1.225121E-2,9.881805E-3,-2.1902253E-3,9.937923E-3,1.6925564E-2,2.9418128E-2],"categories":[],"categories_nodes":[],"categories_segments":[],"categories_sizes":[],"default_left":[0,0,0,0,0,0,1,0,0,0,0,0,0,0,0],"id":9,"left_children":[1,3,5,7,9,11,13,-1,-1,-1,-1,-1,-1,-1,-1],"loss_changes":[3.103536E2,3.8268387E1,7.364994E1,2.1847397E1,1.1145239E1,1.1356382E1,1.4354095E1,0E0,0E0,0E0,0E0,0E0,0E0,0E0,0E0],"parents":[2147483647,0,0,1,1,2,2,3,3,4,4,5,5,6,6],"right_children":[2,4,6,8,10,12,14,-1,-1,-1,-1,-1,-1,-1,-1],"split_conditions":[-2.1E0,-3.1329523E1,5.5833335E0,-1.31E1,1.5601467E3,1.5344064E3,1.38E1,-4.15998E-2,-2.1682609E-2,-1.225121E-2,9.881805E-3,-2.1902253E-3,9.937923E-3,1.6925564E-2,2.9418128E-2],"split_indices":[15,2,15,15,1,0,15,0,0,0,0,0,0,0,0],"split_type":[0,0,0,0,0,0,0,0,0,0,0,0,0,0,0],"sum_hessian":[1.1442909E3,4.4058942E2,7.037015E2,2.4966228E2,1.9092712E2,3.1970792E2,3.8399356E2,7.1150635E1,1.7851164E2,1.6839282E2,2.253431E1,2.1913382E2,1.00574104E2,2.5676184E2,1.2723172E2],"tree_param":{"num_deleted":"0","num_feature":"31","num_nodes":"15","size_leaf_vector":"1"}},{"base_weights":[1.2423144E-2,-6.3871866E-1,4.178603E-1,-9.0812296E-1,-2.8908628E-1,7.760022E-2,6.883114E-1,-4.1493896E-2,-2.1303724E-2,-2.1877153E-2,-5.339877E-3,-3.59451E-3,6.813775E-3,1.6673053E-2,3.1765338E-2],"categories":[],"categories_nodes":[],"categories_segments":[],"categories_sizes":[],"default_left":[0,0,0,0,0,0,0,0,0,0,0,0,0,0,0],"id":10,"left_children":[1,3,5,7,9,11,13,-1,-1,-1,-1,-1,-1,-1,-1],"loss_changes":[3.0074524E2,4.0913544E1,6.45509E1,2.2195175E1,9.244352E0,9.23779E0,1.861499E1,0E0,0E0,0E0,0E0,0E0,0E0,0E0,0E0],"parents":[2147483647,0,0,1,1,2,2,3,3,4,4,5,5,6,6],"right_children":[2,4,6,8,10,12,14,-1,-1,-1,-1,-1,-1,-1,-1],"split_conditions":[-2.1E0,-3.1329523E1,5.3E0,-1.31E1,4E-1,0E0,8.118972E1,-4.1493896E-2,-2.1303724E-2,-2.1877153E-2,-5.339877E-3,-3.59451E-3,6.813775E-3,1.6673053E-2,3.1765338E-2],"split_indices":[15,2,15,15,11,13,2,0,0,0,0,0,0,0,0],"split_type":[0,0,0,0,0,0,0,0,0,0,0,0,0,0,0],"sum_hessian":[1.1371881E3,4.3614822E2,7.0103986E2,2.4543465E2,1.9071356E2,3.110227E2,3.9001715E2,7.04461E1,1.7498856E2,3.7312603E1,1.5340096E2,1.3413037E2,1.7689233E2,2.891026E2,1.00914566E2],"tree_param":{"num_deleted":"0","num_feature":"31","num_nodes":"15","size_leaf_vector":"1"}},{"base_weights":[1.06118005E-2,-4.535984E-1,5.6236464E-1,-8.52033E-1,-1.5096441E-1,4.508539E-1,9.617125E-1,-3.596403E-2,-1.9559162E-2,-2.4160657E-2,-2.9797128E-3,9.276071E-3,2.3226226E-2,3.1771235E-2,2.0086735E-2],"categories":[],"categories_nodes":[],"categories_segments":[],"categories_sizes":[],"default_left":[0,0,0,0,0,0,0,0,0,0,0,0,0,0,0],"id":11,"left_children":[1,3,5,7,9,11,13,-1,-1,-1,-1,-1,-1,-1,-1],"loss_changes":[2.9198242E2,7.45245E1,2.2761429E1,1.77444E1,1.1851534E1,1.8496758E1,2.4987488E0,0E0,0E0,0E0,0E0,0E0,0E0,0E0,0E0],"parents":[2147483647,0,0,1,1,2,2,3,3,4,4,5,5,6,6],"right_children":[2,4,6,8,10,12,14,-1,-1,-1,-1,-1,-1,-1,-1],"split_conditions":[2.1E0,5.532056E-1,7.069538E-1,-1.12E1,2E0,1.38E1,-1.1E0,-3.596403E-2,-1.9559162E-2,-2.4160657E-2,-2.9797128E-3,9.276071E-3,2.3226226E-2,3.1771235E-2,2.0086735E-2],"split_indices":[15,3,3,15,18,15,9,0,0,0,0,0,0,0,0],"split_type":[0,0,0,0,0,0,0,0,0,0,0,0,0,0,0],"sum_hessian":[1.1379847E3,6.1811743E2,5.1986725E2,2.6604233E2,3.5207507E2,4.0805438E2,1.11812904E2,9.55069E1,1.7053545E2,2.4683987E1,3.2739108E2,2.851117E2,1.2294268E2,8.190278E1,2.9910126E1],"tree_param":{"num_deleted":"0","num_feature":"31","num_nodes":"15","size_leaf_vector":"1"}},{"base_weights":[-9.33122E-3,-4.3614998E-1,5.3954697E-1,-8.77403E-1,-1.7957766E-1,4.0105623E-1,9.475568E-1,-3.0046623E-2,-1.4831183E-2,-7.521444E-3,1.4405076E-2,9.068293E-3,2.5144609E-2,1.3650101E-2,2.971715E-2],"categories":[],"categories_nodes":[],"categories_segments":[],"categories_sizes":[],"default_left":[0,0,1,0,0,0,0,0,0,0,0,0,0,0,0],"id":12,"left_children":[1,3,5,7,9,11,13,-1,-1,-1,-1,-1,-1,-1,-1],"loss_changes":[2.6698688E2,7.2423065E1,2.7790619E1,1.0701721E1,1.9204983E1,1.5892105E1,2.210495E0,0E0,0E0,0E0,0E0,0E0,0E0,0E0,0E0],"parents":[2147483647,0,0,1,1,2,2,3,3,4,4,5,5,6,6],"right_children":[2,4,6,8,10,12,14,-1,-1,-1,-1,-1,-1,-1,-1],"split_conditions":[2.6E0,-4.0501038E1,1.38E1,-5.1E0,1.5718608E3,8.2982E1,1.37907715E1,-3.0046623E-2,-1.4831183E-2,-7.521444E-3,1.4405076E-2,9.068293E-3,2.5144609E-2,1.3650101E-2,2.971715E-2],"split_indices":[15,2,15,15,0,2,2,0,0,0,0,0,0,0,0],"split_type":[0,0,0,0,0,0,0,0,0,0,0,0,0,0,0],"sum_hessian":[1.1376427E3,6.400963E2,4.9754645E2,2.3445718E2,4.0563913E2,3.729418E2,1.2460464E2,1.758457E2,5.8611473E1,3.667178E2,3.892133E1,3.055761E2,6.73657E1,1.0937679E1,1.1366696E2],"tree_param":{"num_deleted":"0","num_feature":"31","num_nodes":"15","size_leaf_vector":"1"}},{"base_weights":[-1.4899453E-2,-4.5022744E-1,5.174322E-1,-7.8367686E-1,-1.7821468E-1,3.7592086E-1,9.661327E-1,-3.7323084E-2,-1.8470766E-2,-6.819246E-3,1.7217157E-2,8.450485E-3,2.4916926E-2,1.3261532E-2,3.0554373E-2],"categories":[],"categories_nodes":[],"categories_segments":[],"categories_sizes":[],"default_left":[0,0,1,0,0,0,0,0,0,0,0,0,0,0,0],"id":13,"left_children":[1,3,5,7,9,11,13,-1,-1,-1,-1,-1,-1,-1,-1],"loss_changes":[2.6450494E2,5.681134E1,3.224208E1,2.102919E1,1.2946634E1,1.6561935E1,2.9099197E0,0E0,0E0,0E0,0E0,0E0,0E0,0E0,0E0],"parents":[2147483647,0,0,1,1,2,2,3,3,4,4,5,5,6,6],"right_children":[2,4,6,8,10,12,14,-1,-1,-1,-1,-1,-1,-1,-1],"split_conditions":[2.1E0,-3.1329523E1,1.38E1,-1.31E1,8E1,8.2982E1,1.5581109E1,-3.7323084E-2,-1.8470766E-2,-6.819246E-3,1.7217157E-2,8.450485E-3,2.4916926E-2,1.3261532E-2,3.0554373E-2],"split_indices":[15,2,15,15,4,2,2,0,0,0,0,0,0,0,0],"split_type":[0,0,0,0,0,0,0,0,0,0,0,0,0,0,0],"sum_hessian":[1.1393872E3,6.2688776E2,5.1249945E2,2.807934E2,3.4609433E2,3.9101785E2,1.2148157E2,7.334834E1,2.0744507E2,3.255428E2,2.0551544E1,3.252251E2,6.579278E1,1.1889631E1,1.09591934E2],"tree_param":{"num_deleted":"0","num_feature":"31","num_nodes":"15","size_leaf_vector":"1"}},{"base_weights":[4.79343E-3,-5.5188274E-1,3.652103E-1,-1.2265478E0,-4.512481E-1,7.191349E-2,6.2920755E-1,-8.216284E-3,-4.2378757E-2,-2.1470241E-2,-7.0788017E-3,-1.957319E-3,8.277869E-3,1.5560129E-2,2.7696194E-2],"categories":[],"categories_nodes":[],"categories_segments":[],"categories_sizes":[],"default_left":[0,0,0,0,0,0,0,0,0,0,0,0,0,0,0],"id":14,"left_children":[1,3,5,7,9,11,13,-1,-1,-1,-1,-1,-1,-1,-1],"loss_changes":[2.2753957E2,2.970729E1,5.3256332E1,9.765495E0,2.2000618E1,9.174554E0,1.1290527E1,0E0,0E0,0E0,0E0,0E0,0E0,0E0,0E0],"parents":[2147483647,0,0,1,1,2,2,3,3,4,4,5,5,6,6],"right_children":[2,4,6,8,10,12,14,-1,-1,-1,-1,-1,-1,-1,-1],"split_conditions":[-1.9E0,-1.6325E1,5.9E0,3E0,-4.283634E1,2.7E0,8.118972E1,-8.216284E-3,-4.2378757E-2,-2.1470241E-2,-7.0788017E-3,-1.957319E-3,8.277869E-3,1.5560129E-2,2.7696194E-2],"split_indices":[15,15,15,17,2,13,2,0,0,0,0,0,0,0,0],"split_type":[0,0,0,0,0,0,0,0,0,0,0,0,0,0,0],"sum_hessian":[1.1320897E3,4.4470163E2,6.8738806E2,5.6270466E1,3.8843115E2,3.2622717E2,3.6116092E2,9.598796E0,4.667167E1,1.7327843E2,2.1515273E2,1.9548492E2,1.3074223E2,2.6448508E2,9.6675835E1],"tree_param":{"num_deleted":"0","num_feature":"31","num_nodes":"15","size_leaf_vector":"1"}},{"base_weights":[6.853184E-4,-5.4201365E-1,3.5905907E-1,-9.308092E-1,-3.7506518E-1,6.376495E-2,6.286659E-1,-3.1990446E-2,-1.3544396E-2,-1.263987E-2,1.1067805E-2,-4.661932E-3,6.706413E-3,1.4626157E-2,2.6919827E-2],"categories":[],"categories_nodes":[],"categories_segments":[],"categories_sizes":[],"default_left":[0,0,0,0,0,0,1,0,0,0,0,0,0,0,0],"id":15,"left_children":[1,3,5,7,9,11,13,-1,-1,-1,-1,-1,-1,-1,-1],"loss_changes":[2.2103572E2,2.8990051E1,5.4454247E1,8.296371E0,1.1097397E1,1.1513531E1,1.3124649E1,0E0,0E0,0E0,0E0,0E0,0E0,0E0,0E0],"parents":[2147483647,0,0,1,1,2,2,3,3,4,4,5,5,6,6],"right_children":[2,4,6,8,10,12,14,-1,-1,-1,-1,-1,-1,-1,-1],"split_conditions":[-1.9E0,-6.644706E1,5.9E0,1.4796134E3,1.5746376E3,0E0,1.38E1,-3.1990446E-2,-1.3544396E-2,-1.263987E-2,1.1067805E-2,-4.661932E-3,6.706413E-3,1.4626157E-2,2.6919827E-2],"split_indices":[15,2,15,0,0,13,15,0,0,0,0,0,0,0,0],"split_type":[0,0,0,0,0,0,0,0,0,0,0,0,0,0,0],"sum_hessian":[1.1344937E3,4.5100586E2,6.8348773E2,1.341101E2,3.1689575E2,3.2679422E2,3.5669354E2,1.03592735E2,3.0517378E1,2.9875204E2,1.8143688E1,1.378044E2,1.889898E2,2.3569711E2,1.2099644E2],"tree_param":{"num_deleted":"0","num_feature":"31","num_nodes":"15","size_leaf_vector":"1"}},{"base_weights":[-5.876964E-4,-5.6244665E-1,3.6353654E-1,-8.3340365E-1,-3.1371844E-1,7.26215E-2,6.3233984E-1,-2.9116144E-2,-1.6054288E-2,-1.2340506E-2,9.346158E-3,-3.632047E-3,6.8632094E-3,1.5205884E-2,2.6282484E-2],"categories":[],"categories_nodes":[],"categories_segments":[],"categories_sizes":[],"default_left":[0,0,0,0,0,0,1,0,0,0,0,0,0,0,0],"id":16,"left_children":[1,3,5,7,9,11,13,-1,-1,-1,-1,-1,-1,-1,-1],"loss_changes":[2.3028363E2,2.9568848E1,5.3362747E1,8.120758E0,1.4313808E1,9.982299E0,1.0408829E1,0E0,0E0,0E0,0E0,0E0,0E0,0E0,0E0],"parents":[2147483647,0,0,1,1,2,2,3,3,4,4,5,5,6,6],"right_children":[2,4,6,8,10,12,14,-1,-1,-1,-1,-1,-1,-1,-1],"split_conditions":[-2.1E0,-4.283634E1,5.7E0,1.4762474E3,1.5580385E3,2E-1,1.38E1,-2.9116144E-2,-1.6054288E-2,-1.2340506E-2,9.346158E-3,-3.632047E-3,6.8632094E-3,1.5205884E-2,2.6282484E-2],"split_indices":[15,2,15,0,1,13,15,0,0,0,0,0,0,0,0],"split_type":[0,0,0,0,0,0,0,0,0,0,0,0,0,0,0],"sum_hessian":[1.1236061E3,4.4162128E2,6.819848E2,2.102407E2,2.3138055E2,3.2813144E2,3.5385333E2,1.4247806E2,6.776265E1,2.0042673E2,3.0953833E1,1.4656197E2,1.8156947E2,2.3563153E2,1.1822181E2],"tree_param":{"num_deleted":"0","num_feature":"31","num_nodes":"15","size_leaf_vector":"1"}},{"base_weights":[-1.4096972E-3,-3.9026082E-1,4.821533E-1,-7.611179E-1,-1.7300919E-1,7.001513E-2,5.835652E-1,-3.451067E-2,-2.0400366E-2,-2.9477064E-2,-3.817285E-3,-2.2332953E-2,5.0647724E-3,2.4376046E-2,1.1845042E-2],"categories":[],"categories_nodes":[],"categories_segments":[],"categories_sizes":[],"default_left":[0,0,0,0,0,0,1,0,0,0,0,0,0,0,0],"id":17,"left_children":[1,3,5,7,9,11,13,-1,-1,-1,-1,-1,-1,-1,-1],"loss_changes":[2.1114316E2,5.0014656E1,2.08778E1,6.466858E0,1.4464581E1,8.17093E0,1.7030594E1,0E0,0E0,0E0,0E0,0E0,0E0,0E0,0E0],"parents":[2147483647,0,0,1,1,2,2,3,3,4,4,5,5,6,6],"right_children":[2,4,6,8,10,12,14,-1,-1,-1,-1,-1,-1,-1,-1],"split_conditions":[2.1E0,-4.283634E1,-4E-1,-1.6325E1,-1.6325E1,6.66E1,-4.8E0,-3.451067E-2,-2.0400366E-2,-2.9477064E-2,-3.817285E-3,-2.2332953E-2,5.0647724E-3,2.4376046E-2,1.1845042E-2],"split_indices":[15,2,13,15,15,7,14,0,0,0,0,0,0,0,0],"split_type":[0,0,0,0,0,0,0,0,0,0,0,0,0,0,0],"sum_hessian":[1.1208981E3,6.2139996E2,4.9949805E2,2.2862488E2,3.927751E2,9.89708E1,4.0052725E2,3.715057E1,1.9147432E2,1.992116E1,3.7285394E2,1.0001281E1,8.896953E1,1.7947775E2,2.210495E2],"tree_param":{"num_deleted":"0","num_feature":"31","num_nodes":"15","size_leaf_vector":"1"}},{"base_weights":[-7.72988E-3,-3.8837972E-1,4.6095324E-1,-7.021852E-1,-1.3250917E-1,3.1707487E-1,7.5180686E-1,-3.3986177E-2,-1.6307887E-2,-2.4039783E-2,-2.122413E-3,-6.5025324E-3,1.13332225E-2,1.6579738E-2,2.8580109E-2],"categories":[],"categories_nodes":[],"categories_segments":[],"categories_sizes":[],"default_left":[0,0,1,0,0,0,0,0,0,0,0,0,0,0,0],"id":18,"left_children":[1,3,5,7,9,11,13,-1,-1,-1,-1,-1,-1,-1,-1],"loss_changes":[2.0184053E2,5.0034683E1,2.0980743E1,1.8520737E1,1.4199795E1,1.1130337E1,6.1572266E0,0E0,0E0,0E0,0E0,0E0,0E0,0E0,0E0],"parents":[2147483647,0,0,1,1,2,2,3,3,4,4,5,5,6,6],"right_children":[2,4,6,8,10,12,14,-1,-1,-1,-1,-1,-1,-1,-1],"split_conditions":[1.9E0,-3.1329523E1,1.11E1,-1.31E1,6.1E1,-9.774297E0,5.99387E1,-3.3986177E-2,-1.6307887E-2,-2.4039783E-2,-2.122413E-3,-6.5025324E-3,1.13332225E-2,1.6579738E-2,2.8580109E-2],"split_indices":[15,2,15,15,8,2,2,0,0,0,0,0,0,0,0],"split_type":[0,0,0,0,0,0,0,0,0,0,0,0,0,0,0],"sum_hessian":[1.1293632E3,6.233053E2,5.0605786E2,2.7917474E2,3.4413055E2,3.39972E2,1.6608589E2,7.347955E1,2.056952E2,2.8079992E1,3.1605057E2,3.444763E1,3.0552435E2,8.528264E1,8.080325E1],"tree_param":{"num_deleted":"0","num_feature":"31","num_nodes":"15","size_leaf_vector":"1"}},{"base_weights":[1.145306E-3,-3.585045E-1,4.61214E-1,-6.846469E-1,-1.594908E-1,1.8690605E-1,6.327136E-1,-3.3635367E-2,-1.8135367E-2,-1.083889E-2,5.746336E-4,2.3192964E-3,1.6150668E-2,1.2859079E-2,2.410535E-2],"categories":[],"categories_nodes":[],"categories_segments":[],"categories_sizes":[],"default_left":[0,0,0,0,0,0,0,0,0,0,0,0,0,0,0],"id":19,"left_children":[1,3,5,7,9,11,13,-1,-1,-1,-1,-1,-1,-1,-1],"loss_changes":[1.8418288E2,4.04413E1,2.285711E1,7.593643E0,1.40417185E1,7.249654E0,1.0115395E1,0E0,0E0,0E0,0E0,0E0,0E0,0E0,0E0],"parents":[2147483647,0,0,1,1,2,2,3,3,4,4,5,5,6,6],"right_children":[2,4,6,8,10,12,14,-1,-1,-1,-1,-1,-1,-1,-1],"split_conditions":[2.1E0,5.423507E-1,7.5E0,-1.6325E1,6.93E1,2.2E0,6.5019697E-1,-3.3635367E-2,-1.8135367E-2,-1.083889E-2,5.746336E-4,2.3192964E-3,1.6150668E-2,1.2859079E-2,2.410535E-2],"split_indices":[15,3,15,15,4,14,3,0,0,0,0,0,0,0,0],"split_type":[0,0,0,0,0,0,0,0,0,0,0,0,0,0,0],"sum_hessian":[1.1111329E3,6.237495E2,4.8738336E2,2.3545203E2,3.882975E2,1.8829756E2,2.9908582E2,3.4503517E1,2.009485E2,1.8184966E2,2.0644783E2,1.4446692E2,4.3830643E1,1.3786626E2,1.6121956E2],"tree_param":{"num_deleted":"0","num_feature":"31","num_nodes":"15","size_leaf_vector":"1"}},{"base_weights":[-3.8411268E-3,-4.3588045E-1,3.4291852E-1,-5.943825E-1,-9.890395E-2,7.6812975E-2,5.3101015E-1,-2.7735956E-2,-1.3565448E-2,-1.2245592E-2,5.743614E-3,-1.9252475E-2,3.9015228E-3,1.9068504E-2,4.340299E-3],"categories":[],"categories_nodes":[],"categories_segments":[],"categories_sizes":[],"default_left":[0,1,0,0,0,0,1,0,0,0,0,0,0,0,0],"id":20,"left_children":[1,3,5,7,9,11,13,-1,-1,-1,-1,-1,-1,-1,-1],"loss_changes":[1.6757869E2,2.654242E1,3.101857E1,1.5474663E1,1.4493435E1,9.958751E0,1.4593872E1,0E0,0E0,0E0,0E0,0E0,0E0,0E0,0E0],"parents":[2147483647,0,0,1,1,2,2,3,3,4,4,5,5,6,6],"right_children":[2,4,6,8,10,12,14,-1,-1,-1,-1,-1,-1,-1,-1],"split_conditions":[-3.2440848E0,-1E-1,2E-1,-7.651454E1,-2.3E0,6.1E1,2E-1,-2.7735956E-2,-1.3565448E-2,-1.2245592E-2,5.743614E-3,-1.9252475E-2,3.9015228E-3,1.9068504E-2,4.340299E-3],"split_indices":[2,13,12,2,6,8,9,0,0,0,0,0,0,0,0],"split_type":[0,0,0,0,0,0,0,0,0,0,0,0,0,0,0],"sum_hessian":[1.116582E3,4.9704288E2,6.195392E2,3.3752087E2,1.5952199E2,2.571461E2,3.623931E2,9.9954315E1,2.3756656E2,7.7047226E1,8.247476E1,1.6975094E1,2.4017099E2,2.8466873E2,7.772435E1],"tree_param":{"num_deleted":"0","num_feature":"31","num_nodes":"15","size_leaf_vector":"1"}},{"base_weights":[1.2790069E-2,-3.2316494E-1,4.4099283E-1,-6.732804E-1,-1.1802081E-1,3.3489278E-1,8.2765067E-1,-3.0566858E-2,-1.6949797E-2,-2.7239662E-2,-2.1707248E-3,6.1760996E-3,1.9511467E-2,2.8352363E-2,1.3608571E-2],"categories":[],"categories_nodes":[],"categories_segments":[],"categories_sizes":[],"default_left":[0,0,0,0,0,0,0,0,0,0,0,0,0,0,0],"id":21,"left_children":[1,3,5,7,9,11,13,-1,-1,-1,-1,-1,-1,-1,-1],"loss_changes":[1.6085179E2,4.492414E1,1.9889053E1,8.0802E0,1.4229819E1,1.5635456E1,4.1902847E0,0E0,0E0,0E0,0E0,0E0,0E0,0E0,0E0],"parents":[2147483647,0,0,1,1,2,2,3,3,4,4,5,5,6,6],"right_children":[2,4,6,8,10,12,14,-1,-1,-1,-1,-1,-1,-1,-1],"split_conditions":[2.1E0,-4.0501038E1,8.118972E1,6.34E1,-1.6325E1,1.38E1,-8.333333E-1,-3.0566858E-2,-1.6949797E-2,-2.7239662E-2,-2.1707248E-3,6.1760996E-3,1.9511467E-2,2.8352363E-2,1.3608571E-2],"split_indices":[15,2,2,4,15,15,9,0,0,0,0,0,0,0,0],"split_type":[0,0,0,0,0,0,0,0,0,0,0,0,0,0,0],"sum_hessian":[1.1161471E3,6.255806E2,4.9056647E2,2.3028159E2,3.9529907E2,3.8640256E2,1.041639E2,5.293198E1,1.773496E2,2.0569288E1,3.7472977E2,2.754194E2,1.1098316E2,7.811331E1,2.6050594E1],"tree_param":{"num_deleted":"0","num_feature":"31","num_nodes":"15","size_leaf_vector":"1"}},{"base_weights":[4.5670086E-4,-4.716163E-1,2.9404655E-1,-7.639265E-1,-3.202653E-1,3.4879837E-2,5.6274277E-1,-1.7378706E-2,-3.30802E-2,-1.4780507E-2,-1.8830332E-3,1.8879676E-3,-2.7494485E-2,1.3874539E-2,2.5210734E-2],"categories":[],"categories_nodes":[],"categories_segments":[],"categories_sizes":[],"default_left":[0,0,0,0,0,0,0,0,0,0,0,0,0,0,0],"id":22,"left_children":[1,3,5,7,9,11,13,-1,-1,-1,-1,-1,-1,-1,-1],"loss_changes":[1.5574828E2,1.8819E1,4.8228985E1,8.51004E0,1.2650028E1,9.498535E0,9.077644E0,0E0,0E0,0E0,0E0,0E0,0E0,0E0,0E0],"parents":[2147483647,0,0,1,1,2,2,3,3,4,4,5,5,6,6],"right_children":[2,4,6,8,10,12,14,-1,-1,-1,-1,-1,-1,-1,-1],"split_conditions":[-2.6666667E0,1.4613556E3,5.9E0,4.3E0,-2.8E0,3.5555556E-1,8.118972E1,-1.7378706E-2,-3.30802E-2,-1.4780507E-2,-1.8830332E-3,1.8879676E-3,-2.7494485E-2,1.3874539E-2,2.5210734E-2],"split_indices":[15,0,15,14,6,12,2,0,0,0,0,0,0,0,0],"split_type":[0,0,0,0,0,0,0,0,0,0,0,0,0,0,0],"sum_hessian":[1.1217579E3,4.2990036E2,6.918576E2,1.4527588E2,2.8462448E2,3.5274893E2,3.3910867E2,9.57803E1,4.949559E1,1.699284E2,1.1469607E2,3.435526E2,9.196334E0,2.5109424E2,8.801443E1],"tree_param":{"num_deleted":"0","num_feature":"31","num_nodes":"15","size_leaf_vector":"1"}},{"base_weights":[-7.947836E-3,-3.232917E-1,4.3129572E-1,-6.7598766E-1,-1.9104661E-1,3.111272E-1,8.153018E-1,-2.768075E-4,-2.2432389E-2,-7.352771E-3,1.2361165E-2,6.926785E-3,2.0924859E-2,1.5036583E-2,2.7771631E-2],"categories":[],"categories_nodes":[],"categories_segments":[],"categories_sizes":[],"default_left":[0,0,1,0,0,0,0,0,0,0,0,0,0,0,0],"id":23,"left_children":[1,3,5,7,9,11,13,-1,-1,-1,-1,-1,-1,-1,-1],"loss_changes":[1.5361626E2,2.9981056E1,2.1133766E1,8.39727E0,1.5449738E1,1.0832378E1,3.3457413E0,0E0,0E0,0E0,0E0,0E0,0E0,0E0,0E0],"parents":[2147483647,0,0,1,1,2,2,3,3,4,4,5,5,6,6],"right_children":[2,4,6,8,10,12,14,-1,-1,-1,-1,-1,-1,-1,-1],"split_conditions":[2.6E0,-9.6E0,1.38E1,3E0,1.5718608E3,8.2982E1,4E0,-2.768075E-4,-2.2432389E-2,-7.352771E-3,1.2361165E-2,6.926785E-3,2.0924859E-2,1.5036583E-2,2.7771631E-2],"split_indices":[15,15,15,17,0,2,17,0,0,0,0,0,0,0,0],"split_type":[0,0,0,0,0,0,0,0,0,0,0,0,0,0,0],"sum_hessian":[1.1070338E3,6.445555E2,4.624784E2,1.7465121E2,4.6990424E2,3.5362677E2,1.08851616E2,1.7079731E1,1.5757149E2,4.3180176E2,3.8102493E1,2.94142E2,5.9484787E1,2.9754782E1,7.909683E1],"tree_param":{"num_deleted":"0","num_feature":"31","num_nodes":"15","size_leaf_vector":"1"}},{"base_weights":[8.4208315E-3,-4.3770605E-1,2.9075387E-1,-6.887961E-1,-2.3888533E-1,6.1124146E-2,5.0766623E-1,-1.7187351E-2,-3.0927364E-2,-1.3227027E-2,1.5651649E-3,3.0489864E-3,-1.4102213E-2,1.7375633E-2,3.2643818E-3],"categories":[],"categories_nodes":[],"categories_segments":[],"categories_sizes":[],"default_left":[0,0,0,0,0,0,1,0,0,0,0,0,0,0,0],"id":24,"left_children":[1,3,5,7,9,11,13,-1,-1,-1,-1,-1,-1,-1,-1],"loss_changes":[1.3969943E2,2.1295448E1,3.380101E1,6.9196625E0,1.4219064E1,7.171986E0,9.897041E0,0E0,0E0,0E0,0E0,0E0,0E0,0E0,0E0],"parents":[2147483647,0,0,1,1,2,2,3,3,4,4,5,5,6,6],"right_children":[2,4,6,8,10,12,14,-1,-1,-1,-1,-1,-1,-1,-1],"split_conditions":[-2.5E0,1.4750004E3,5.3E0,1.5443087E3,-2.8E0,9E0,1.1E0,-1.7187351E-2,-3.0927364E-2,-1.3227027E-2,1.5651649E-3,3.0489864E-3,-1.4102213E-2,1.7375633E-2,3.2643818E-3],"split_indices":[15,0,15,1,6,9,9,0,0,0,0,0,0,0,0],"split_type":[0,0,0,0,0,0,0,0,0,0,0,0,0,0,0],"sum_hessian":[1.1070996E3,4.2887112E2,6.7822845E2,1.8843399E2,2.4043713E2,3.3007904E2,3.4814944E2,1.4275385E2,4.5680153E1,1.416244E2,9.881272E1,3.074424E2,2.2636646E1,2.9482916E2,5.3320263E1],"tree_param":{"num_deleted":"0","num_feature":"31","num_nodes":"15","size_leaf_vector":"1"}},{"base_weights":[4.5876172E-3,-2.9700226E-1,4.230993E-1,-5.5759645E-1,-9.772405E-2,3.074975E-1,7.507361E-1,-2.749129E-2,-1.312253E-2,-4.266289E-3,1.6879486E-2,-9.511278E-3,1.0630807E-2,2.4753803E-2,-1.5508704E-3],"categories":[],"categories_nodes":[],"categories_segments":[],"categories_sizes":[],"default_left":[0,0,1,0,0,0,0,0,0,0,0,0,0,0,0],"id":25,"left_children":[1,3,5,7,9,11,13,-1,-1,-1,-1,-1,-1,-1,-1],"loss_changes":[1.396807E2,3.334627E1,1.7323639E1,1.1607399E1,1.0822646E1,1.0188995E1,7.217041E0,0E0,0E0,0E0,0E0,0E0,0E0,0E0,0E0],"parents":[2147483647,0,0,1,1,2,2,3,3,4,4,5,5,6,6],"right_children":[2,4,6,8,10,12,14,-1,-1,-1,-1,-1,-1,-1,-1],"split_conditions":[2.6E0,-3.1329523E1,1.31E1,-1.31E1,7.97E1,-6.1E0,1.1E0,-2.749129E-2,-1.312253E-2,-4.266289E-3,1.6879486E-2,-9.511278E-3,1.0630807E-2,2.4753803E-2,-1.5508704E-3],"split_indices":[15,2,15,15,4,6,9,0,0,0,0,0,0,0,0],"split_type":[0,0,0,0,0,0,0,0,0,0,0,0,0,0,0],"sum_hessian":[1.1046589E3,6.4217914E2,4.624798E2,2.774987E2,3.6468045E2,3.432926E2,1.191872E2,6.796673E1,2.0953195E2,3.423996E2,2.2280846E1,2.3558825E1,3.1973376E2,1.0904933E2,1.0137866E1],"tree_param":{"num_deleted":"0","num_feature":"31","num_nodes":"15","size_leaf_vector":"1"}},{"base_weights":[-2.5129302E-3,-2.902465E-1,4.1221264E-1,-5.156042E-1,-1.0147286E-1,3.0135548E-1,7.752362E-1,-1.7749302E-2,3.6181355E-4,-4.803266E-3,1.4781848E-2,6.6388506E-3,2.0835513E-2,1.5688742E-2,2.6477411E-2],"categories":[],"categories_nodes":[],"categories_segments":[],"categories_sizes":[],"default_left":[0,0,1,0,0,0,0,0,0,0,0,0,0,0,0],"id":26,"left_children":[1,3,5,7,9,11,13,-1,-1,-1,-1,-1,-1,-1,-1],"loss_changes":[1.3192792E2,2.7715096E1,1.799089E1,1.1934998E1,1.2497515E1,1.0817537E1,2.390091E0,0E0,0E0,0E0,0E0,0E0,0E0,0E0,0E0],"parents":[2147483647,0,0,1,1,2,2,3,3,4,4,5,5,6,6],"right_children":[2,4,6,8,10,12,14,-1,-1,-1,-1,-1,-1,-1,-1],"split_conditions":[2.6E0,-5.611111E0,1.38E1,1.5256422E3,1.5718608E3,7.069538E-1,1E-1,-1.7749302E-2,3.6181355E-4,-4.803266E-3,1.4781848E-2,6.6388506E-3,2.0835513E-2,1.5688742E-2,2.6477411E-2],"split_indices":[15,15,15,0,0,3,11,0,0,0,0,0,0,0,0],"split_type":[0,0,0,0,0,0,0,0,0,0,0,0,0,0,0],"sum_hessian":[1.1035652E3,6.5171216E2,4.51853E2,2.9628098E2,3.5543118E2,3.4755087E2,1.0430211E2,2.5885712E2,3.7423862E1,3.241723E2,3.1258902E1,2.9005014E2,5.7500736E1,3.2885956E1,7.141615E1],"tree_param":{"num_deleted":"0","num_feature":"31","num_nodes":"15","size_leaf_vector":"1"}},{"base_weights":[-1.0300466E-2,-3.6848566E-1,2.8819436E-1,-5.7804376E-1,-1.8471421E-1,4.402436E-1,3.170913E-2,-2.99699E-2,-1.5152629E-2,-8.97592E-3,7.1621723E-3,8.090487E-3,1.976244E-2,-2.1375716E-2,2.9974985E-3],"categories":[],"categories_nodes":[],"categories_segments":[],"categories_sizes":[],"default_left":[0,0,1,0,0,0,0,0,0,0,0,0,0,0,0],"id":27,"left_children":[1,3,5,7,9,11,13,-1,-1,-1,-1,-1,-1,-1,-1],"loss_changes":[1.1786697E2,1.919078E1,2.3437077E1,6.671112E0,1.3085069E1,1.3889275E1,1.1486776E1,0E0,0E0,0E0,0E0,0E0,0E0,0E0,0E0],"parents":[2147483647,0,0,1,1,2,2,3,3,4,4,5,5,6,6],"right_children":[2,4,6,8,10,12,14,-1,-1,-1,-1,-1,-1,-1,-1],"split_conditions":[-3.2440848E0,-4.283634E1,-6E-1,-1.3054213E2,1.5451892E3,3.5E0,6.1E1,-2.99699E-2,-1.5152629E-2,-8.97592E-3,7.1621723E-3,8.090487E-3,1.976244E-2,-2.1375716E-2,2.9974985E-3],"split_indices":[2,2,9,2,1,6,8,0,0,0,0,0,0,0,0],"split_type":[0,0,0,0,0,0,0,0,0,0,0,0,0,0,0],"sum_hessian":[1.1004282E3,5.000946E2,6.003336E2,2.3265181E2,2.674428E2,3.7645035E2,2.2388324E2,3.2490444E1,2.0016136E2,2.1075687E2,5.668594E1,2.1267455E2,1.637758E2,1.8002792E1,2.0588045E2],"tree_param":{"num_deleted":"0","num_feature":"31","num_nodes":"15","size_leaf_vector":"1"}},{"base_weights":[1.6206253E-2,-3.2688847E-1,3.203177E-1,-1.0206861E0,-2.5207198E-1,1.2706003E-1,5.5575305E-1,-9.269537E-3,-3.3288706E-2,-1.3165541E-2,-3.3516113E-3,-2.1334974E-2,5.175103E-3,1.3341636E-2,2.1882152E-2],"categories":[],"categories_nodes":[],"categories_segments":[],"categories_sizes":[],"default_left":[0,0,0,0,0,0,1,0,0,0,0,0,0,0,0],"id":28,"left_children":[1,3,5,7,9,11,13,-1,-1,-1,-1,-1,-1,-1,-1],"loss_changes":[1.1454151E2,2.6519352E1,2.6406815E1,2.814705E0,1.2192434E1,1.2345819E1,4.727974E0,0E0,0E0,0E0,0E0,0E0,0E0,0E0,0E0],"parents":[2147483647,0,0,1,1,2,2,3,3,4,4,5,5,6,6],"right_children":[2,4,6,8,10,12,14,-1,-1,-1,-1,-1,-1,-1,-1],"split_conditions":[-5.726809E-1,-1.6325E1,7.5E0,3E0,-4.283634E1,6.1E1,1.38E1,-9.269537E-3,-3.3288706E-2,-1.3165541E-2,-3.3516113E-3,-2.1334974E-2,5.175103E-3,1.3341636E-2,2.1882152E-2],"split_indices":[2,15,15,17,2,8,15,0,0,0,0,0,0,0,0],"split_type":[0,0,0,0,0,0,0,0,0,0,0,0,0,0,0],"sum_hessian":[1.0957784E3,5.148529E2,5.8092554E2,4.8884903E1,4.6596802E2,3.1988602E2,2.6103952E2,5.9272895E0,4.295761E1,1.9900546E2,2.669626E2,1.569704E1,3.04189E2,1.6140157E2,9.963796E1],"tree_param":{"num_deleted":"0","num_feature":"31","num_nodes":"15","size_leaf_vector":"1"}},{"base_weights":[1.1518466E-2,-3.4271377E-1,3.075413E-1,-5.18603E-1,-1.1532395E-1,1.4803796E-1,6.218268E-1,-2.1189393E-2,-9.99716E-3,-5.131581E-3,2.5552716E-2,-1.8502105E-2,5.5062603E-3,2.0449938E-2,-8.5926236E-4],"categories":[],"categories_nodes":[],"categories_segments":[],"categories_sizes":[],"default_left":[0,1,0,0,0,0,1,0,0,0,0,0,0,0,0],"id":29,"left_children":[1,3,5,7,9,11,13,-1,-1,-1,-1,-1,-1,-1,-1],"loss_changes":[1.14730675E2,1.9862118E1,2.9785812E1,9.527061E0,1.1923382E1,1.0883947E1,7.8172226E0,0E0,0E0,0E0,0E0,0E0,0E0,0E0,0E0],"parents":[2147483647,0,0,1,1,2,2,3,3,4,4,5,5,6,6],"right_children":[2,4,6,8,10,12,14,-1,-1,-1,-1,-1,-1,-1,-1],"split_conditions":[-3.2440848E0,-5.2E0,1.01E1,1.4725896E3,1.5944258E3,6.1E1,1.3E0,-2.1189393E-2,-9.99716E-3,-5.131581E-3,2.5552716E-2,-1.8502105E-2,5.5062603E-3,2.0449938E-2,-8.5926236E-4],"split_indices":[2,15,15,0,1,8,9,0,0,0,0,0,0,0,0],"split_type":[0,0,0,0,0,0,0,0,0,0,0,0,0,0,0],"sum_hessian":[1.0921179E3,4.971052E2,5.9501276E2,2.795718E2,2.175334E2,3.956746E2,1.993382E2,1.3751059E2,1.420612E2,2.0645917E2,1.1074232E1,1.682766E1,3.7884692E2,1.8250157E2,1.6836622E1],"tree_param":{"num_deleted":"0","num_feature":"31","num_nodes":"15","size_leaf_vector":"1"}},{"base_weights":[1.8027088E-3,-3.5680223E-1,2.576633E-1,-5.247574E-1,-1.4790177E-1,3.94217E-2,4.4290978E-1,-2.811444E-2,-1.33663835E-2,-1.4671889E-2,-9.256042E-4,-2.4965217E-3,9.598192E-3,9.957735E-3,2.3326011E-2],"categories":[],"categories_nodes":[],"categories_segments":[],"categories_sizes":[],"default_left":[0,0,0,0,0,0,0,0,0,0,0,0,0,0,0],"id":30,"left_children":[1,3,5,7,9,11,13,-1,-1,-1,-1,-1,-1,-1,-1],"loss_changes":[1.00128944E2,1.5865776E1,2.573053E1,7.7978897E0,8.127581E0,1.0123618E1,1.2531654E1,0E0,0E0,0E0,0E0,0E0,0E0,0E0,0E0],"parents":[2147483647,0,0,1,1,2,2,3,3,4,4,5,5,6,6],"right_children":[2,4,6,8,10,12,14,-1,-1,-1,-1,-1,-1,-1,-1],"split_conditions":[-1.9E0,-3.1329523E1,5.2E0,-1.6325E1,3E0,2.6E0,8.118972E1,-2.811444E-2,-1.33663835E-2,-1.4671889E-2,-9.256042E-4,-2.4965217E-3,9.598192E-3,9.957735E-3,2.3326011E-2],"split_indices":[15,2,15,15,19,14,2,0,0,0,0,0,0,0,0],"split_type":[0,0,0,0,0,0,0,0,0,0,0,0,0,0,0],"sum_hessian":[1.0892874E3,4.5340994E2,6.3587744E2,2.504983E2,2.0291165E2,2.9249615E2,3.433813E2,3.8617313E1,2.11881E2,5.102131E1,1.5189035E2,2.0400917E2,8.8487E1,2.5935318E2,8.402812E1],"tree_param":{"num_deleted":"0","num_feature":"31","num_nodes":"15","size_leaf_vector":"1"}},{"base_weights":[-2.4389492E-3,-2.5837538E-1,3.7222388E-1,-4.942921E-1,-8.783197E-2,2.779923E-1,7.208113E-1,-2.693104E-2,-1.2837693E-2,-1.8883137E-2,-1.2800675E-3,5.150283E-3,1.5876507E-2,2.7012913E-2,1.3268231E-2],"categories":[],"categories_nodes":[],"categories_segments":[],"categories_sizes":[],"default_left":[0,0,0,0,0,0,0,0,0,0,0,0,0,0,0],"id":31,"left_children":[1,3,5,7,9,11,13,-1,-1,-1,-1,-1,-1,-1,-1],"loss_changes":[1.0516275E2,2.6172577E1,1.4420673E1,6.929901E0,9.253706E0,9.311369E0,4.3092384E0,0E0,0E0,0E0,0E0,0E0,0E0,0E0,0E0],"parents":[2147483647,0,0,1,1,2,2,3,3,4,4,5,5,6,6],"right_children":[2,4,6,8,10,12,14,-1,-1,-1,-1,-1,-1,-1,-1],"split_conditions":[2.6E0,-3.288846E1,8.118972E1,-1.6325E1,6.1E1,1.38E1,-3.8E0,-2.693104E-2,-1.2837693E-2,-1.8883137E-2,-1.2800675E-3,5.150283E-3,1.5876507E-2,2.7012913E-2,1.3268231E-2],"split_indices":[15,2,2,15,8,15,9,0,0,0,0,0,0,0,0],"split_type":[0,0,0,0,0,0,0,0,0,0,0,0,0,0,0],"sum_hessian":[1.0947006E3,6.5058734E2,4.441132E2,2.721783E2,3.7840903E2,3.5102118E2,9.3092E1,3.668299E1,2.3549532E2,2.8130033E1,3.50279E2,2.4782646E2,1.0319473E2,5.523809E1,3.7853912E1],"tree_param":{"num_deleted":"0","num_feature":"31","num_nodes":"15","size_leaf_vector":"1"}},{"base_weights":[-9.399814E-3,-3.6921614E-1,2.2403416E-1,-5.6768423E-1,-2.1149851E-1,1.3325264E-1,6.6602206E-1,-1.3862918E-2,-2.6788445E-2,-1.2322753E-2,2.1082722E-3,-1.8184482E-3,7.2799493E-3,9.557373E-3,2.4579952E-2],"categories":[],"categories_nodes":[],"categories_segments":[],"categories_sizes":[],"default_left":[0,0,1,0,0,0,0,0,0,0,0,0,0,0,0],"id":32,"left_children":[1,3,5,7,9,11,13,-1,-1,-1,-1,-1,-1,-1,-1],"loss_changes":[9.119877E1,1.3252998E1,2.633603E1,6.0639305E0,1.3484171E1,1.1630226E1,5.7030907E0,0E0,0E0,0E0,0E0,0E0,0E0,0E0,0E0],"parents":[2147483647,0,0,1,1,2,2,3,3,4,4,5,5,6,6],"right_children":[2,4,6,8,10,12,14,-1,-1,-1,-1,-1,-1,-1,-1],"split_conditions":[-2.5E0,1.4750004E3,1.31E1,6.1E0,-2.8E0,3E-1,7.28E1,-1.3862918E-2,-2.6788445E-2,-1.2322753E-2,2.1082722E-3,-1.8184482E-3,7.2799493E-3,9.557373E-3,2.4579952E-2],"split_indices":[15,0,15,14,6,13,8,0,0,0,0,0,0,0,0],"split_type":[0,0,0,0,0,0,0,0,0,0,0,0,0,0,0],"sum_hessian":[1.0838007E3,4.2622833E2,6.5757227E2,1.8758125E2,2.386471E2,5.466046E2,1.1096765E2,1.434389E2,4.414235E1,1.3952359E2,9.91235E1,1.9735593E2,3.492487E2,3.491605E1,7.60516E1],"tree_param":{"num_deleted":"0","num_feature":"31","num_nodes":"15","size_leaf_vector":"1"}},{"base_weights":[3.011373E-3,-3.2109025E-1,2.8045607E-1,-4.3738523E-1,-6.983877E-2,4.7378156E-1,1.0967747E-1,-2.7457455E-2,-1.1575991E-2,-1.24260085E-2,5.583464E-3,-1.3827719E-2,1.5262817E-2,-2.1412024E-2,4.8504677E-3],"categories":[],"categories_nodes":[],"categories_segments":[],"categories_sizes":[],"default_left":[0,1,1,0,0,0,0,0,0,0,0,0,0,0,0],"id":33,"left_children":[1,3,5,7,9,11,13,-1,-1,-1,-1,-1,-1,-1,-1],"loss_changes":[9.800398E1,1.46576E1,1.9335308E1,8.102028E0,1.4201168E1,9.229656E0,1.3522247E1,0E0,0E0,0E0,0E0,0E0,0E0,0E0,0E0],"parents":[2147483647,0,0,1,1,2,2,3,3,4,4,5,5,6,6],"right_children":[2,4,6,8,10,12,14,-1,-1,-1,-1,-1,-1,-1,-1],"split_conditions":[-3.2440848E0,-1E-1,-3.6E0,-1.3054213E2,-3E0,-1.3333333E1,6.1E1,-2.7457455E-2,-1.1575991E-2,-1.24260085E-2,5.583464E-3,-1.3827719E-2,1.5262817E-2,-2.1412024E-2,4.8504677E-3],"split_indices":[2,13,9,2,6,6,8,0,0,0,0,0,0,0,0],"split_type":[0,0,0,0,0,0,0,0,0,0,0,0,0,0,0],"sum_hessian":[1.0878972E3,5.0168652E2,5.8621075E2,3.42442E2,1.5924452E2,2.7412283E2,3.120879E2,3.1694485E1,3.107475E2,6.763285E1,9.161167E1,9.449051E0,2.646738E2,1.7783922E1,2.9430396E2],"tree_param":{"num_deleted":"0","num_feature":"31","num_nodes":"15","size_leaf_vector":"1"}},{"base_weights":[-8.328352E-3,-3.1504315E-1,2.4622358E-1,-5.9567386E-1,-1.8510361E-1,7.695174E-2,4.7630686E-1,-2.478717E-2,-1.1026209E-2,-6.5548224E-3,1.8991547E-2,-1.3189409E-3,7.589748E-3,1.0210294E-2,2.095262E-2],"categories":[],"categories_nodes":[],"categories_segments":[],"categories_sizes":[],"default_left":[0,1,0,0,0,0,1,0,0,0,0,0,0,0,0],"id":34,"left_children":[1,3,5,7,9,11,13,-1,-1,-1,-1,-1,-1,-1,-1],"loss_changes":[8.479865E1,1.7851582E1,2.3080082E1,7.8725624E0,9.375675E0,7.315629E0,7.354145E0,0E0,0E0,0E0,0E0,0E0,0E0,0E0,0E0],"parents":[2147483647,0,0,1,1,2,2,3,3,4,4,5,5,6,6],"right_children":[2,4,6,8,10,12,14,-1,-1,-1,-1,-1,-1,-1,-1],"split_conditions":[-3.9758718E0,-1.0142858E1,7.5E0,1.4690758E3,1.5728607E3,2.6E0,1.38E1,-2.478717E-2,-1.1026209E-2,-6.5548224E-3,1.8991547E-2,-1.3189409E-3,7.589748E-3,1.0210294E-2,2.095262E-2],"split_indices":[2,15,15,0,0,13,15,0,0,0,0,0,0,0,0],"split_type":[0,0,0,0,0,0,0,0,0,0,0,0,0,0,0],"sum_hessian":[1.0841265E3,4.9157733E2,5.9254913E2,1.5444275E2,3.3713458E2,3.4215833E2,2.5039081E2,7.550809E1,7.893466E1,3.246192E2,1.2515383E1,2.0328102E2,1.388773E2,1.5688701E2,9.3503815E1],"tree_param":{"num_deleted":"0","num_feature":"31","num_nodes":"15","size_leaf_vector":"1"}},{"base_weights":[7.970081E-4,-1.8506917E-1,4.2164016E-1,-5.384161E-1,-7.760481E-2,3.2432252E-1,7.1984535E-1,-2.2722684E-2,-1.0062741E-2,-6.4855726E-3,2.2312196E-3,1.2201857E-2,-9.6933666E-4,2.7958924E-4,2.3599E-2],"categories":[],"categories_nodes":[],"categories_segments":[],"categories_sizes":[],"default_left":[0,0,0,0,0,1,0,0,0,0,0,0,0,0,0],"id":35,"left_children":[1,3,5,7,9,11,13,-1,-1,-1,-1,-1,-1,-1,-1],"loss_changes":[8.5220116E1,2.8654694E1,9.452602E0,7.573456E0,1.2245399E1,7.4620953E0,3.85083E0,0E0,0E0,0E0,0E0,0E0,0E0,0E0,0E0],"parents":[2147483647,0,0,1,1,2,2,3,3,4,4,5,5,6,6],"right_children":[2,4,6,8,10,12,14,-1,-1,-1,-1,-1,-1,-1,-1],"split_conditions":[5.2E0,-9.6E0,8.118972E1,1.4690758E3,-1E-1,1E-1,2.857143E-1,-2.2722684E-2,-1.0062741E-2,-6.4855726E-3,2.2312196E-3,1.2201857E-2,-9.6933666E-4,2.7958924E-4,2.3599E-2],"split_indices":[15,15,2,0,13,9,13,0,0,0,0,0,0,0,0],"split_type":[0,0,0,0,0,0,0,0,0,0,0,0,0,0,0],"sum_hessian":[1.087488E3,7.5472327E2,3.3276474E2,1.7507147E2,5.796518E2,2.5246254E2,8.030219E1,8.289982E1,9.217165E1,3.0296893E2,2.7668286E2,2.0496222E2,4.750033E1,6.997601E0,7.3304596E1],"tree_param":{"num_deleted":"0","num_feature":"31","num_nodes":"15","size_leaf_vector":"1"}},{"base_weights":[-8.514687E-3,-1.7617445E-1,4.1978395E-1,-5.1600516E-1,-7.536604E-2,3.0455926E-1,6.629607E-1,2.8331398E-3,-1.74121E-2,-6.6265347E-3,2.4727678E-3,1.0137738E-2,-1.4567234E-2,2.2215074E-2,7.812336E-3],"categories":[],"categories_nodes":[],"categories_segments":[],"categories_sizes":[],"default_left":[0,0,1,0,0,1,0,0,0,0,0,0,0,0,0],"id":36,"left_children":[1,3,5,7,9,11,13,-1,-1,-1,-1,-1,-1,-1,-1],"loss_changes":[7.746298E1,2.6518705E1,8.3017845E0,7.0201645E0,1.3773215E1,5.6414623E0,2.8262215E0,0E0,0E0,0E0,0E0,0E0,0E0,0E0,0E0],"parents":[2147483647,0,0,1,1,2,2,3,3,4,4,5,5,6,6],"right_children":[2,4,6,8,10,12,14,-1,-1,-1,-1,-1,-1,-1,-1],"split_conditions":[5.9E0,-9.4E0,1.38E1,3E0,-1E-1,1.59E1,-2.4E0,2.8331398E-3,-1.74121E-2,-6.6265347E-3,2.4727678E-3,1.0137738E-2,-1.4567234E-2,2.2215074E-2,7.812336E-3],"split_indices":[15,15,15,17,13,6,9,0,0,0,0,0,0,0,0],"split_type":[0,0,0,0,0,0,0,0,0,0,0,0,0,0,0],"sum_hessian":[1.0767148E3,7.742279E2,3.0248694E2,1.7618382E2,5.9804407E2,2.0676683E2,9.57201E1,1.67682E1,1.5941562E2,3.109137E2,2.871304E2,1.9893848E2,7.828351E0,7.955598E1,1.6164125E1],"tree_param":{"num_deleted":"0","num_feature":"31","num_nodes":"15","size_leaf_vector":"1"}},{"base_weights":[-6.197049E-3,-3.230197E-1,2.272607E-1,-7.594007E-1,-2.6690426E-1,1.0316277E-1,4.8265877E-1,-9.831884E-3,-3.087763E-2,-1.423707E-2,-5.2703507E-3,1.5096343E-3,1.168346E-2,9.659644E-3,2.2316279E-2],"categories":[],"categories_nodes":[],"categories_segments":[],"categories_sizes":[],"default_left":[0,0,0,0,0,0,0,0,0,0,0,0,0,0,0],"id":37,"left_children":[1,3,5,7,9,11,13,-1,-1,-1,-1,-1,-1,-1,-1],"loss_changes":[7.904364E1,1.0899464E1,1.9451696E1,5.6171017E0,7.5561523E0,6.2639365E0,8.19371E0,0E0,0E0,0E0,0E0,0E0,0E0,0E0,0E0],"parents":[2147483647,0,0,1,1,2,2,3,3,4,4,5,5,6,6],"right_children":[2,4,6,8,10,12,14,-1,-1,-1,-1,-1,-1,-1,-1],"split_conditions":[-1.9E0,-1.6325E1,1E1,1.5197831E3,1.460407E3,8.5E0,5.99387E1,-9.831884E-3,-3.087763E-2,-1.423707E-2,-5.2703507E-3,1.5096343E-3,1.168346E-2,9.659644E-3,2.2316279E-2],"split_indices":[15,15,15,1,0,13,2,0,0,0,0,0,0,0,0],"split_type":[0,0,0,0,0,0,0,0,0,0,0,0,0,0,0],"sum_hessian":[1.0666744E3,4.5237634E2,6.142981E2,5.011614E1,4.022602E2,4.1436304E2,1.9993506E2,2.0129868E1,2.9986269E1,1.2149329E2,2.807669E2,3.5079105E2,6.3571987E1,1.2517468E2,7.476037E1],"tree_param":{"num_deleted":"0","num_feature":"31","num_nodes":"15","size_leaf_vector":"1"}},{"base_weights":[1.691199E-2,-2.5505635E-1,2.5167477E-1,-3.2633576E-1,1.4193805E-1,-5.9577894E-1,2.8213963E-1,-2.2985552E-2,-8.62437E-3,7.799486E-4,2.7472215E-2,-3.1620264E-2,-3.9946665E-3,1.5267652E-3,1.17512485E-2],"categories":[],"categories_nodes":[],"categories_segments":[],"categories_sizes":[],"default_left":[0,0,0,0,0,0,0,0,0,0,0,0,0,0,0],"id":38,"left_children":[1,3,5,7,9,11,13,-1,-1,-1,-1,-1,-1,-1,-1],"loss_changes":[6.850978E1,1.4114315E1,1.5035446E1,6.988331E0,6.8277845E0,4.163959E0,1.4081825E1,0E0,0E0,0E0,0E0,0E0,0E0,0E0,0E0],"parents":[2147483647,0,0,1,1,2,2,3,3,4,4,5,5,6,6],"right_children":[2,4,6,8,10,12,14,-1,-1,-1,-1,-1,-1,-1,-1],"split_conditions":[-3.2440848E0,1.5248938E3,6.1E1,-1.3054213E2,7.95E1,1.09E1,3E-1,-2.2985552E-2,-8.62437E-3,7.799486E-4,2.7472215E-2,-3.1620264E-2,-3.9946665E-3,1.5267652E-3,1.17512485E-2],"split_indices":[2,0,8,2,4,13,13,0,0,0,0,0,0,0,0],"split_type":[0,0,0,0,0,0,0,0,0,0,0,0,0,0,0],"sum_hessian":[1.0710077E3,4.9614563E2,5.7486206E2,4.2077454E2,7.5371086E1,1.9304499E1,5.5555756E2,3.263506E1,3.881395E2,6.644861E1,8.922478E0,9.0560875E0,1.0248411E1,1.7907649E2,3.7648105E2],"tree_param":{"num_deleted":"0","num_feature":"31","num_nodes":"15","size_leaf_vector":"1"}},{"base_weights":[1.418385E-2,-1.4971364E-1,3.979662E-1,-3.6383972E-1,-1.8795507E-2,4.9551964E-1,1.2235852E-1,-2.1317253E-2,-7.7253142E-3,-1.1251276E-5,-2.7083792E-2,1.1832125E-2,2.287861E-2,-1.9326255E-2,6.9337822E-3],"categories":[],"categories_nodes":[],"categories_segments":[],"categories_sizes":[],"default_left":[0,0,0,0,0,0,0,0,0,0,0,0,0,0,0],"id":39,"left_children":[1,3,5,7,9,11,13,-1,-1,-1,-1,-1,-1,-1,-1],"loss_changes":[6.6721E1,2.0831816E1,8.473728E0,1.0213642E1,7.528678E0,6.0221252E0,7.17844E0,0E0,0E0,0E0,0E0,0E0,0E0,0E0,0E0],"parents":[2147483647,0,0,1,1,2,2,3,3,4,4,5,5,6,6],"right_children":[2,4,6,8,10,12,14,-1,-1,-1,-1,-1,-1,-1,-1],"split_conditions":[5.3E0,-3.1329523E1,1.1E0,-1.31E1,3.5555556E-1,8.2982E1,2.1E0,-2.1317253E-2,-7.7253142E-3,-1.1251276E-5,-2.7083792E-2,1.1832125E-2,2.287861E-2,-1.9326255E-2,6.9337822E-3],"split_indices":[15,2,9,15,12,2,9,0,0,0,0,0,0,0,0],"split_type":[0,0,0,0,0,0,0,0,0,0,0,0,0,0,0],"sum_hessian":[1.0587838E3,7.423619E2,3.16422E2,2.8099503E2,4.6136682E2,2.3311223E2,8.330975E1,6.4612724E1,2.1638231E2,4.5292923E2,8.437574E0,1.7089403E2,6.22182E1,9.740227E0,7.356953E1],"tree_param":{"num_deleted":"0","num_feature":"31","num_nodes":"15","size_leaf_vector":"1"}},{"base_weights":[-8.788561E-3,-1.6322389E-1,3.770631E-1,-3.908193E-1,-2.5573442E-2,2.0892014E-1,5.244743E-1,-2.5857534E-2,-9.344496E-3,-8.3956E-3,1.662932E-3,4.7122343E-3,2.4139246E-2,1.2659681E-2,2.4025777E-2],"categories":[],"categories_nodes":[],"categories_segments":[],"categories_sizes":[],"default_left":[0,0,0,0,0,1,0,0,0,0,0,0,0,0,0],"id":40,"left_children":[1,3,5,7,9,11,13,-1,-1,-1,-1,-1,-1,-1,-1],"loss_changes":[6.395334E1,2.4001028E1,7.494339E0,1.0524452E1,9.874694E0,4.3512387E0,4.273571E0,0E0,0E0,0E0,0E0,0E0,0E0,0E0,0E0],"parents":[2147483647,0,0,1,1,2,2,3,3,4,4,5,5,6,6],"right_children":[2,4,6,8,10,12,14,-1,-1,-1,-1,-1,-1,-1,-1],"split_conditions":[5.7E0,-3.1329523E1,3.705253E1,-1.59E1,3E0,8.4875E1,1.09E1,-2.5857534E-2,-9.344496E-3,-8.3956E-3,1.662932E-3,4.7122343E-3,2.4139246E-2,1.2659681E-2,2.4025777E-2],"split_indices":[15,2,2,15,18,8,13,0,0,0,0,0,0,0,0],"split_type":[0,0,0,0,0,0,0,0,0,0,0,0,0,0,0],"sum_hessian":[1.0712054E3,7.6542474E2,3.057807E2,2.8777298E2,4.7765173E2,1.4397476E2,1.6180595E2,4.0055992E1,2.47717E2,1.1480729E2,3.6284445E2,1.3361032E2,1.036444E1,1.1988048E2,4.1925472E1],"tree_param":{"num_deleted":"0","num_feature":"31","num_nodes":"15","size_leaf_vector":"1"}},{"base_weights":[1.0704046E-2,-2.9040128E-1,2.1027319E-1,-6.029683E-1,-2.0415261E-1,6.2044133E-2,4.2360765E-1,-2.2237467E-2,3.4683822E-3,-7.2408E-3,1.5110474E-2,-4.9747707E-4,8.198958E-3,1.4793379E-2,-7.178048E-4],"categories":[],"categories_nodes":[],"categories_segments":[],"categories_sizes":[],"default_left":[0,0,0,0,0,0,1,0,0,0,0,0,0,0,0],"id":41,"left_children":[1,3,5,7,9,11,13,-1,-1,-1,-1,-1,-1,-1,-1],"loss_changes":[6.435052E1,1.1384609E1,2.0338354E1,9.207817E0,8.972395E0,6.3355207E0,8.218925E0,0E0,0E0,0E0,0E0,0E0,0E0,0E0,0E0],"parents":[2147483647,0,0,1,1,2,2,3,3,4,4,5,5,6,6],"right_children":[2,4,6,8,10,12,14,-1,-1,-1,-1,-1,-1,-1,-1],"split_conditions":[-2.5E0,6.34E1,7.2E0,-4.7222223E0,1.5746376E3,2.9E0,1.1E0,-2.2237467E-2,3.4683822E-3,-7.2408E-3,1.5110474E-2,-4.9747707E-4,8.198958E-3,1.4793379E-2,-7.178048E-4],"split_indices":[15,4,15,6,0,14,9,0,0,0,0,0,0,0,0],"split_type":[0,0,0,0,0,0,0,0,0,0,0,0,0,0,0],"sum_hessian":[1.0688624E3,4.2586777E2,6.429946E2,9.080336E1,3.3506442E2,3.8014978E2,2.6284485E2,7.6123024E1,1.4680336E1,3.1895743E2,1.6106995E1,2.7771036E2,1.024394E2,2.2742278E2,3.5422066E1],"tree_param":{"num_deleted":"0","num_feature":"31","num_nodes":"15","size_leaf_vector":"1"}},{"base_weights":[1.6753672E-3,-1.4419422E-1,3.6527517E-1,-3.7141746E-1,-9.702238E-3,5.6200005E-2,4.5922053E-1,-2.1440672E-2,-7.996035E-3,-8.299782E-3,2.2183682E-3,-2.5815036E-2,6.2846458E-3,1.6114682E-2,3.0020642E-4],"categories":[],"categories_nodes":[],"categories_segments":[],"categories_sizes":[],"default_left":[0,0,1,0,0,0,1,0,0,0,0,0,0,0,0],"id":42,"left_children":[1,3,5,7,9,11,13,-1,-1,-1,-1,-1,-1,-1,-1],"loss_changes":[5.6754505E1,2.3334812E1,8.870224E0,1.0031925E1,1.0756227E1,1.0375936E1,8.215626E0,0E0,0E0,0E0,0E0,0E0,0E0,0E0,0E0],"parents":[2147483647,0,0,1,1,2,2,3,3,4,4,5,5,6,6],"right_children":[2,4,6,8,10,12,14,-1,-1,-1,-1,-1,-1,-1,-1],"split_conditions":[5.5833335E0,-3.1329523E1,-5E-1,-1.31E1,3E0,6.87E1,1.7E0,-2.1440672E-2,-7.996035E-3,-8.299782E-3,2.2183682E-3,-2.5815036E-2,6.2846458E-3,1.6114682E-2,3.0020642E-4],"split_indices":[15,2,13,15,18,7,9,0,0,0,0,0,0,0,0],"split_type":[0,0,0,0,0,0,0,0,0,0,0,0,0,0,0],"sum_hessian":[1.0680764E3,7.6269904E2,3.0537744E2,2.829297E2,4.7976935E2,7.155699E1,2.3382043E2,6.4854164E1,2.1807552E2,1.1391356E2,3.6585577E2,9.590403E0,6.1966587E1,1.9908478E2,3.473566E1],"tree_param":{"num_deleted":"0","num_feature":"31","num_nodes":"15","size_leaf_vector":"1"}},{"base_weights":[2.3285167E-3,-2.7563274E-1,1.8622975E-1,-6.532166E-1,-2.2012341E-1,3.84734E-2,3.6214533E-1,1.04029635E-2,-2.3172924E-2,-1.1589833E-2,-3.1795339E-3,1.9294785E-3,-2.3363145E-2,6.060049E-3,1.531512E-2],"categories":[],"categories_nodes":[],"categories_segments":[],"categories_sizes":[],"default_left":[0,0,0,0,0,0,0,0,0,0,0,0,0,0,0],"id":43,"left_children":[1,3,5,7,9,11,13,-1,-1,-1,-1,-1,-1,-1,-1],"loss_changes":[5.4527634E1,8.758518E0,1.6672543E1,6.697014E0,7.0124283E0,7.442591E0,6.856762E0,0E0,0E0,0E0,0E0,0E0,0E0,0E0,0E0],"parents":[2147483647,0,0,1,1,2,2,3,3,4,4,5,5,6,6],"right_children":[2,4,6,8,10,12,14,-1,-1,-1,-1,-1,-1,-1,-1],"split_conditions":[-2.5E0,-1.6325E1,5.9E0,2E0,5.3152233E-1,3.5555556E-1,6.5019697E-1,1.04029635E-2,-2.3172924E-2,-1.1589833E-2,-3.1795339E-3,1.9294785E-3,-2.3363145E-2,6.060049E-3,1.531512E-2],"split_indices":[15,15,15,17,3,12,3,0,0,0,0,0,0,0,0],"split_type":[0,0,0,0,0,0,0,0,0,0,0,0,0,0,0],"sum_hessian":[1.0647092E3,4.2374002E2,6.4096924E2,5.293044E1,3.7080957E2,3.4902896E2,2.919403E2,5.4347124E0,4.7495728E1,1.5000046E2,2.2080911E2,3.3922348E2,9.805471E0,1.4152965E2,1.5041064E2],"tree_param":{"num_deleted":"0","num_feature":"31","num_nodes":"15","size_leaf_vector":"1"}},{"base_weights":[-3.8288396E-3,-1.7298064E-1,2.870239E-1,-4.3435833E-1,-7.697306E-2,1.6907859E-1,5.061289E-1,-3.1517465E-2,-1.0639209E-2,9.669893E-4,-8.752594E-3,3.2297662E-3,1.8944783E-2,1.6510565E-2,-4.6070777E-3],"categories":[],"categories_nodes":[],"categories_segments":[],"categories_sizes":[],"default_left":[0,0,1,0,1,0,0,0,0,0,0,0,0,0,0],"id":44,"left_children":[1,3,5,7,9,11,13,-1,-1,-1,-1,-1,-1,-1,-1],"loss_changes":[5.2256332E1,1.6819094E1,1.0007935E1,8.479313E0,1.1558204E1,7.18583E0,4.0572968E0,0E0,0E0,0E0,0E0,0E0,0E0,0E0,0E0],"parents":[2147483647,0,0,1,1,2,2,3,3,4,4,5,5,6,6],"right_children":[2,4,6,8,10,12,14,-1,-1,-1,-1,-1,-1,-1,-1],"split_conditions":[1.4963954E1,-7.5E0,1E1,-1.3054213E2,7.45E1,7.68E1,2.1E0,-3.1517465E-2,-1.0639209E-2,9.669893E-4,-8.752594E-3,3.2297662E-3,1.8944783E-2,1.6510565E-2,-4.6070777E-3],"split_indices":[2,6,15,2,7,5,14,0,0,0,0,0,0,0,0],"split_type":[0,0,0,0,0,0,0,0,0,0,0,0,0,0,0],"sum_hessian":[1.0601488E3,6.7056964E2,3.8957922E2,1.7919434E2,4.9137527E2,2.5440396E2,1.3517525E2,1.9131124E1,1.600632E2,3.263108E2,1.650645E2,2.2566327E2,2.8740685E1,1.2683832E2,8.336933E0],"tree_param":{"num_deleted":"0","num_feature":"31","num_nodes":"15","size_leaf_vector":"1"}},{"base_weights":[7.6263556E-3,-2.689392E-1,1.8950264E-1,-6.5010077E-1,-2.1170512E-1,9.2682526E-2,4.23985E-1,1.1604445E-3,-2.4584185E-2,1.45885935E-2,-7.1513616E-3,3.7484074E-3,-1.0708099E-2,1.7539566E-2,5.9318496E-3],"categories":[],"categories_nodes":[],"categories_segments":[],"categories_sizes":[],"default_left":[0,0,0,0,0,0,0,0,0,0,0,0,0,0,0],"id":45,"left_children":[1,3,5,7,9,11,13,-1,-1,-1,-1,-1,-1,-1,-1],"loss_changes":[5.3023293E1,8.985838E0,1.4397318E1,6.3449078E0,6.913252E0,6.5921135E0,6.6297607E0,0E0,0E0,0E0,0E0,0E0,0E0,0E0,0E0],"parents":[2147483647,0,0,1,1,2,2,3,3,4,4,5,5,6,6],"right_children":[2,4,6,8,10,12,14,-1,-1,-1,-1,-1,-1,-1,-1],"split_conditions":[-2.6666667E0,-1.6325E1,1.01E1,3E0,3E0,8.6E0,-3.8E0,1.1604445E-3,-2.4584185E-2,1.45885935E-2,-7.1513616E-3,3.7484074E-3,-1.0708099E-2,1.7539566E-2,5.9318496E-3],"split_indices":[15,15,15,17,17,9,9,0,0,0,0,0,0,0,0],"split_type":[0,0,0,0,0,0,0,0,0,0,0,0,0,0,0],"sum_hessian":[1.0521129E3,4.1721176E2,6.349011E2,5.3116077E1,3.6409567E2,4.503446E2,1.8455652E2,1.06357E1,4.2480373E1,1.2767454E1,3.5132822E2,4.2086566E2,2.9478949E1,1.06994545E2,7.756197E1],"tree_param":{"num_deleted":"0","num_feature":"31","num_nodes":"15","size_leaf_vector":"1"}},{"base_weights":[7.964756E-3,-2.4301818E-1,1.8174607E-1,-4.2383996E-1,-1.194851E-1,1.1939366E-1,5.680163E-1,-3.1862713E-2,-1.0823187E-2,1.5482398E-4,-1.0046988E-2,2.2857713E-3,1.537913E-2,2.6981293E-3,1.8752651E-2],"categories":[],"categories_nodes":[],"categories_segments":[],"categories_sizes":[],"default_left":[0,0,1,0,0,0,0,0,0,0,0,0,0,0,0],"id":46,"left_children":[1,3,5,7,9,11,13,-1,-1,-1,-1,-1,-1,-1,-1],"loss_changes":[4.643427E1,9.678936E0,1.5082226E1,6.7173653E0,6.9874973E0,9.183521E0,2.3219376E0,0E0,0E0,0E0,0E0,0E0,0E0,0E0,0E0],"parents":[2147483647,0,0,1,1,2,2,3,3,4,4,5,5,6,6],"right_children":[2,4,6,8,10,12,14,-1,-1,-1,-1,-1,-1,-1,-1],"split_conditions":[-2.2E0,1.4725896E3,1.38E1,6.7E1,7.64E1,8.677388E1,1.5581109E1,-3.1862713E-2,-1.0823187E-2,1.5482398E-4,-1.0046988E-2,2.2857713E-3,1.537913E-2,2.6981293E-3,1.8752651E-2],"split_indices":[15,0,15,7,5,2,2,0,0,0,0,0,0,0,0],"split_type":[0,0,0,0,0,0,0,0,0,0,0,0,0,0,0],"sum_hessian":[1.0625994E3,4.3457205E2,6.280273E2,1.7539958E2,2.591725E2,5.4186725E2,8.616005E1,1.4348577E1,1.6105101E2,1.6479355E2,9.437892E1,4.893064E2,5.2560825E1,9.463393E0,7.6696655E1],"tree_param":{"num_deleted":"0","num_feature":"31","num_nodes":"15","size_leaf_vector":"1"}},{"base_weights":[-1.1979136E-2,-1.5277407E-1,3.4977993E-1,-2.2926754E-1,1.4494842E-1,4.276E-1,1.2464949E-3,-2.4018861E-2,-5.9131132E-3,-1.8838309E-2,6.05555E-3,8.003433E-3,1.7231347E-2,7.0412117E-3,-8.6486E-3],"categories":[],"categories_nodes":[],"categories_segments":[],"categories_sizes":[],"default_left":[0,0,1,0,0,0,0,0,0,0,0,0,0,0,0],"id":47,"left_children":[1,3,5,7,9,11,13,-1,-1,-1,-1,-1,-1,-1,-1],"loss_changes":[5.38901E1,1.7376923E1,8.039501E0,1.09838505E1,7.000116E0,5.566677E0,3.7927105E0,0E0,0E0,0E0,0E0,0E0,0E0,0E0,0E0],"parents":[2147483647,0,0,1,1,2,2,3,3,4,4,5,5,6,6],"right_children":[2,4,6,8,10,12,14,-1,-1,-1,-1,-1,-1,-1,-1],"split_conditions":[5.5833335E0,1.5344064E3,3E-1,-1.3054213E2,2E0,3.705253E1,7.94E1,-2.4018861E-2,-5.9131132E-3,-1.8838309E-2,6.05555E-3,8.003433E-3,1.7231347E-2,7.0412117E-3,-8.6486E-3],"split_indices":[15,0,9,2,18,2,4,0,0,0,0,0,0,0,0],"split_type":[0,0,0,0,0,0,0,0,0,0,0,0,0,0,0],"sum_hessian":[1.055992E3,7.605624E2,2.9542963E2,6.052788E2,1.552836E2,2.4132094E2,5.4108673E1,3.098392E1,5.7429486E2,9.960409E0,1.453232E2,1.1649725E2,1.2482369E2,3.005979E1,2.4048883E1],"tree_param":{"num_deleted":"0","num_feature":"31","num_nodes":"15","size_leaf_vector":"1"}},{"base_weights":[-3.7341595E-3,-2.2751875E-1,1.9088505E-1,-3.2280385E-1,-2.779397E-2,1.1692588E-1,5.8689326E-1,-2.362909E-2,-8.308475E-3,4.6176356E-3,-9.522007E-3,1.7835625E-2,1.6939234E-3,1.2357048E-2,2.4958363E-2],"categories":[],"categories_nodes":[],"categories_segments":[],"categories_sizes":[],"default_left":[0,1,0,0,0,1,0,0,0,0,0,0,0,0,0],"id":48,"left_children":[1,3,5,7,9,11,13,-1,-1,-1,-1,-1,-1,-1,-1],"loss_changes":[4.601974E1,9.34441E0,1.648401E1,6.872158E0,8.46053E0,1.3753922E1,3.4605694E0,0E0,0E0,0E0,0E0,0E0,0E0,0E0,0E0],"parents":[2147483647,0,0,1,1,2,2,3,3,4,4,5,5,6,6],"right_children":[2,4,6,8,10,12,14,-1,-1,-1,-1,-1,-1,-1,-1],"split_conditions":[-3.2440848E0,-2.5E-1,8.118972E1,-1.3054213E2,7.64E1,-1.65E1,1.5746376E3,-2.362909E-2,-8.308475E-3,4.6176356E-3,-9.522007E-3,1.7835625E-2,1.6939234E-3,1.2357048E-2,2.4958363E-2],"split_indices":[2,13,2,2,5,14,0,0,0,0,0,0,0,0,0],"split_type":[0,0,0,0,0,0,0,0,0,0,0,0,0,0,0],"sum_hessian":[1.0546459E3,4.9048657E2,5.641593E2,3.3164734E2,1.5883923E2,4.7646848E2,8.769081E1,2.8326155E1,3.033212E2,9.78876E1,6.0951637E1,5.2548485E1,4.2391998E2,5.2722534E1,3.4968273E1],"tree_param":{"num_deleted":"0","num_feature":"31","num_nodes":"15","size_leaf_vector":"1"}},{"base_weights":[9.069293E-3,-1.5507886E-1,2.4606705E-1,-5.9514606E-1,-1.147316E-1,4.9306783E-1,1.5852581E-1,1.0747379E-2,-2.143428E-2,-4.1590757E-3,1.3905675E-2,-7.2028646E-3,1.8478546E-2,-2.0730074E-3,8.130213E-3],"categories":[],"categories_nodes":[],"categories_segments":[],"categories_sizes":[],"default_left":[0,0,0,0,0,0,0,0,0,0,0,0,0,0,0],"id":49,"left_children":[1,3,5,7,9,11,13,-1,-1,-1,-1,-1,-1,-1,-1],"loss_changes":[4.087087E1,1.0953006E1,9.217136E0,6.1596565E0,7.9409027E0,1.0239861E1,8.1829405E0,0E0,0E0,0E0,0E0,0E0,0E0,0E0,0E0],"parents":[2147483647,0,0,1,1,2,2,3,3,4,4,5,5,6,6],"right_children":[2,4,6,8,10,12,14,-1,-1,-1,-1,-1,-1,-1,-1],"split_conditions":[2.1E0,-1.6325E1,6.48E1,2E0,8E1,-6.1E0,1.5868333E1,1.0747379E-2,-2.143428E-2,-4.1590757E-3,1.3905675E-2,-7.2028646E-3,1.8478546E-2,-2.0730074E-3,8.130213E-3],"split_indices":[15,15,7,17,4,6,2,0,0,0,0,0,0,0,0],"split_type":[0,0,0,0,0,0,0,0,0,0,0,0,0,0,0],"sum_hessian":[1.04861E3,6.19725E2,4.2888504E2,5.0892323E1,5.6883264E2,1.1101626E2,3.1786877E2,5.438559E0,4.5453762E1,5.4698145E2,2.1851227E1,1.5799221E1,9.521704E1,1.0525406E2,2.1261472E2],"tree_param":{"num_deleted":"0","num_feature":"31","num_nodes":"15","size_leaf_vector":"1"}},{"base_weights":[-5.331309E-3,-2.1332134E-1,1.8024932E-1,-2.4981686E-1,3.305103E-1,8.2142687E-1,1.4107387E-1,-6.6161873E-3,-2.2777267E-2,-1.1914534E-2,2.15911E-2,2.7955666E-2,1.2859571E-2,-3.3576605E-3,7.6201316E-3],"categories":[],"categories_nodes":[],"categories_segments":[],"categories_sizes":[],"default_left":[0,1,0,0,0,0,0,0,0,0,0,0,0,0,0],"id":50,"left_children":[1,3,5,7,9,11,13,-1,-1,-1,-1,-1,-1,-1,-1],"loss_changes":[4.069654E1,9.949587E0,1.3880203E1,6.7894516E0,9.261816E0,9.831791E-1,1.5066093E1,0E0,0E0,0E0,0E0,0E0,0E0,0E0,0E0],"parents":[2147483647,0,0,1,1,2,2,3,3,4,4,5,5,6,6],"right_children":[2,4,6,8,10,12,14,-1,-1,-1,-1,-1,-1,-1,-1],"split_conditions":[5.949045E-1,7.9E0,-1.65E1,5.3E0,-4.8809524E0,6.3142857E1,2E-1,-6.6161873E-3,-2.2777267E-2,-1.1914534E-2,2.15911E-2,2.7955666E-2,1.2859571E-2,-3.3576605E-3,7.6201316E-3],"split_indices":[3,13,14,13,6,5,13,0,0,0,0,0,0,0,0],"split_type":[0,0,0,0,0,0,0,0,0,0,0,0,0,0,0],"sum_hessian":[1.0523478E3,4.9614377E2,5.5620404E2,4.6544897E2,3.069477E1,3.0877047E1,5.25327E2,4.4150793E2,2.3941065E1,1.06891575E1,2.0005613E1,2.3029734E1,7.8473134E0,1.6212674E2,3.6320026E2],"tree_param":{"num_deleted":"0","num_feature":"31","num_nodes":"15","size_leaf_vector":"1"}},{"base_weights":[1.5243464E-2,-1.8887201E-1,2.0053646E-1,-1.24761835E-2,-3.337113E-1,1.298384E-1,6.3720375E-1,-2.1635364E-3,1.3925604E-2,-1.7807264E-2,-7.729258E-3,-1.2076478E-2,5.3907684E-3,2.0953242E-2,-1.843319E-3],"categories":[],"categories_nodes":[],"categories_segments":[],"categories_sizes":[],"default_left":[0,0,0,0,0,0,0,0,0,0,0,0,0,0,0],"id":51,"left_children":[1,3,5,7,9,11,13,-1,-1,-1,-1,-1,-1,-1,-1],"loss_changes":[3.9223064E1,1.260449E1,1.6697706E1,6.3888583E0,5.20323E0,1.2522252E1,3.272438E0,0E0,0E0,0E0,0E0,0E0,0E0,0E0,0E0],"parents":[2147483647,0,0,1,1,2,2,3,3,4,4,5,5,6,6],"right_children":[2,4,6,8,10,12,14,-1,-1,-1,-1,-1,-1,-1,-1],"split_conditions":[-1E-1,-2.2E0,7.048119E-1,4.4444445E-1,3E0,6.08E1,7.475E1,-2.1635364E-3,1.3925604E-2,-1.7807264E-2,-7.729258E-3,-1.2076478E-2,5.3907684E-3,2.0953242E-2,-1.843319E-3],"split_indices":[13,14,3,11,18,8,7,0,0,0,0,0,0,0,0],"split_type":[0,0,0,0,0,0,0,0,0,0,0,0,0,0,0],"sum_hessian":[1.0350651E3,4.9250784E2,5.425572E2,2.2255289E2,2.6995496E2,4.6807196E2,7.4485245E1,1.985574E2,2.3995478E1,5.958855E1,2.1036641E2,3.9472458E1,4.2859952E2,6.84829E1,6.002341E0],"tree_param":{"num_deleted":"0","num_feature":"31","num_nodes":"15","size_leaf_vector":"1"}},{"base_weights":[1.3892236E-3,-2.0423676E-1,1.438358E-1,-3.7742704E-1,-7.6501764E-2,8.759675E-2,4.9922222E-1,-7.299589E-3,-1.929888E-2,-7.6337033E-3,4.903405E-3,3.503582E-3,-1.2116702E-2,5.4500857E-3,1.8504117E-2],"categories":[],"categories_nodes":[],"categories_segments":[],"categories_sizes":[],"default_left":[0,0,1,0,0,1,0,0,0,0,0,0,0,0,0],"id":52,"left_children":[1,3,5,7,9,11,13,-1,-1,-1,-1,-1,-1,-1,-1],"loss_changes":[3.0724346E1,9.4677925E0,1.234126E1,6.331352E0,1.0644626E1,7.7397947E0,3.0411682E0,0E0,0E0,0E0,0E0,0E0,0E0,0E0,0E0],"parents":[2147483647,0,0,1,1,2,2,3,3,4,4,5,5,6,6],"right_children":[2,4,6,8,10,12,14,-1,-1,-1,-1,-1,-1,-1,-1],"split_conditions":[-2.3333333E0,1.4750004E3,1.38E1,1.5314756E3,-2.8E0,8.6E0,4E0,-7.299589E-3,-1.929888E-2,-7.6337033E-3,4.903405E-3,3.503582E-3,-1.2116702E-2,5.4500857E-3,1.8504117E-2],"split_indices":[15,0,15,1,6,9,16,0,0,0,0,0,0,0,0],"split_type":[0,0,0,0,0,0,0,0,0,0,0,0,0,0,0],"sum_hessian":[1.0469419E3,4.2827707E2,6.186648E2,1.8096278E2,2.4731427E2,5.352148E2,8.344998E1,1.21561134E2,5.9401657E1,1.4196623E2,1.0534804E2,5.0593008E2,2.9284716E1,2.323751E1,6.0212475E1],"tree_param":{"num_deleted":"0","num_feature":"31","num_nodes":"15","size_leaf_vector":"1"}},{"base_weights":[1.3541822E-2,-2.953327E-1,1.2734081E-1,-7.8671205E-1,-2.4141711E-1,5.9764236E-2,4.3898296E-1,-1.540006E-2,-4.093983E-2,-5.500694E-3,-2.2740806E-2,-1.3541738E-2,2.7582007E-3,1.5199093E-2,-4.446378E-3],"categories":[],"categories_nodes":[],"categories_segments":[],"categories_sizes":[],"default_left":[0,0,1,0,0,0,0,0,0,0,0,0,0,0,0],"id":53,"left_children":[1,3,5,7,9,11,13,-1,-1,-1,-1,-1,-1,-1,-1],"loss_changes":[3.6884254E1,7.295309E0,1.6121172E1,3.6432762E0,7.5409555E0,1.0423866E1,5.496702E0,0E0,0E0,0E0,0E0,0E0,0E0,0E0,0E0],"parents":[2147483647,0,0,1,1,2,2,3,3,4,4,5,5,6,6],"right_children":[2,4,6,8,10,12,14,-1,-1,-1,-1,-1,-1,-1,-1],"split_conditions":[-3.1329523E1,-1.4375E1,1.0541667E1,-1.56E1,1.3166667E1,6.1E1,1.3E0,-1.540006E-2,-4.093983E-2,-5.500694E-3,-2.2740806E-2,-1.3541738E-2,2.7582007E-3,1.5199093E-2,-4.446378E-3],"split_indices":[2,6,15,6,9,8,9,0,0,0,0,0,0,0,0],"split_type":[0,0,0,0,0,0,0,0,0,0,0,0,0,0,0],"sum_hessian":[1.0472804E3,2.8153622E2,7.6574414E2,2.6492817E1,2.5504341E2,6.302683E2,1.354758E2,1.926734E1,7.2254767E0,2.3049367E2,2.4549753E1,3.6552597E1,5.9371576E2,1.216026E2,1.387319E1],"tree_param":{"num_deleted":"0","num_feature":"31","num_nodes":"15","size_leaf_vector":"1"}},{"base_weights":[-5.2256794E-3,-9.811904E-2,3.0854803E-1,-3.142072E-1,-2.9742265E-2,5.276132E-2,4.3425366E-1,-2.4275107E-2,-7.726016E-3,2.3510654E-2,-1.481227E-3,5.1862947E-3,-2.2232251E-2,1.3789599E-2,-8.700819E-3],"categories":[],"categories_nodes":[],"categories_segments":[],"categories_sizes":[],"default_left":[0,0,0,0,0,1,0,0,0,0,0,0,0,0,0],"id":54,"left_children":[1,3,5,7,9,11,13,-1,-1,-1,-1,-1,-1,-1,-1],"loss_changes":[3.047105E1,1.1908023E1,7.65551E0,5.227089E0,9.840578E0,7.7396874E0,3.0763187E0,0E0,0E0,0E0,0E0,0E0,0E0,0E0,0E0],"parents":[2147483647,0,0,1,1,2,2,3,3,4,4,5,5,6,6],"right_children":[2,4,6,8,10,12,14,-1,-1,-1,-1,-1,-1,-1,-1],"split_conditions":[7.5E0,-7.5E0,1.9779556E1,-1.3054213E2,-7.1E0,1.2E0,7.77E1,-2.4275107E-2,-7.726016E-3,2.3510654E-2,-1.481227E-3,5.1862947E-3,-2.2232251E-2,1.3789599E-2,-8.700819E-3],"split_indices":[15,6,2,2,6,9,5,0,0,0,0,0,0,0,0],"split_type":[0,0,0,0,0,0,0,0,0,0,0,0,0,0,0],"sum_hessian":[1.0433702E3,8.0556757E2,2.3780266E2,1.9276993E2,6.127976E2,7.882622E1,1.5897644E2,1.8440434E1,1.743295E2,1.3524031E1,5.9927356E2,6.914598E1,9.680234E0,1.539432E2,5.0332403E0],"tree_param":{"num_deleted":"0","num_feature":"31","num_nodes":"15","size_leaf_vector":"1"}},{"base_weights":[-1.1982011E-2,-1.6807365E-1,2.1663238E-1,-3.2761297E-1,-7.703242E-2,5.1687527E-1,1.13042794E-1,-8.846431E-3,-3.5835233E-2,1.6093769E-3,-6.721045E-3,-1.0509974E-3,1.845478E-2,9.407615E-4,1.4394996E-2],"categories":[],"categories_nodes":[],"categories_segments":[],"categories_sizes":[],"default_left":[0,0,0,0,0,0,0,0,0,0,0,0,0,0,0],"id":55,"left_children":[1,3,5,7,9,11,13,-1,-1,-1,-1,-1,-1,-1,-1],"loss_changes":[3.7259087E1,8.986305E0,1.3118433E1,6.035242E0,7.625386E0,5.9014263E0,9.4606495E0,0E0,0E0,0E0,0E0,0E0,0E0,0E0,0E0],"parents":[2147483647,0,0,1,1,2,2,3,3,4,4,5,5,6,6],"right_children":[2,4,6,8,10,12,14,-1,-1,-1,-1,-1,-1,-1,-1],"split_conditions":[2.1E0,-4.0501038E1,6.48E1,5.4E0,-3.3333335E-2,-6.1E0,8.2982E1,-8.846431E-3,-3.5835233E-2,1.6093769E-3,-6.721045E-3,-1.0509974E-3,1.845478E-2,9.407615E-4,1.4394996E-2],"split_indices":[15,2,7,13,12,6,2,0,0,0,0,0,0,0,0],"split_type":[0,0,0,0,0,0,0,0,0,0,0,0,0,0,0],"sum_hessian":[1.0420963E3,6.194308E2,4.2266553E2,2.2410823E2,3.9532254E2,1.0739716E2,3.1526837E2,2.172457E2,6.862536E0,2.0961743E2,1.857051E2,1.63316E1,9.106557E1,2.5873392E2,5.6534447E1],"tree_param":{"num_deleted":"0","num_feature":"31","num_nodes":"15","size_leaf_vector":"1"}},{"base_weights":[4.8264833E-3,-1.559419E-1,1.6916832E-1,-5.7464945E-3,-2.9300967E-1,-4.4351384E-1,2.2102985E-1,-1.6653994E-3,1.3578168E-2,-9.865093E-3,1.1830458E-2,-2.6650423E-2,-1.54212E-3,1.7525522E-2,4.7011515E-3],"categories":[],"categories_nodes":[],"categories_segments":[],"categories_sizes":[],"default_left":[1,1,0,1,0,0,1,0,0,0,0,0,0,0,0],"id":56,"left_children":[1,3,5,7,9,11,13,-1,-1,-1,-1,-1,-1,-1,-1],"loss_changes":[2.7556755E1,1.085261E1,1.6485725E1,5.786968E0,6.91774E0,7.0327916E0,1.1031605E1,0E0,0E0,0E0,0E0,0E0,0E0,0E0,0E0],"parents":[2147483647,0,0,1,1,2,2,3,3,4,4,5,5,6,6],"right_children":[2,4,6,8,10,12,14,-1,-1,-1,-1,-1,-1,-1,-1],"split_conditions":[-1E-1,-2.2E0,6.08E1,4.2857143E-1,8E0,1.5241718E3,3E-1,-1.6653994E-3,1.3578168E-2,-9.865093E-3,1.1830458E-2,-2.6650423E-2,-1.54212E-3,1.7525522E-2,4.7011515E-3],"split_indices":[13,14,8,11,18,0,11,0,0,0,0,0,0,0,0],"split_type":[0,0,0,0,0,0,0,0,0,0,0,0,0,0,0],"sum_hessian":[1.0409894E3,5.262415E2,5.147478E2,2.5159355E2,2.7464798E2,3.9581978E1,4.7516583E2,2.2774446E2,2.3849087E1,2.615376E2,1.3110385E1,1.7951326E1,2.163065E1,7.028436E1,4.0488147E2],"tree_param":{"num_deleted":"0","num_feature":"31","num_nodes":"15","size_leaf_vector":"1"}},{"base_weights":[-1.4619322E-2,-1.8576473E-1,1.4255469E-1,2.0592271E-1,-2.3017819E-1,6.539224E-2,4.3787953E-1,1.2358315E-2,-1.8016722E-2,-2.170719E-2,-5.991923E-3,-2.371862E-2,2.6793275E-3,1.8590212E-2,1.9815145E-3],"categories":[],"categories_nodes":[],"categories_segments":[],"categories_sizes":[],"default_left":[0,0,0,0,0,0,0,0,0,0,0,0,0,0,0],"id":57,"left_children":[1,3,5,7,9,11,13,-1,-1,-1,-1,-1,-1,-1,-1],"loss_changes":[2.7975065E1,8.7076645E0,1.23263445E1,8.75893E0,6.579563E0,8.895884E0,7.53916E0,0E0,0E0,0E0,0E0,0E0,0E0,0E0,0E0],"parents":[2147483647,0,0,1,1,2,2,3,3,4,4,5,5,6,6],"right_children":[2,4,6,8,10,12,14,-1,-1,-1,-1,-1,-1,-1,-1],"split_conditions":[-1E-1,1.4285715E-1,6.0932236E1,3.5555556E-1,-3E0,-1.4375E1,6.96E1,1.2358315E-2,-1.8016722E-2,-2.170719E-2,-5.991923E-3,-2.371862E-2,2.6793275E-3,1.8590212E-2,1.9815145E-3],"split_indices":[13,11,2,12,22,6,7,0,0,0,0,0,0,0,0],"split_type":[0,0,0,0,0,0,0,0,0,0,0,0,0,0,0],"sum_hessian":[1.037996E3,4.968253E2,5.4117065E2,5.0227413E1,4.4659787E2,4.3003308E2,1.1113756E2,4.0396935E1,9.83048E0,2.4634562E1,4.2196332E2,1.0818024E1,4.1921506E2,7.419546E1,3.6942104E1],"tree_param":{"num_deleted":"0","num_feature":"31","num_nodes":"15","size_leaf_vector":"1"}},{"base_weights":[1.127822E-3,-8.542937E-2,2.8849897E-1,-5.568496E-1,-5.2918267E-2,3.7404475E-1,-2.1338937E-1,9.703339E-3,-1.989314E-2,-3.924752E-3,2.1877226E-3,3.6125905E-3,1.4587019E-2,-2.6684497E-2,1.3476522E-3],"categories":[],"categories_nodes":[],"categories_segments":[],"categories_sizes":[],"default_left":[0,0,1,0,0,1,0,0,0,0,0,0,0,0,0],"id":58,"left_children":[1,3,5,7,9,11,13,-1,-1,-1,-1,-1,-1,-1,-1],"loss_changes":[2.5765059E1,1.217124E1,1.0374275E1,5.0084333E0,7.3214025E0,5.7807217E0,6.2491584E0,0E0,0E0,0E0,0E0,0E0,0E0,0E0,0E0],"parents":[2147483647,0,0,1,1,2,2,3,3,4,4,5,5,6,6],"right_children":[2,4,6,8,10,12,14,-1,-1,-1,-1,-1,-1,-1,-1],"split_conditions":[7.2E0,-1.6325E1,1.1E0,2E0,1.7175921E0,-3E-1,1.5581109E1,9.703339E-3,-1.989314E-2,-3.924752E-3,2.1877226E-3,3.6125905E-3,1.4587019E-2,-2.6684497E-2,1.3476522E-3],"split_indices":[15,15,9,17,2,6,2,0,0,0,0,0,0,0,0],"split_type":[0,0,0,0,0,0,0,0,0,0,0,0,0,0,0],"sum_hessian":[1.0338303E3,7.950586E2,2.387717E2,5.0252674E1,7.448059E2,2.0421793E2,3.4553772E1,5.1922483E0,4.5060425E1,4.5999283E2,2.848131E2,6.326616E1,1.4095177E2,8.876719E0,2.5677052E1],"tree_param":{"num_deleted":"0","num_feature":"31","num_nodes":"15","size_leaf_vector":"1"}},{"base_weights":[7.93488E-3,-1.5004675E-1,1.6164696E-1,-5.442969E-1,-1.0413811E-1,-5.289816E-2,2.6138493E-1,-6.120346E-3,-2.3206064E-2,-1.1638525E-3,-1.0245253E-2,-6.473024E-3,1.365244E-2,-1.340143E-2,9.158778E-3],"categories":[],"categories_nodes":[],"categories_segments":[],"categories_sizes":[],"default_left":[0,1,0,0,0,0,0,0,0,0,0,0,0,0,0],"id":59,"left_children":[1,3,5,7,9,11,13,-1,-1,-1,-1,-1,-1,-1,-1],"loss_changes":[2.5147903E1,9.187226E0,1.124498E1,3.979063E0,7.101342E0,1.3947663E1,1.1281416E1,0E0,0E0,0E0,0E0,0E0,0E0,0E0,0E0],"parents":[2147483647,0,0,1,1,2,2,3,3,4,4,5,5,6,6],"right_children":[2,4,6,8,10,12,14,-1,-1,-1,-1,-1,-1,-1,-1],"split_conditions":[-5.726809E-1,-1.6325E1,2E-1,1.5197831E3,-3.3333335E-2,7.71E1,6.14E1,-6.120346E-3,-2.3206064E-2,-1.1638525E-3,-1.0245253E-2,-6.473024E-3,1.365244E-2,-1.340143E-2,9.158778E-3],"split_indices":[2,15,13,1,12,7,8,0,0,0,0,0,0,0,0],"split_type":[0,0,0,0,0,0,0,0,0,0,0,0,0,0,0],"sum_hessian":[1.0335896E3,5.0972754E2,5.2386206E2,5.203238E1,4.5769516E2,1.6639703E2,3.57465E2,2.1704231E1,3.0328148E1,3.5981042E2,9.788475E1,1.2643459E2,3.9962444E1,2.0335793E1,3.371292E2],"tree_param":{"num_deleted":"0","num_feature":"31","num_nodes":"15","size_leaf_vector":"1"}},{"base_weights":[1.3553804E-2,-1.2199117E-1,2.326492E-1,-1.5151682E-1,3.4979084E-1,1.6087669E-1,5.365508E-1,8.863368E-3,-5.2544633E-3,2.5274628E-4,1.7760094E-2,3.2197977E-3,1.4619862E-2,8.303695E-3,2.2545544E-2],"categories":[],"categories_nodes":[],"categories_segments":[],"categories_sizes":[],"default_left":[0,0,0,0,0,0,0,0,0,0,0,0,0,0,0],"id":60,"left_children":[1,3,5,7,9,11,13,-1,-1,-1,-1,-1,-1,-1,-1],"loss_changes":[3.064897E1,8.9353895E0,8.516924E0,6.397768E0,3.12528E0,5.5505857E0,3.9759636E0,0E0,0E0,0E0,0E0,0E0,0E0,0E0,0E0],"parents":[2147483647,0,0,1,1,2,2,3,3,4,4,5,5,6,6],"right_children":[2,4,6,8,10,12,14,-1,-1,-1,-1,-1,-1,-1,-1],"split_conditions":[2.6E0,1.5728607E3,8.118972E1,3E0,6.75E1,8.4875E1,7.25E1,8.863368E-3,-5.2544633E-3,2.5274628E-4,1.7760094E-2,3.2197977E-3,1.4619862E-2,8.303695E-3,2.2545544E-2],"split_indices":[15,0,2,17,7,8,8,0,0,0,0,0,0,0,0],"split_type":[0,0,0,0,0,0,0,0,0,0,0,0,0,0,0],"sum_hessian":[1.0300906E3,6.3665967E2,3.9343097E2,5.99801E2,3.685865E1,3.195032E2,7.3927765E1,2.9542767E1,5.7025824E2,1.5727549E1,2.1131104E1,2.7562015E2,4.3883034E1,3.4511974E1,3.941579E1],"tree_param":{"num_deleted":"0","num_feature":"31","num_nodes":"15","size_leaf_vector":"1"}},{"base_weights":[5.1543303E-3,-1.4204663E-1,1.4188124E-1,-1.5966733E-1,3.0681662E-2,-3.859856E-1,1.8754686E-1,-2.4762183E-2,-3.7282382E-3,-2.2717344E-2,-1.5625601E-3,3.9273635E-3,1.5816092E-2],"categories":[],"categories_nodes":[],"categories_segments":[],"categories_sizes":[],"default_left":[0,0,0,0,0,0,0,0,0,0,0,0,0],"id":61,"left_children":[1,3,5,7,-1,9,11,-1,-1,-1,-1,-1,-1],"loss_changes":[2.0695925E1,1.0326813E1,1.2922925E1,1.1411994E1,0E0,5.262876E0,9.382286E0,0E0,0E0,0E0,0E0,0E0,0E0],"parents":[2147483647,0,0,1,1,2,2,3,3,5,5,6,6],"right_children":[2,4,6,8,-1,10,12,-1,-1,-1,-1,-1,-1],"split_conditions":[-1E-1,1.2E1,6.08E1,-3E0,3.0681662E-2,1.5236243E3,7.048119E-1,-2.4762183E-2,-3.7282382E-3,-2.2717344E-2,-1.5625601E-3,3.9273635E-3,1.5816092E-2],"split_indices":[13,19,8,22,0,0,3,0,0,0,0,0,0],"split_type":[0,0,0,0,0,0,0,0,0,0,0,0,0],"sum_hessian":[1.0262994E3,4.9420096E2,5.3209845E2,4.8768613E2,6.5148244E0,4.17732E1,4.9032526E2,2.3491346E1,4.641948E2,1.917969E1,2.2593513E1,4.214393E2,6.888594E1],"tree_param":{"num_deleted":"0","num_feature":"31","num_nodes":"13","size_leaf_vector":"1"}},{"base_weights":[1.6713297E-3,-1.5491992E-1,1.4854598E-1,-1.7112064E-1,3.481105E-2,-3.843943E-1,1.952042E-1,-2.245941E-2,-4.116598E-3,-2.3679974E-2,1.1329611E-3,3.9580213E-3,1.2970197E-2],"categories":[],"categories_nodes":[],"categories_segments":[],"categories_sizes":[],"default_left":[0,0,0,0,0,1,0,0,0,0,0,0,0],"id":62,"left_children":[1,3,5,7,-1,9,11,-1,-1,-1,-1,-1,-1],"loss_changes":[2.3686136E1,1.0819834E1,1.328919E1,9.554516E0,0E0,7.4004407E0,7.284191E0,0E0,0E0,0E0,0E0,0E0,0E0],"parents":[2147483647,0,0,1,1,2,2,3,3,5,5,6,6],"right_children":[2,4,6,8,-1,10,12,-1,-1,-1,-1,-1,-1],"split_conditions":[-1E-1,1.2E1,6.08E1,-3E0,3.481105E-2,7.7E0,6.394059E1,-2.245941E-2,-4.116598E-3,-2.3679974E-2,1.1329611E-3,3.9580213E-3,1.2970197E-2],"split_indices":[13,19,8,22,0,13,2,0,0,0,0,0,0],"split_type":[0,0,0,0,0,0,0,0,0,0,0,0,0],"sum_hessian":[1.0278634E3,4.9744974E2,5.304137E2,4.922564E2,5.1933384E0,4.211608E1,4.882976E2,2.612428E1,4.661321E2,2.1052576E1,2.1063507E1,3.866831E2,1.016145E2],"tree_param":{"num_deleted":"0","num_feature":"31","num_nodes":"13","size_leaf_vector":"1"}},{"base_weights":[7.0775514E-3,-1.24530375E-1,1.9708405E-1,-5.3242505E-1,-8.8685475E-2,1.3186312E-1,4.7762436E-1,1.4264173E-4,-1.9844895E-2,2.7737336E-3,-5.1804325E-3,-2.5667878E-2,4.9088383E-3,8.556803E-3,1.9951053E-2],"categories":[],"categories_nodes":[],"categories_segments":[],"categories_sizes":[],"default_left":[0,0,0,0,0,0,1,0,0,0,0,0,0,0,0],"id":63,"left_children":[1,3,5,7,9,11,13,-1,-1,-1,-1,-1,-1,-1,-1],"loss_changes":[2.5524397E1,8.770111E0,7.5792255E0,3.3669062E0,8.468742E0,1.0813029E1,2.6373672E0,0E0,0E0,0E0,0E0,0E0,0E0,0E0,0E0],"parents":[2147483647,0,0,1,1,2,2,3,3,4,4,5,5,6,6],"right_children":[2,4,6,8,10,12,14,-1,-1,-1,-1,-1,-1,-1,-1],"split_conditions":[8.012064E0,-1.6325E1,1.38E1,3E0,1E1,-4E0,1.13E1,1.4264173E-4,-1.9844895E-2,2.7737336E-3,-5.1804325E-3,-2.5667878E-2,4.9088383E-3,8.556803E-3,1.9951053E-2],"split_indices":[2,15,15,17,17,22,13,0,0,0,0,0,0,0,0],"split_type":[0,0,0,0,0,0,0,0,0,0,0,0,0,0,0],"sum_hessian":[1.0187347E3,6.020616E2,4.1667313E2,4.751493E1,5.5454663E2,3.3926883E2,7.740429E1,9.39156E0,3.812337E1,1.7564767E2,3.7889896E2,9.765258E0,3.2950357E2,3.9438404E1,3.796589E1],"tree_param":{"num_deleted":"0","num_feature":"31","num_nodes":"15","size_leaf_vector":"1"}},{"base_weights":[-2.956165E-2,-2.5715154E-1,6.477522E-2,-3.1918088E-1,1.27803E-1,2.2660572E-2,4.1698888E-1,-4.422713E-3,-1.318807E-2,-1.815374E-2,9.055253E-3,1.0167392E-4,2.2050135E-2,9.843949E-4,1.8311841E-2],"categories":[],"categories_nodes":[],"categories_segments":[],"categories_sizes":[],"default_left":[0,0,0,0,0,1,0,0,0,0,0,0,0,0,0],"id":64,"left_children":[1,3,5,7,9,11,13,-1,-1,-1,-1,-1,-1,-1,-1],"loss_changes":[2.2038223E1,7.2226295E0,1.0758358E1,5.298641E0,5.5977783E0,8.913051E0,5.7362328E0,0E0,0E0,0E0,0E0,0E0,0E0,0E0,0E0],"parents":[2147483647,0,0,1,1,2,2,3,3,4,4,5,5,6,6],"right_children":[2,4,6,8,10,12,14,-1,-1,-1,-1,-1,-1,-1,-1],"split_conditions":[-5.2E0,1.5241718E3,8.2982E1,-3.3333334E-1,-5.6794956E1,8.4875E1,1.5454061E3,-4.422713E-3,-1.318807E-2,-1.815374E-2,9.055253E-3,1.0167392E-4,2.2050135E-2,9.843949E-4,1.8311841E-2],"split_indices":[15,0,2,12,2,8,0,0,0,0,0,0,0,0,0],"split_type":[0,0,0,0,0,0,0,0,0,0,0,0,0,0,0],"sum_hessian":[1.0246846E3,2.9976608E2,7.249185E2,2.5831375E2,4.1452328E1,6.4844714E2,7.647134E1,1.07380775E2,1.5093297E2,7.479026E0,3.39733E1,6.323447E2,1.610242E1,2.5998447E1,5.0472893E1],"tree_param":{"num_deleted":"0","num_feature":"31","num_nodes":"15","size_leaf_vector":"1"}},{"base_weights":[-6.1234413E-3,-2.2197637E-1,8.5533775E-2,-3.1791985E-1,-1.8873682E-2,4.467441E-2,4.2166463E-1,-4.258239E-3,-1.3101773E-2,-9.119975E-3,7.1525685E-3,1.0918185E-2,2.9746108E-4,1.9271815E-2,4.2197662E-3],"categories":[],"categories_nodes":[],"categories_segments":[],"categories_sizes":[],"default_left":[0,0,0,0,0,1,0,0,0,0,0,0,0,0,0],"id":65,"left_children":[1,3,5,7,9,11,13,-1,-1,-1,-1,-1,-1,-1,-1],"loss_changes":[2.041832E1,5.988082E0,9.931155E0,4.304533E0,7.390363E0,7.1771736E0,4.7726326E0,0E0,0E0,0E0,0E0,0E0,0E0,0E0,0E0],"parents":[2147483647,0,0,1,1,2,2,3,3,4,4,5,5,6,6],"right_children":[2,4,6,8,10,12,14,-1,-1,-1,-1,-1,-1,-1,-1],"split_conditions":[-5.2E0,-2.9E0,8.2982E1,-3.5714287E-1,6.99E1,-1.53E1,-3.8E0,-4.258239E-3,-1.3101773E-2,-9.119975E-3,7.1525685E-3,1.0918185E-2,2.9746108E-4,1.9271815E-2,4.2197662E-3],"split_indices":[15,6,2,12,5,14,9,0,0,0,0,0,0,0,0],"split_type":[0,0,0,0,0,0,0,0,0,0,0,0,0,0,0],"sum_hessian":[1.0300776E3,3.0660367E2,7.23474E2,2.0785153E2,9.875212E1,6.460718E2,7.740223E1,8.46542E1,1.23197334E2,4.675634E1,5.199578E1,6.250323E1,5.8356854E2,4.263024E1,3.4771988E1],"tree_param":{"num_deleted":"0","num_feature":"31","num_nodes":"15","size_leaf_vector":"1"}},{"base_weights":[2.2844342E-4,-2.837813E-1,5.564609E-2,-3.6421654E-1,4.4167303E-3,2.3386497E-3,2.9342362E-1,-2.6060797E-2,-8.026857E-3,-2.0744003E-2,1.1303894E-2,-3.9848614E-2,4.9729523E-4,1.0928288E-2,-1.4989582E-2],"categories":[],"categories_nodes":[],"categories_segments":[],"categories_sizes":[],"default_left":[0,0,1,0,0,0,0,0,0,0,0,0,0,0,0],"id":66,"left_children":[1,3,5,7,9,11,13,-1,-1,-1,-1,-1,-1,-1,-1],"loss_changes":[1.6247658E1,3.9086533E0,1.0947766E1,6.1931286E0,1.0046411E1,1.3408478E1,9.07016E0,0E0,0E0,0E0,0E0,0E0,0E0,0E0,0E0],"parents":[2147483647,0,0,1,1,2,2,3,3,4,4,5,5,6,6],"right_children":[2,4,6,8,10,12,14,-1,-1,-1,-1,-1,-1,-1,-1],"split_conditions":[-9.4E0,-2.8E0,7.9E0,6.2833332E1,1.4613556E3,5.89E1,1E0,-2.6060797E-2,-8.026857E-3,-2.0744003E-2,1.1303894E-2,-3.9848614E-2,4.9729523E-4,1.0928288E-2,-1.4989582E-2],"split_indices":[15,6,13,8,0,8,20,0,0,0,0,0,0,0,0],"split_type":[0,0,0,0,0,0,0,0,0,0,0,0,0,0,0],"sum_hessian":[1.030305E3,1.6754314E2,8.6276196E2,1.3077924E2,3.6763893E1,7.055862E2,1.5717583E2,1.9743404E1,1.11035835E2,1.2516617E1,2.4247276E1,6.4928417E0,6.990933E2,1.4478183E2,1.2393987E1],"tree_param":{"num_deleted":"0","num_feature":"31","num_nodes":"15","size_leaf_vector":"1"}},{"base_weights":[-6.421356E-3,-1.3644148E-1,1.1469399E-1,4.5857644E-1,-1.606222E-1,4.149676E-2,4.054548E-1,-1.3608119E-2,2.607597E-2,-4.2038565E-3,-2.977829E-2,-8.652758E-3,2.8360824E-3,1.3685361E-2,-1.2848192E-2],"categories":[],"categories_nodes":[],"categories_segments":[],"categories_sizes":[],"default_left":[0,0,0,0,1,0,0,0,0,0,0,0,0,0,0],"id":67,"left_children":[1,3,5,7,9,11,13,-1,-1,-1,-1,-1,-1,-1,-1],"loss_changes":[1.6156452E1,7.1924524E0,1.12887535E1,7.7286267E0,7.980221E0,7.472779E0,4.7085056E0,0E0,0E0,0E0,0E0,0E0,0E0,0E0,0E0],"parents":[2147483647,0,0,1,1,2,2,3,3,4,4,5,5,6,6],"right_children":[2,4,6,8,10,12,14,-1,-1,-1,-1,-1,-1,-1,-1],"split_conditions":[-1E-1,-1.65E1,6.0932236E1,-1.0703186E0,3.5555556E-1,-7.5E0,5E0,-1.3608119E-2,2.607597E-2,-4.2038565E-3,-2.977829E-2,-8.652758E-3,2.8360824E-3,1.3685361E-2,-1.2848192E-2],"split_indices":[13,14,2,2,12,6,22,0,0,0,0,0,0,0,0],"split_type":[0,0,0,0,0,0,0,0,0,0,0,0,0,0,0],"sum_hessian":[1.0239798E3,4.937747E2,5.302051E2,1.8581158E1,4.7519354E2,4.2448605E2,1.0571902E2,5.735443E0,1.2845715E1,4.6491025E2,1.0283308E1,5.817576E1,3.663103E2,1.0008284E2,5.6361823E0],"tree_param":{"num_deleted":"0","num_feature":"31","num_nodes":"15","size_leaf_vector":"1"}},{"base_weights":[3.677406E-3,-9.02517E-2,1.7006762E-1,-1.9676E-2,-3.159008E-1,1.0596435E-1,4.5909348E-1,-1.4360547E-2,7.3674537E-4,-1.1812758E-2,1.1051993E-2,-3.295032E-2,4.0316065E-3,1.9502534E-3,1.7307473E-2],"categories":[],"categories_nodes":[],"categories_segments":[],"categories_sizes":[],"default_left":[0,1,1,0,1,0,0,0,0,0,0,0,0,0,0],"id":68,"left_children":[1,3,5,7,9,11,13,-1,-1,-1,-1,-1,-1,-1,-1],"loss_changes":[1.5999325E1,1.0414579E1,6.7948065E0,1.015394E1,8.447576E0,1.0540237E1,3.0618763E0,0E0,0E0,0E0,0E0,0E0,0E0,0E0,0E0],"parents":[2147483647,0,0,1,1,2,2,3,3,4,4,5,5,6,6],"right_children":[2,4,6,8,10,12,14,-1,-1,-1,-1,-1,-1,-1,-1],"split_conditions":[1.4462477E1,7.64E1,1.38E1,-1.02703606E2,7.99E1,4E0,3E0,-1.4360547E-2,7.3674537E-4,-1.1812758E-2,1.1051993E-2,-3.295032E-2,4.0316065E-3,1.9502534E-3,1.7307473E-2],"split_indices":[2,5,15,2,4,17,19,0,0,0,0,0,0,0,0],"split_type":[0,0,0,0,0,0,0,0,0,0,0,0,0,0,0],"sum_hessian":[1.02172015E3,6.533529E2,3.6836728E2,4.985194E2,1.5483345E2,3.0261636E2,6.575091E1,4.2955673E1,4.5556375E2,1.3939775E2,1.54356985E1,6.109366E0,2.9650702E2,1.5490606E1,5.02603E1],"tree_param":{"num_deleted":"0","num_feature":"31","num_nodes":"15","size_leaf_vector":"1"}},{"base_weights":[7.3449165E-3,-2.3303244E-1,9.282468E-2,-1.8147087E-1,-7.4247646E-1,5.2090168E-2,4.703328E-1,-3.620826E-3,-1.8983854E-2,-3.4573603E-2,-9.871959E-3,-1.1311759E-2,2.2957409E-3,3.697519E-3,1.905507E-2],"categories":[],"categories_nodes":[],"categories_segments":[],"categories_sizes":[],"default_left":[0,0,1,0,0,0,0,0,0,0,0,0,0,0,0],"id":69,"left_children":[1,3,5,7,9,11,13,-1,-1,-1,-1,-1,-1,-1,-1],"loss_changes":[2.0897245E1,6.873438E0,1.1511408E1,6.6055794E0,3.7220116E0,7.140884E0,4.0946465E0,0E0,0E0,0E0,0E0,0E0,0E0,0E0,0E0],"parents":[2147483647,0,0,1,1,2,2,3,3,4,4,5,5,6,6],"right_children":[2,4,6,8,10,12,14,-1,-1,-1,-1,-1,-1,-1,-1],"split_conditions":[5.532056E-1,1.3166667E1,1.38E1,1.1E1,6.96E1,6.08E1,1E-1,-3.620826E-3,-1.8983854E-2,-3.4573603E-2,-9.871959E-3,-1.1311759E-2,2.2957409E-3,3.697519E-3,1.905507E-2],"split_indices":[3,9,15,14,4,8,11,0,0,0,0,0,0,0,0],"split_type":[0,0,0,0,0,0,0,0,0,0,0,0,0,0,0],"sum_hessian":[1.0149736E3,2.6579794E2,7.491756E2,2.4260025E2,2.31977E1,6.7723724E2,7.19384E1,2.149252E2,2.7675047E1,1.0749664E1,1.2448036E1,3.570534E1,6.4153186E2,2.3726715E1,4.8211685E1],"tree_param":{"num_deleted":"0","num_feature":"31","num_nodes":"15","size_leaf_vector":"1"}},{"base_weights":[5.31666E-3,-1.5440641E-1,1.1519847E-1,3.7951022E-1,-1.8764538E-1,6.857869E-2,4.616102E-1,-6.199204E-3,2.8164309E-2,-2.795887E-2,-4.7324174E-3,1.4889814E-3,1.9072065E-2,6.889449E-3,2.023412E-2],"categories":[],"categories_nodes":[],"categories_segments":[],"categories_sizes":[],"default_left":[0,0,0,0,0,1,0,0,0,0,0,0,0,0,0],"id":70,"left_children":[1,3,5,7,9,11,13,-1,-1,-1,-1,-1,-1,-1,-1],"loss_changes":[1.7887753E1,7.4433956E0,9.719254E0,8.283772E0,8.570459E0,5.6993766E0,3.3726912E0,0E0,0E0,0E0,0E0,0E0,0E0,0E0,0E0],"parents":[2147483647,0,0,1,1,2,2,3,3,4,4,5,5,6,6],"right_children":[2,4,6,8,10,12,14,-1,-1,-1,-1,-1,-1,-1,-1],"split_conditions":[-2.5E0,3E0,8.478323E1,-9.9E0,4E0,8.4875E1,7.25E1,-6.199204E-3,2.8164309E-2,-2.795887E-2,-4.7324174E-3,1.4889814E-3,1.9072065E-2,6.889449E-3,2.023412E-2],"split_indices":[15,17,2,6,17,8,8,0,0,0,0,0,0,0,0],"split_type":[0,0,0,0,0,0,0,0,0,0,0,0,0,0,0],"sum_hessian":[1.0171933E3,4.1440836E2,6.02785E2,2.3676443E1,3.907319E2,5.3234094E2,7.0444E1,1.1868603E1,1.180784E1,1.3923884E1,3.76808E2,5.161852E2,1.6155748E1,3.4704308E1,3.5739697E1],"tree_param":{"num_deleted":"0","num_feature":"31","num_nodes":"15","size_leaf_vector":"1"}},{"base_weights":[9.429054E-3,-4.4783942E-2,2.9323316E-1,-5.451699E-1,-1.4784984E-2,5.812576E-1,1.7829947E-1,-2.0220274E-2,1.1847195E-2,-4.909563E-3,9.136619E-4,2.113786E-2,-5.074663E-3,2.9881552E-4,1.1991903E-2],"categories":[],"categories_nodes":[],"categories_segments":[],"categories_sizes":[],"default_left":[0,0,0,0,0,0,1,0,0,0,0,0,0,0,0],"id":71,"left_children":[1,3,5,7,9,11,13,-1,-1,-1,-1,-1,-1,-1,-1],"loss_changes":[1.56869755E1,1.2844363E1,5.309472E0,6.1282263E0,5.452079E0,4.3949556E0,4.4065313E0,0E0,0E0,0E0,0E0,0E0,0E0,0E0,0E0],"parents":[2147483647,0,0,1,1,2,2,3,3,4,4,5,5,6,6],"right_children":[2,4,6,8,10,12,14,-1,-1,-1,-1,-1,-1,-1,-1],"split_conditions":[1.01E1,-1.6325E1,6.375E1,-8.012064E0,-4.283634E1,1.5133275E3,7.44E1,-2.0220274E-2,1.1847195E-2,-4.909563E-3,9.136619E-4,2.113786E-2,-5.074663E-3,2.9881552E-4,1.1991903E-2],"split_indices":[15,15,7,2,2,1,8,0,0,0,0,0,0,0,0],"split_type":[0,0,0,0,0,0,0,0,0,0,0,0,0,0,0],"sum_hessian":[1.01771674E3,8.5519696E2,1.6251976E2,4.7399254E1,8.077977E2,4.5197426E1,1.17322334E2,4.193501E1,5.464243E0,1.8766234E2,6.201354E2,3.8869843E1,6.3275824E0,6.724524E1,5.007709E1],"tree_param":{"num_deleted":"0","num_feature":"31","num_nodes":"15","size_leaf_vector":"1"}},{"base_weights":[1.107879E-2,-1.08642586E-1,1.2222643E-1,2.3855877E-1,-1.4769514E-1,-4.562329E-1,1.7187586E-1,1.20714875E-2,-2.049424E-2,-1.754329E-2,-3.1487038E-3,-1.9200524E-2,4.462091E-3,-4.7683557E-3,6.286617E-3],"categories":[],"categories_nodes":[],"categories_segments":[],"categories_sizes":[],"default_left":[0,0,0,0,1,1,0,0,0,0,0,0,0,0,0],"id":72,"left_children":[1,3,5,7,9,11,13,-1,-1,-1,-1,-1,-1,-1,-1],"loss_changes":[1.3579869E1,6.69766E0,1.5276128E1,7.83408E0,8.200842E0,4.7762604E0,6.1168623E0,0E0,0E0,0E0,0E0,0E0,0E0,0E0,0E0],"parents":[2147483647,0,0,1,1,2,2,3,3,4,4,5,5,6,6],"right_children":[2,4,6,8,10,12,14,-1,-1,-1,-1,-1,-1,-1,-1],"split_conditions":[-2.5E-1,1.4285715E-1,6.08E1,5E-1,2.2222222E-1,1.5E0,-8.1E0,1.20714875E-2,-2.049424E-2,-1.754329E-2,-3.1487038E-3,-1.9200524E-2,4.462091E-3,-4.7683557E-3,6.286617E-3],"split_indices":[13,11,8,10,11,15,6,0,0,0,0,0,0,0,0],"split_type":[0,0,0,0,0,0,0,0,0,0,0,0,0,0,0],"sum_hessian":[1.018527E3,4.9036194E2,5.2816504E2,4.906198E1,4.4129996E2,4.1101974E1,4.8706308E2,4.2136093E1,6.9258885E0,3.8177673E1,4.0312228E2,3.148052E1,9.621452E0,4.9471806E1,4.3759128E2],"tree_param":{"num_deleted":"0","num_feature":"31","num_nodes":"15","size_leaf_vector":"1"}},{"base_weights":[5.8928584E-3,-1.1665759E-1,1.19660355E-1,-3.672037E-1,-5.1906165E-2,-4.7462925E-1,1.5471329E-1,-6.2875426E-3,-2.2922033E-2,2.0511318E-2,-2.5927671E-3,-2.9009098E-2,-3.2826532E-3,-1.0316403E-2,5.571254E-3],"categories":[],"categories_nodes":[],"categories_segments":[],"categories_sizes":[],"default_left":[0,0,0,0,0,0,0,0,0,0,0,0,0,0,0],"id":73,"left_children":[1,3,5,7,9,11,13,-1,-1,-1,-1,-1,-1,-1,-1],"loss_changes":[1.411021E1,7.885553E0,1.1005941E1,6.0888186E0,9.920295E0,5.19421E0,7.7341166E0,0E0,0E0,0E0,0E0,0E0,0E0,0E0,0E0],"parents":[2147483647,0,0,1,1,2,2,3,3,4,4,5,5,6,6],"right_children":[2,4,6,8,10,12,14,-1,-1,-1,-1,-1,-1,-1,-1],"split_conditions":[-1E-1,6.88E1,2E0,6.5E1,-1.65E1,-2.6785713E-1,6E1,-6.2875426E-3,-2.2922033E-2,2.0511318E-2,-2.5927671E-3,-2.9009098E-2,-3.2826532E-3,-1.0316403E-2,5.571254E-3],"split_indices":[13,7,18,4,14,15,8,0,0,0,0,0,0,0,0],"split_type":[0,0,0,0,0,0,0,0,0,0,0,0,0,0,0],"sum_hessian":[1.0100451E3,4.8624072E2,5.238044E2,9.88981E1,3.8734262E2,2.8476229E1,4.9532812E2,7.187875E1,2.7019344E1,1.6518696E1,3.7082394E2,1.142556E1,1.7050669E1,2.8399237E1,4.669289E2],"tree_param":{"num_deleted":"0","num_feature":"31","num_nodes":"15","size_leaf_vector":"1"}},{"base_weights":[5.3540943E-3,-1.870984E-1,7.355688E-2,-7.580347E-1,-1.503551E-1,4.0107127E-2,3.9157942E-1,-1.4754024E-2,-3.1647343E-2,-3.7367158E-3,-2.6000379E-2,4.831555E-4,1.5056254E-2,1.49851665E-2,2.0604804E-3],"categories":[],"categories_nodes":[],"categories_segments":[],"categories_sizes":[],"default_left":[0,0,1,0,0,0,0,0,0,0,0,0,0,0,0],"id":74,"left_children":[1,3,5,7,9,11,13,-1,-1,-1,-1,-1,-1,-1,-1],"loss_changes":[1.3346221E1,5.467473E0,7.9699E0,7.33161E-1,4.5345287E0,7.5325184E0,2.4514275E0,0E0,0E0,0E0,0E0,0E0,0E0,0E0,0E0],"parents":[2147483647,0,0,1,1,2,2,3,3,4,4,5,5,6,6],"right_children":[2,4,6,8,10,12,14,-1,-1,-1,-1,-1,-1,-1,-1],"split_conditions":[-3.288846E1,-1.4721152E2,1.38E1,1.4138063E3,7.410714E0,1.6032257E3,6.96E1,-1.4754024E-2,-3.1647343E-2,-3.7367158E-3,-2.6000379E-2,4.831555E-4,1.5056254E-2,1.49851665E-2,2.0604804E-3],"split_indices":[2,2,15,0,6,0,7,0,0,0,0,0,0,0,0],"split_type":[0,0,0,0,0,0,0,0,0,0,0,0,0,0,0],"sum_hessian":[1.0147448E3,2.650609E2,7.496839E2,1.4839925E1,2.5022098E2,6.7935516E2,7.032875E1,9.224308E0,5.6156163E0,2.4265579E2,7.5651927E0,6.467719E2,3.2583263E1,5.230065E1,1.8028103E1],"tree_param":{"num_deleted":"0","num_feature":"31","num_nodes":"15","size_leaf_vector":"1"}},{"base_weights":[1.9831467E-2,-1.482336E-2,4.664403E-1,-1.7729658E-1,5.327738E-2,7.09936E-1,1.6223095E-1,-3.950351E-3,-2.6645774E-2,-1.0219211E-2,2.325346E-3,2.3622997E-2,4.628214E-3,8.696732E-3,-1.206033E-2],"categories":[],"categories_nodes":[],"categories_segments":[],"categories_sizes":[],"default_left":[0,0,0,0,0,0,0,0,0,0,0,0,0,0,0],"id":75,"left_children":[1,3,5,7,9,11,13,-1,-1,-1,-1,-1,-1,-1,-1],"loss_changes":[1.5700757E1,1.0431738E1,5.295682E0,8.912795E0,6.3700285E0,1.612896E0,2.5491061E0,0E0,0E0,0E0,0E0,0E0,0E0,0E0,0E0],"parents":[2147483647,0,0,1,1,2,2,3,3,4,4,5,5,6,6],"right_children":[2,4,6,8,10,12,14,-1,-1,-1,-1,-1,-1,-1,-1],"split_conditions":[8.2982E1,-3.1329523E1,-3.8E0,7.65E1,6.08E1,8.08E1,2E0,-3.950351E-3,-2.6645774E-2,-1.0219211E-2,2.325346E-3,2.3622997E-2,4.628214E-3,8.696732E-3,-1.206033E-2],"split_indices":[2,2,9,4,8,8,22,0,0,0,0,0,0,0,0],"split_type":[0,0,0,0,0,0,0,0,0,0,0,0,0,0,0],"sum_hessian":[1.0130008E3,9.409538E2,7.204696E1,2.7744006E2,6.6351373E2,3.927594E1,3.2771015E1,2.6182407E2,1.5616022E1,3.769752E1,6.258162E2,3.41026E1,5.173341E0,2.7121082E1,5.649934E0],"tree_param":{"num_deleted":"0","num_feature":"31","num_nodes":"15","size_leaf_vector":"1"}},{"base_weights":[2.0082844E-2,-3.582446E-2,3.013949E-1,-4.4460845E-1,-9.604906E-3,-2.0664592E-1,3.7038687E-1,-9.708208E-3,-3.349465E-2,-4.7401134E-3,1.0982021E-3,6.023368E-3,-2.2762896E-2,1.8093305E-2,7.873265E-3],"categories":[],"categories_nodes":[],"categories_segments":[],"categories_sizes":[],"default_left":[0,1,0,1,0,0,0,0,0,0,0,0,0,0,0],"id":76,"left_children":[1,3,5,7,9,11,13,-1,-1,-1,-1,-1,-1,-1,-1],"loss_changes":[1.5894381E1,9.035285E0,5.9489965E0,3.7696867E0,5.447935E0,4.8028226E0,3.5563488E0,0E0,0E0,0E0,0E0,0E0,0E0,0E0,0E0],"parents":[2147483647,0,0,1,1,2,2,3,3,4,4,5,5,6,6],"right_children":[2,4,6,8,10,12,14,-1,-1,-1,-1,-1,-1,-1,-1],"split_conditions":[8.5E0,-1.6325E1,6.08E1,1.8333334E1,-4.283634E1,7.3166664E1,6.957143E1,-9.708208E-3,-3.349465E-2,-4.7401134E-3,1.0982021E-3,6.023368E-3,-2.2762896E-2,1.8093305E-2,7.873265E-3],"split_indices":[13,15,8,14,2,5,5,0,0,0,0,0,0,0,0],"split_type":[0,0,0,0,0,0,0,0,0,0,0,0,0,0,0],"sum_hessian":[1.0089306E3,8.4238885E2,1.6654173E2,4.981263E1,7.9257623E2,1.9673729E1,1.4686801E2,4.3466263E1,6.346367E0,1.8762839E2,6.049478E2,1.1686349E1,7.9873796E0,4.508335E1,1.0178466E2],"tree_param":{"num_deleted":"0","num_feature":"31","num_nodes":"15","size_leaf_vector":"1"}},{"base_weights":[-1.43837435E-2,-5.171004E-2,3.127212E-1,-2.153925E-1,4.9794214E-3,1.2462508E-1,5.0212693E-1,-1.5071531E-2,-4.2541455E-3,-1.5461291E-2,6.796328E-4,7.155029E-3,-1.6929535E-2,2.7482817E-2,1.0152276E-2],"categories":[],"categories_nodes":[],"categories_segments":[],"categories_sizes":[],"default_left":[0,0,0,0,0,0,0,0,0,0,0,0,0,0,0],"id":77,"left_children":[1,3,5,7,9,11,13,-1,-1,-1,-1,-1,-1,-1,-1],"loss_changes":[1.2324546E1,8.405079E0,3.6209803E0,4.849659E0,6.207774E0,4.308843E0,