{"learner":{"attributes":{},"feature_names":["elo_home","elo_away","elo_diff","elo_prob","pf_roll_home","pf_roll_away","pf_roll_diff","pa_roll_home","pa_roll_away","pa_roll_diff","win_roll_home","win_roll_away","win_roll_diff","margin_roll_home","margin_roll_away","margin_roll_diff","games_in_window_home","games_in_window_away","home_rest_days","away_rest_days","home_b2b","away_b2b","rest_diff","market_prob_home","market_prob_away","home_players_out","away_players_out","home_players_questionable","away_players_questionable","home_injury_severity","away_injury_severity"],"feature_types":["float","float","float","float","float","float","float","float","float","float","float","float","float","float","float","float","float","float","float","float","int","int","float","float","float","float","float","float","float","float","float"],"gradient_booster":{"model":{"cats":{"enc":[],"feature_segments":[],"sorted_idx":[]},"gbtree_model_param":{"num_parallel_tree":"1","num_trees":"800"},"iteration_indptr":[0,1,2,3,4,5,6,7,8,9,10,11,12,13,14,15,16,17,18,19,20,21,22,23,24,25,26,27,28,29,30,31,32,33,34,35,36,37,38,39,40,41,42,43,44,45,46,47,48,49,50,51,52,53,54,55,56,57,58,59,60,61,62,63,64,65,66,67,68,69,70,71,72,73,74,75,76,77,78,79,80,81,82,83,84,85,86,87,88,89,90,91,92,93,94,95,96,97,98,99,100,101,102,103,104,105,106,107,108,109,110,111,112,113,114,115,116,117,118,119,120,121,122,123,124,125,126,127,128,129,130,131,132,133,134,135,136,137,138,139,140,141,142,143,144,145,146,147,148,149,150,151,152,153,154,155,156,157,158,159,160,161,162,163,164,165,166,167,168,169,170,171,172,173,174,175,176,177,178,179,180,181,182,183,184,185,186,187,188,189,190,191,192,193,194,195,196,197,198,199,200,201,202,203,204,205,206,207,208,209,210,211,212,213,214,215,216,217,218,219,220,221,222,223,224,225,226,227,228,229,230,231,232,233,234,235,236,237,238,239,240,241,242,243,244,245,246,247,248,249,250,251,252,253,254,255,256,257,258,259,260,261,262,263,264,265,266,267,268,269,270,271,272,273,274,275,276,277,278,279,280,281,282,283,284,285,286,287,288,289,290,291,292,293,294,295,296,297,298,299,300,301,302,303,304,305,306,307,308,309,310,311,312,313,314,315,316,317,318,319,320,321,322,323,324,325,326,327,328,329,330,331,332,333,334,335,336,337,338,339,340,341,342,343,344,345,346,347,348,349,350,351,352,353,354,355,356,357,358,359,360,361,362,363,364,365,366,367,368,369,370,371,372,373,374,375,376,377,378,379,380,381,382,383,384,385,386,387,388,389,390,391,392,393,394,395,396,397,398,399,400,401,402,403,404,405,406,407,408,409,410,411,412,413,414,415,416,417,418,419,420,421,422,423,424,425,426,427,428,429,430,431,432,433,434,435,436,437,438,439,440,441,442,443,444,445,446,447,448,449,450,451,452,453,454,455,456,457,458,459,460,461,462,463,464,465,466,467,468,469,470,471,472,473,474,475,476,477,478,479,480,481,482,483,484,485,486,487,488,489,490,491,492,493,494,495,496,497,498,499,500,501,502,503,504,505,506,507,508,509,510,511,512,513,514,515,516,517,518,519,520,521,522,523,524,525,526,527,528,529,530,531,532,533,534,535,536,537,538,539,540,541,542,543,544,545,546,547,548,549,550,551,552,553,554,555,556,557,558,559,560,561,562,563,564,565,566,567,568,569,570,571,572,573,574,575,576,577,578,579,580,581,582,583,584,585,586,587,588,589,590,591,592,593,594,595,596,597,598,599,600,601,602,603,604,605,606,607,608,609,610,611,612,613,614,615,616,617,618,619,620,621,622,623,624,625,626,627,628,629,630,631,632,633,634,635,636,637,638,639,640,641,642,643,644,645,646,647,648,649,650,651,652,653,654,655,656,657,658,659,660,661,662,663,664,665,666,667,668,669,670,671,672,673,674,675,676,677,678,679,680,681,682,683,684,685,686,687,688,689,690,691,692,693,694,695,696,697,698,699,700,701,702,703,704,705,706,707,708,709,710,711,712,713,714,715,716,717,718,719,720,721,722,723,724,725,726,727,728,729,730,731,732,733,734,735,736,737,738,739,740,741,742,743,744,745,746,747,748,749,750,751,752,753,754,755,756,757,758,759,760,761,762,763,764,765,766,767,768,769,770,771,772,773,774,775,776,777,778,779,780,781,782,783,784,785,786,787,788,789,790,791,792,793,794,795,796,797,798,799,800],"tree_info":[0,0,0,0,0,0,0,0,0,0,0,0,0,0,0,0,0,0,0,0,0,0,0,0,0,0,0,0,0,0,0,0,0,0,0,0,0,0,0,0,0,0,0,0,0,0,0,0,0,0,0,0,0,0,0,0,0,0,0,0,0,0,0,0,0,0,0,0,0,0,0,0,0,0,0,0,0,0,0,0,0,0,0,0,0,0,0,0,0,0,0,0,0,0,0,0,0,0,0,0,0,0,0,0,0,0,0,0,0,0,0,0,0,0,0,0,0,0,0,0,0,0,0,0,0,0,0,0,0,0,0,0,0,0,0,0,0,0,0,0,0,0,0,0,0,0,0,0,0,0,0,0,0,0,0,0,0,0,0,0,0,0,0,0,0,0,0,0,0,0,0,0,0,0,0,0,0,0,0,0,0,0,0,0,0,0,0,0,0,0,0,0,0,0,0,0,0,0,0,0,0,0,0,0,0,0,0,0,0,0,0,0,0,0,0,0,0,0,0,0,0,0,0,0,0,0,0,0,0,0,0,0,0,0,0,0,0,0,0,0,0,0,0,0,0,0,0,0,0,0,0,0,0,0,0,0,0,0,0,0,0,0,0,0,0,0,0,0,0,0,0,0,0,0,0,0,0,0,0,0,0,0,0,0,0,0,0,0,0,0,0,0,0,0,0,0,0,0,0,0,0,0,0,0,0,0,0,0,0,0,0,0,0,0,0,0,0,0,0,0,0,0,0,0,0,0,0,0,0,0,0,0,0,0,0,0,0,0,0,0,0,0,0,0,0,0,0,0,0,0,0,0,0,0,0,0,0,0,0,0,0,0,0,0,0,0,0,0,0,0,0,0,0,0,0,0,0,0,0,0,0,0,0,0,0,0,0,0,0,0,0,0,0,0,0,0,0,0,0,0,0,0,0,0,0,0,0,0,0,0,0,0,0,0,0,0,0,0,0,0,0,0,0,0,0,0,0,0,0,0,0,0,0,0,0,0,0,0,0,0,0,0,0,0,0,0,0,0,0,0,0,0,0,0,0,0,0,0,0,0,0,0,0,0,0,0,0,0,0,0,0,0,0,0,0,0,0,0,0,0,0,0,0,0,0,0,0,0,0,0,0,0,0,0,0,0,0,0,0,0,0,0,0,0,0,0,0,0,0,0,0,0,0,0,0,0,0,0,0,0,0,0,0,0,0,0,0,0,0,0,0,0,0,0,0,0,0,0,0,0,0,0,0,0,0,0,0,0,0,0,0,0,0,0,0,0,0,0,0,0,0,0,0,0,0,0,0,0,0,0,0,0,0,0,0,0,0,0,0,0,0,0,0,0,0,0,0,0,0,0,0,0,0,0,0,0,0,0,0,0,0,0,0,0,0,0,0,0,0,0,0,0,0,0,0,0,0,0,0,0,0,0,0,0,0,0,0,0,0,0,0,0,0,0,0,0,0,0,0,0,0,0,0,0,0,0,0,0,0,0,0,0,0,0,0,0,0,0,0,0,0,0,0,0,0,0,0,0,0,0,0,0,0,0,0,0,0,0,0,0,0,0,0,0,0,0,0,0,0,0,0,0,0,0,0,0,0,0,0,0,0,0,0,0,0,0,0,0,0,0,0,0,0,0,0,0,0,0,0,0,0,0,0,0,0,0,0,0,0,0,0,0,0,0,0,0,0,0,0,0,0,0,0,0,0,0,0,0,0,0,0,0,0,0,0,0,0,0,0,0,0,0,0,0,0,0,0,0,0,0,0,0,0,0,0,0,0,0,0,0,0,0,0,0,0,0,0,0,0,0,0,0,0,0,0,0,0,0,0,0],"trees":[{"base_weights":[2.5371579E-3,-4.9510017E-1,7.8668225E-1,-1.0644121E0,-1.6114894E-1,1.0018715E0,3.1204408E-1,-1.7984096E-2,-4.4372857E-2,6.742253E-4,-2.5406275E-2,5.1318896E-3,3.3504363E-2,2.1005824E-2,-1.400668E-2],"categories":[],"categories_nodes":[],"categories_segments":[],"categories_sizes":[],"default_left":[0,0,0,0,0,0,0,0,0,0,0,0,0,0,0],"id":0,"left_children":[1,3,5,7,9,11,13,-1,-1,-1,-1,-1,-1,-1,-1],"loss_changes":[6.4158936E1,1.8952393E1,6.206974E0,6.2490616E0,8.150261E0,3.9598198E0,6.786322E0,0E0,0E0,0E0,0E0,0E0,0E0,0E0,0E0],"parents":[2147483647,0,0,1,1,2,2,3,3,4,4,5,5,6,6],"right_children":[2,4,6,8,10,12,14,-1,-1,-1,-1,-1,-1,-1,-1],"split_conditions":[3.608039E1,-6.9629456E1,8.25E1,8.3875E1,8.63E1,-2.3E0,-2.4E0,-1.7984096E-2,-4.4372857E-2,6.742253E-4,-2.5406275E-2,5.1318896E-3,3.3504363E-2,2.1005824E-2,-1.400668E-2],"split_indices":[2,2,7,5,5,6,14,0,0,0,0,0,0,0,0],"split_type":[0,0,0,0,0,0,0,0,0,0,0,0,0,0,0],"sum_hessian":[1.6241928E2,9.9587364E1,6.283193E1,3.601039E1,6.357697E1,4.246743E1,2.0364498E1,1.812937E1,1.7881023E1,5.0911243E1,1.2665725E1,5.463646E0,3.7003784E1,1.3659115E1,6.7053833E0],"tree_param":{"num_deleted":"0","num_feature":"31","num_nodes":"15","size_leaf_vector":"1"}},{"base_weights":[-2.1910882E-2,-1.1167097E0,2.861477E-1,-1.3110816E0,-3.5107082E-3,-1.136977E-1,6.7806196E-1,-2.7322276E-2,-5.5873442E-2,-2.993434E-2,-1.907534E-4,1.3226469E-3,2.6341975E-2],"categories":[],"categories_nodes":[],"categories_segments":[],"categories_sizes":[],"default_left":[1,0,0,0,0,0,0,0,0,0,0,0,0],"id":1,"left_children":[1,3,5,7,-1,9,11,-1,-1,-1,-1,-1,-1],"loss_changes":[5.542632E1,6.858162E0,2.0183947E1,4.9506187E0,0E0,6.102261E0,8.195658E0,0E0,0E0,0E0,0E0,0E0,0E0],"parents":[2147483647,0,0,1,1,2,2,3,3,5,5,6,6],"right_children":[2,4,6,8,-1,10,12,-1,-1,-1,-1,-1,-1],"split_conditions":[-7.5E0,8.32E1,3.3109875E1,8.671429E1,-3.5107082E-3,7E0,3.142857E0,-2.7322276E-2,-5.5873442E-2,-2.993434E-2,-1.907534E-4,1.3226469E-3,2.6341975E-2],"split_indices":[15,4,2,5,0,17,15,0,0,0,0,0,0],"split_type":[0,0,0,0,0,0,0,0,0,0,0,0,0],"sum_hessian":[1.6239447E2,3.5084366E1,1.27310104E2,2.9112452E1,5.971914E0,6.3368805E1,6.3941303E1,1.8402473E1,1.0709977E1,5.96245E0,5.7406353E1,1.5627037E1,4.8314266E1],"tree_param":{"num_deleted":"0","num_feature":"31","num_nodes":"13","size_leaf_vector":"1"}},{"base_weights":[1.6798595E-2,-4.839096E-1,7.68174E-1,-1.2024752E0,-1.8372537E-1,1.0327035E-2,1.0089071E0,-8.72788E-3,-4.477215E-2,-2.8879097E-2,-1.8789363E-3,2.441477E-2,-1.7933453E-2,1.8917423E-2,3.835866E-2],"categories":[],"categories_nodes":[],"categories_segments":[],"categories_sizes":[],"default_left":[0,0,0,0,0,0,0,0,0,0,0,0,0,0,0],"id":2,"left_children":[1,3,5,7,9,11,13,-1,-1,-1,-1,-1,-1,-1,-1],"loss_changes":[6.1912735E1,2.1085316E1,1.1994247E1,7.2102394E0,6.622512E0,8.731058E0,4.288353E0,0E0,0E0,0E0,0E0,0E0,0E0,0E0,0E0],"parents":[2147483647,0,0,1,1,2,2,3,3,4,4,5,5,6,6],"right_children":[2,4,6,8,10,12,14,-1,-1,-1,-1,-1,-1,-1,-1],"split_conditions":[3.3109875E1,-8.3E0,3.142857E0,7.57E1,-1.0044472E2,7.89E1,9.181073E1,-8.72788E-3,-4.477215E-2,-2.8879097E-2,-1.8789363E-3,2.441477E-2,-1.7933453E-2,1.8917423E-2,3.835866E-2],"split_indices":[2,15,15,8,2,8,2,0,0,0,0,0,0,0,0],"split_type":[0,0,0,0,0,0,0,0,0,0,0,0,0,0,0],"sum_hessian":[1.6257727E2,9.777624E1,6.4801025E1,2.7925003E1,6.9851234E1,1.5873356E1,4.8927673E1,7.2220764E0,2.0702927E1,8.463321E0,6.1387917E1,6.692378E0,9.180977E0,2.1752962E1,2.7174711E1],"tree_param":{"num_deleted":"0","num_feature":"31","num_nodes":"15","size_leaf_vector":"1"}},{"base_weights":[-6.3845315E-3,-4.630603E-1,7.162032E-1,-1.0029372E0,-1.3712189E-1,5.0149202E-2,9.147494E-1,-4.8272807E-2,-2.362859E-2,9.04144E-3,-1.0632685E-2,2.7772447E-2,-1.9996371E-2,1.5309095E-2,3.588179E-2],"categories":[],"categories_nodes":[],"categories_segments":[],"categories_sizes":[],"default_left":[0,0,0,0,0,0,0,0,0,0,0,0,0,0,0],"id":3,"left_children":[1,3,5,7,9,11,13,-1,-1,-1,-1,-1,-1,-1,-1],"loss_changes":[5.5912704E1,1.8130285E1,8.631798E0,3.812683E0,6.385418E0,1.0737216E1,5.1344337E0,0E0,0E0,0E0,0E0,0E0,0E0,0E0,0E0],"parents":[2147483647,0,0,1,1,2,2,3,3,4,4,5,5,6,6],"right_children":[2,4,6,8,10,12,14,-1,-1,-1,-1,-1,-1,-1,-1],"split_conditions":[3.3109875E1,-6.9629456E1,3.142857E0,-1.45E1,1.467057E3,7.89E1,9.181073E1,-4.8272807E-2,-2.362859E-2,9.04144E-3,-1.0632685E-2,2.7772447E-2,-1.9996371E-2,1.5309095E-2,3.588179E-2],"split_indices":[2,2,15,15,0,8,2,0,0,0,0,0,0,0,0],"split_type":[0,0,0,0,0,0,0,0,0,0,0,0,0,0,0],"sum_hessian":[1.6743343E2,1.0281406E2,6.461937E1,3.79227E1,6.489136E1,1.5126789E1,4.9492577E1,8.243285E0,2.9679413E1,2.137357E1,4.351779E1,6.677309E0,8.44948E0,2.145716E1,2.8035418E1],"tree_param":{"num_deleted":"0","num_feature":"31","num_nodes":"15","size_leaf_vector":"1"}},{"base_weights":[-1.7239494E-2,-9.4657373E-1,2.6924717E-1,-5.490015E-1,-1.3356881E0,7.228672E-2,1.0098544E0,-2.484455E-2,4.8869834E-3,-4.6974994E-2,-1.8452028E-2,5.576221E-3,-2.2484884E-2,3.7368007E-2,9.710496E-3],"categories":[],"categories_nodes":[],"categories_segments":[],"categories_sizes":[],"default_left":[0,0,0,0,0,0,0,0,0,0,0,0,0,0,0],"id":4,"left_children":[1,3,5,7,9,11,13,-1,-1,-1,-1,-1,-1,-1,-1],"loss_changes":[4.4020924E1,5.2932053E0,1.8369213E1,4.3014884E0,2.1862526E0,9.562051E0,3.8806915E0,0E0,0E0,0E0,0E0,0E0,0E0,0E0,0E0],"parents":[2147483647,0,0,1,1,2,2,3,3,4,4,5,5,6,6],"right_children":[2,4,6,8,10,12,14,-1,-1,-1,-1,-1,-1,-1,-1],"split_conditions":[5.005333E-1,8.5E1,7.270725E-1,5E0,0E0,8.8E1,-1E0,-2.484455E-2,4.8869834E-3,-4.6974994E-2,-1.8452028E-2,5.576221E-3,-2.2484884E-2,3.7368007E-2,9.710496E-3],"split_indices":[3,5,3,14,13,5,14,0,0,0,0,0,0,0,0],"split_type":[0,0,0,0,0,0,0,0,0,0,0,0,0,0,0],"sum_hessian":[1.6338458E2,3.7955772E1,1.2542882E2,1.9966341E1,1.798943E1,9.994626E1,2.548256E1,1.4225106E1,5.741235E0,1.2745876E1,5.2435536E0,8.848906E1,1.1457194E1,1.8359537E1,7.1230226E0],"tree_param":{"num_deleted":"0","num_feature":"31","num_nodes":"15","size_leaf_vector":"1"}},{"base_weights":[-3.9687984E-2,-4.6378165E-1,6.307807E-1,-2.1771076E-1,-1.0727676E0,-1.3781154E-1,8.3803743E-1,1.6741807E-2,-1.092945E-2,-4.3625955E-2,-1.5588666E-2,2.0967172E-2,-2.4879703E-2,1.4796453E-2,3.298973E-2],"categories":[],"categories_nodes":[],"categories_segments":[],"categories_sizes":[],"default_left":[0,0,0,1,1,0,0,0,0,0,0,0,0,0,0],"id":5,"left_children":[1,3,5,7,9,11,13,-1,-1,-1,-1,-1,-1,-1,-1],"loss_changes":[4.7543083E1,1.5106392E1,1.0439327E1,8.637797E0,5.4061546E0,9.040686E0,4.0752335E0,0E0,0E0,0E0,0E0,0E0,0E0,0E0,0E0],"parents":[2147483647,0,0,1,1,2,2,3,3,4,4,5,5,6,6],"right_children":[2,4,6,8,10,12,14,-1,-1,-1,-1,-1,-1,-1,-1],"split_conditions":[3.3109875E1,8.63E1,2.8E0,-4.6E0,-2E-1,7.89E1,9.181073E1,1.6741807E-2,-1.092945E-2,-4.3625955E-2,-1.5588666E-2,2.0967172E-2,-2.4879703E-2,1.4796453E-2,3.298973E-2],"split_indices":[2,5,15,9,13,8,2,0,0,0,0,0,0,0,0],"split_type":[0,0,0,0,0,0,0,0,0,0,0,0,0,0,0],"sum_hessian":[1.6517531E2,1.01366135E2,6.380917E1,7.3161514E1,2.8204626E1,1.3623343E1,5.018583E1,1.1182362E1,6.197915E1,1.5729274E1,1.2475352E1,6.1596193E0,7.4637237E0,2.2894934E1,2.7290895E1],"tree_param":{"num_deleted":"0","num_feature":"31","num_nodes":"15","size_leaf_vector":"1"}},{"base_weights":[2.46246E-5,-4.038253E-1,6.447172E-1,-9.569468E-1,-1.5617524E-1,9.074329E-3,8.425627E-1,-3.4486085E-2,-2.2021395E-3,1.0485662E-2,-1.2963114E-2,2.354304E-2,-1.9132914E-2,2.8221194E-2,5.3531257E-6],"categories":[],"categories_nodes":[],"categories_segments":[],"categories_sizes":[],"default_left":[0,0,0,0,0,0,0,0,0,0,0,0,0,0,0],"id":6,"left_children":[1,3,5,7,9,11,13,-1,-1,-1,-1,-1,-1,-1,-1],"loss_changes":[4.3674404E1,1.3978529E1,8.117435E0,5.310068E0,1.0258556E1,8.702566E0,4.072502E0,0E0,0E0,0E0,0E0,0E0,0E0,0E0,0E0],"parents":[2147483647,0,0,1,1,2,2,3,3,4,4,5,5,6,6],"right_children":[2,4,6,8,10,12,14,-1,-1,-1,-1,-1,-1,-1,-1],"split_conditions":[3.3109875E1,-8.2E0,3.142857E0,8.11E1,-2.7E0,7.89E1,7E0,-3.4486085E-2,-2.2021395E-3,1.0485662E-2,-1.2963114E-2,2.354304E-2,-1.9132914E-2,2.8221194E-2,5.3531257E-6],"split_indices":[2,15,15,4,13,8,19,0,0,0,0,0,0,0,0],"split_type":[0,0,0,0,0,0,0,0,0,0,0,0,0,0,0],"sum_hessian":[1.6574686E2,1.0213857E2,6.3608284E1,3.070205E1,7.143652E1,1.5346983E1,4.82613E1,2.4960293E1,5.7417564E0,2.5124275E1,4.631225E1,6.8814516E0,8.465531E0,4.312071E1,5.140592E0],"tree_param":{"num_deleted":"0","num_feature":"31","num_nodes":"15","size_leaf_vector":"1"}},{"base_weights":[3.8525276E-2,-5.325725E-1,4.749792E-1,-1.9549447E-1,-1.0380733E0,2.2675753E-1,8.949302E-1,-1.423303E-2,1.356752E-2,-3.6766194E-2,-6.2554497E-3,9.985292E-3,-2.1436473E-2,1.307338E-2,3.524336E-2],"categories":[],"categories_nodes":[],"categories_segments":[],"categories_sizes":[],"default_left":[0,0,1,0,0,0,0,0,0,0,0,0,0,0,0],"id":7,"left_children":[1,3,5,7,9,11,13,-1,-1,-1,-1,-1,-1,-1,-1],"loss_changes":[4.1570698E1,1.2112585E1,9.64637E0,8.271944E0,4.205044E0,6.3017154E0,3.9546566E0,0E0,0E0,0E0,0E0,0E0,0E0,0E0,0E0],"parents":[2147483647,0,0,1,1,2,2,3,3,4,4,5,5,6,6],"right_children":[2,4,6,8,10,12,14,-1,-1,-1,-1,-1,-1,-1,-1],"split_conditions":[5.838239E-1,8.51E1,3E-1,8.23E1,1.5351595E3,8.8E1,7.1737087E-1,-1.423303E-2,1.356752E-2,-3.6766194E-2,-6.2554497E-3,9.985292E-3,-2.1436473E-2,1.307338E-2,3.524336E-2],"split_indices":[3,5,12,8,0,5,3,0,0,0,0,0,0,0,0],"split_type":[0,0,0,0,0,0,0,0,0,0,0,0,0,0,0],"sum_hessian":[1.6476303E2,7.1277084E1,9.348594E1,4.3594284E1,2.7682804E1,5.972442E1,3.376152E1,3.0659065E1,1.2935217E1,2.2190725E1,5.492079E0,5.4256138E1,5.4682817E0,1.3753381E1,2.000814E1],"tree_param":{"num_deleted":"0","num_feature":"31","num_nodes":"15","size_leaf_vector":"1"}},{"base_weights":[1.7191574E-2,-9.008629E-1,2.8620803E-1,-5.137114E-1,-1.2929813E0,-4.5288198E-2,6.0716563E-1,-3.7069235E-2,-2.7062497E-3,-4.6657182E-2,-1.8808989E-2,5.519048E-3,-1.2483609E-2,-7.4225655E-3,2.127019E-2],"categories":[],"categories_nodes":[],"categories_segments":[],"categories_sizes":[],"default_left":[0,0,0,0,0,0,0,0,0,0,0,0,0,0,0],"id":8,"left_children":[1,3,5,7,9,11,13,-1,-1,-1,-1,-1,-1,-1,-1],"loss_changes":[4.076447E1,5.014984E0,1.3603988E1,6.15115E0,2.1561203E0,5.492186E0,5.8238926E0,0E0,0E0,0E0,0E0,0E0,0E0,0E0,0E0],"parents":[2147483647,0,0,1,1,2,2,3,3,4,4,5,5,6,6],"right_children":[2,4,6,8,10,12,14,-1,-1,-1,-1,-1,-1,-1,-1],"split_conditions":[-6.9629456E1,8.5E1,3.3109875E1,7.96E1,1.4803141E3,8.342857E1,-2.7E0,-3.7069235E-2,-2.7062497E-3,-4.6657182E-2,-1.8808989E-2,5.519048E-3,-1.2483609E-2,-7.4225655E-3,2.127019E-2],"split_indices":[2,5,2,5,0,7,6,0,0,0,0,0,0,0,0],"split_type":[0,0,0,0,0,0,0,0,0,0,0,0,0,0,0],"sum_hessian":[1.6301321E2,3.641012E1,1.26603096E2,1.9483501E1,1.6926617E1,6.2701595E1,6.39015E1,6.4946485E0,1.29888525E1,1.118653E1,5.740087E0,3.9058617E1,2.3642979E1,6.6520534E0,5.7249447E1],"tree_param":{"num_deleted":"0","num_feature":"31","num_nodes":"15","size_leaf_vector":"1"}},{"base_weights":[-9.784872E-3,-7.4052274E-1,2.657853E-1,-4.0914956E-1,-1.0511788E0,-6.917134E-2,5.986375E-1,-1.9674964E-2,1.098177E-2,-3.924412E-2,-1.5677618E-2,2.531321E-2,-6.13747E-3,-1.6894708E-3,2.2931507E-2],"categories":[],"categories_nodes":[],"categories_segments":[],"categories_sizes":[],"default_left":[0,0,0,0,0,0,0,0,0,0,0,0,0,0,0],"id":9,"left_children":[1,3,5,7,9,11,13,-1,-1,-1,-1,-1,-1,-1,-1],"loss_changes":[3.2786255E1,4.1593723E0,1.3225938E1,4.6783876E0,2.3552608E0,7.5699964E0,6.493231E0,0E0,0E0,0E0,0E0,0E0,0E0,0E0,0E0],"parents":[2147483647,0,0,1,1,2,2,3,3,4,4,5,5,6,6],"right_children":[2,4,6,8,10,12,14,-1,-1,-1,-1,-1,-1,-1,-1],"split_conditions":[-5.4147755E1,8.3875E1,3.2E0,4.9E0,1.4803141E3,7.51E1,3.210251E1,-1.9674964E-2,1.098177E-2,-3.924412E-2,-1.5677618E-2,2.531321E-2,-6.13747E-3,-1.6894708E-3,2.2931507E-2],"split_indices":[2,5,15,14,0,8,2,0,0,0,0,0,0,0,0],"split_type":[0,0,0,0,0,0,0,0,0,0,0,0,0,0,0],"sum_hessian":[1.6083891E2,4.358253E1,1.1725638E2,2.2209242E1,2.1373291E1,5.883828E1,5.8418095E1,1.6964792E1,5.2444506E0,1.3389591E1,7.983699E0,6.924163E0,5.1914116E1,1.1931286E1,4.648681E1],"tree_param":{"num_deleted":"0","num_feature":"31","num_nodes":"15","size_leaf_vector":"1"}},{"base_weights":[-5.1527782E-3,-3.6686993E-1,5.676332E-1,-8.0598056E-1,-1.0323173E-1,4.128598E-1,1.1867799E0,-3.6873493E-2,-1.7984062E-2,9.703461E-4,-2.3868944E-2,7.907188E-4,1.6923277E-2,2.273485E-2,4.1899897E-2],"categories":[],"categories_nodes":[],"categories_segments":[],"categories_sizes":[],"default_left":[0,0,0,0,1,0,0,0,0,0,0,0,0,0,0],"id":10,"left_children":[1,3,5,7,9,11,13,-1,-1,-1,-1,-1,-1,-1,-1],"loss_changes":[3.465882E1,1.1785671E1,5.715206E0,2.6112823E0,6.147111E0,3.103138E0,5.9412003E-2,0E0,0E0,0E0,0E0,0E0,0E0,0E0,0E0],"parents":[2147483647,0,0,1,1,2,2,3,3,4,4,5,5,6,6],"right_children":[2,4,6,8,10,12,14,-1,-1,-1,-1,-1,-1,-1,-1],"split_conditions":[3.3109875E1,-6.9629456E1,1.29E1,-8.3E0,6.9E0,3.142857E0,1.25919304E2,-3.6873493E-2,-1.7984062E-2,9.703461E-4,-2.3868944E-2,7.907188E-4,1.6923277E-2,2.273485E-2,4.1899897E-2],"split_indices":[2,2,15,6,9,15,2,0,0,0,0,0,0,0,0],"split_type":[0,0,0,0,0,0,0,0,0,0,0,0,0,0,0],"sum_hessian":[1.6527806E2,1.015244E2,6.375366E1,3.731542E1,6.4208984E1,5.233728E1,1.1416378E1,1.0614617E1,2.6700802E1,5.4492302E1,9.716679E0,1.5050793E1,3.7286488E1,5.265554E0,6.1508245E0],"tree_param":{"num_deleted":"0","num_feature":"31","num_nodes":"15","size_leaf_vector":"1"}},{"base_weights":[-5.2058185E-3,-5.3995085E-1,4.012109E-1,-1.1338725E0,-3.330001E-1,2.589246E-1,9.8612577E-1,-4.3164957E-2,-1.8113578E-2,-2.1347713E-3,-2.2485724E-2,1.0408517E-2,-2.3519013E-2,3.7703663E-2,8.507488E-3],"categories":[],"categories_nodes":[],"categories_segments":[],"categories_sizes":[],"default_left":[0,0,0,0,0,0,0,0,0,0,0,0,0,0,0],"id":11,"left_children":[1,3,5,7,9,11,13,-1,-1,-1,-1,-1,-1,-1,-1],"loss_changes":[3.5545425E1,8.302895E0,7.479271E0,2.0141582E0,5.8131094E0,7.2587976E0,3.0336323E0,0E0,0E0,0E0,0E0,0E0,0E0,0E0,0E0],"parents":[2147483647,0,0,1,1,2,2,3,3,4,4,5,5,6,6],"right_children":[2,4,6,8,10,12,14,-1,-1,-1,-1,-1,-1,-1,-1],"split_conditions":[5.838239E-1,4.0209126E-1,7.632051E-1,-5.7E0,8.51E1,8.8E1,8.09E1,-4.3164957E-2,-1.8113578E-2,-2.1347713E-3,-2.2485724E-2,1.0408517E-2,-2.3519013E-2,3.7703663E-2,8.507488E-3],"split_indices":[3,3,3,6,5,5,7,0,0,0,0,0,0,0,0],"split_type":[0,0,0,0,0,0,0,0,0,0,0,0,0,0,0],"sum_hessian":[1.6155879E2,6.962317E1,9.193563E1,1.68337E1,5.2789467E1,7.5107635E1,1.6828E1,9.597763E0,7.2359366E0,3.3132256E1,1.9657211E1,6.987694E1,5.2306914E0,1.1578376E1,5.249623E0],"tree_param":{"num_deleted":"0","num_feature":"31","num_nodes":"15","size_leaf_vector":"1"}},{"base_weights":[-3.6902964E-2,-4.5043218E-1,4.4573775E-1,-2.0789108E-1,-1.0312352E0,2.324807E-1,8.5955554E-1,-1.646788E-2,5.285108E-3,-3.8302846E-2,-1.6385691E-2,3.0603707E-3,3.5177417E-2,3.6109723E-2,8.872808E-3],"categories":[],"categories_nodes":[],"categories_segments":[],"categories_sizes":[],"default_left":[0,0,0,0,0,0,0,0,0,0,0,0,0,0,0],"id":12,"left_children":[1,3,5,7,9,11,13,-1,-1,-1,-1,-1,-1,-1,-1],"loss_changes":[3.2716293E1,1.2215393E1,6.478732E0,8.413435E0,2.3680973E0,6.173977E0,4.5650997E0,0E0,0E0,0E0,0E0,0E0,0E0,0E0,0E0],"parents":[2147483647,0,0,1,1,2,2,3,3,4,4,5,5,6,6],"right_children":[2,4,6,8,10,12,14,-1,-1,-1,-1,-1,-1,-1,-1],"split_conditions":[1.0622839E1,8.671429E1,6.8E0,8.12E1,1.6094249E3,2.6E0,8.33E1,-1.646788E-2,5.285108E-3,-3.8302846E-2,-1.6385691E-2,3.0603707E-3,3.5177417E-2,3.6109723E-2,8.872808E-3],"split_indices":[2,5,13,5,1,14,5,0,0,0,0,0,0,0,0],"split_type":[0,0,0,0,0,0,0,0,0,0,0,0,0,0,0],"sum_hessian":[1.6191481E2,8.723668E1,7.467813E1,6.249637E1,2.4740309E1,5.031208E1,2.4366055E1,3.2874893E1,2.9621477E1,1.5342033E1,9.398275E0,4.5154053E1,5.158028E0,1.4426306E1,9.939749E0],"tree_param":{"num_deleted":"0","num_feature":"31","num_nodes":"15","size_leaf_vector":"1"}},{"base_weights":[8.223911E-3,-5.410908E-1,4.0033197E-1,-1.8655147E-1,-1.0391222E0,7.345559E-1,1.1873606E-1,1.6122459E-2,-1.3697792E-2,-4.2109832E-2,-2.2935247E-2,3.2501582E-2,8.3880555E-3,1.0794029E-2,-2.1294022E-2],"categories":[],"categories_nodes":[],"categories_segments":[],"categories_sizes":[],"default_left":[0,0,0,0,0,0,0,0,0,0,0,0,0,0,0],"id":13,"left_children":[1,3,5,7,9,11,13,-1,-1,-1,-1,-1,-1,-1,-1],"loss_changes":[3.5555073E1,1.1947222E1,8.976797E0,8.336224E0,1.7674274E0,6.6554203E0,1.093329E1,0E0,0E0,0E0,0E0,0E0,0E0,0E0,0E0],"parents":[2147483647,0,0,1,1,2,2,3,3,4,4,5,5,6,6],"right_children":[2,4,6,8,10,12,14,-1,-1,-1,-1,-1,-1,-1,-1],"split_conditions":[-1.6024405E1,8.51E1,1.465135E3,6E-1,1.4591174E3,7.83E1,8.34E1,1.6122459E-2,-1.3697792E-2,-4.2109832E-2,-2.2935247E-2,3.2501582E-2,8.3880555E-3,1.0794029E-2,-2.1294022E-2],"split_indices":[2,5,1,9,0,5,7,0,0,0,0,0,0,0,0],"split_type":[0,0,0,0,0,0,0,0,0,0,0,0,0,0,0],"sum_hessian":[1.6306677E2,6.776E1,9.530676E1,4.0385143E1,2.737486E1,4.2845383E1,5.246138E1,1.070242E1,2.9682724E1,9.995215E0,1.7379644E1,2.3469294E1,1.9376087E1,4.1075962E1,1.1385417E1],"tree_param":{"num_deleted":"0","num_feature":"31","num_nodes":"15","size_leaf_vector":"1"}},{"base_weights":[1.0783141E-2,-2.9851475E-1,5.1381916E-1,-9.1433816E-2,-8.0145645E-1,-3.3003494E-2,6.84862E-1,-1.1917433E-2,9.064533E-3,-3.462841E-2,-1.0750874E-2,1.9279687E-2,-1.6522333E-2,2.3437278E-2,1.2040304E-3],"categories":[],"categories_nodes":[],"categories_segments":[],"categories_sizes":[],"default_left":[0,0,0,0,1,0,0,0,0,0,0,0,0,0,0],"id":14,"left_children":[1,3,5,7,9,11,13,-1,-1,-1,-1,-1,-1,-1,-1],"loss_changes":[2.5367477E1,1.0444363E1,5.8281097E0,8.865866E0,4.1707153E0,5.861253E0,2.909544E0,0E0,0E0,0E0,0E0,0E0,0E0,0E0,0E0],"parents":[2147483647,0,0,1,1,2,2,3,3,4,4,5,5,6,6],"right_children":[2,4,6,8,10,12,14,-1,-1,-1,-1,-1,-1,-1,-1],"split_conditions":[3.3109875E1,8.62E1,3.142857E0,8.13E1,-5E-1,7.89E1,6E0,-1.1917433E-2,9.064533E-3,-3.462841E-2,-1.0750874E-2,1.9279687E-2,-1.6522333E-2,2.3437278E-2,1.2040304E-3],"split_indices":[2,5,15,5,13,8,18,0,0,0,0,0,0,0,0],"split_type":[0,0,0,0,0,0,0,0,0,0,0,0,0,0,0],"sum_hessian":[1.6105684E2,9.998587E1,6.1070972E1,7.166171E1,2.8324156E1,1.4743424E1,4.632755E1,4.032221E1,3.1339502E1,1.4874747E1,1.3449409E1,6.291566E0,8.4518585E0,4.011848E1,6.209067E0],"tree_param":{"num_deleted":"0","num_feature":"31","num_nodes":"15","size_leaf_vector":"1"}},{"base_weights":[-1.0592378E-2,-3.5266468E-1,5.490005E-1,-7.693103E-1,-8.861069E-2,7.394682E-1,4.1603398E-2,-1.2883306E-2,-3.3528842E-2,-1.0563925E-2,1.0842406E-2,2.9768208E-2,1.1905536E-2,-1.5407318E-2,1.6549293E-2],"categories":[],"categories_nodes":[],"categories_segments":[],"categories_sizes":[],"default_left":[0,0,0,0,1,0,0,0,0,0,0,0,0,0,0],"id":15,"left_children":[1,3,5,7,9,11,13,-1,-1,-1,-1,-1,-1,-1,-1],"loss_changes":[3.166156E1,1.1223258E1,6.0343E0,4.217779E0,7.711192E0,3.5532455E0,5.4334993E0,0E0,0E0,0E0,0E0,0E0,0E0,0E0,0E0],"parents":[2147483647,0,0,1,1,2,2,3,3,4,4,5,5,6,6],"right_children":[2,4,6,8,10,12,14,-1,-1,-1,-1,-1,-1,-1,-1],"split_conditions":[3.3109875E1,-6.9629456E1,8.275E1,8.5E1,8.31E1,8.06E1,8.49E1,-1.2883306E-2,-3.3528842E-2,-1.0563925E-2,1.0842406E-2,2.9768208E-2,1.1905536E-2,-1.5407318E-2,1.6549293E-2],"split_indices":[2,2,7,5,8,5,7,0,0,0,0,0,0,0,0],"split_type":[0,0,0,0,0,0,0,0,0,0,0,0,0,0,0],"sum_hessian":[1.6339111E2,1.01633545E2,6.175756E1,3.8682976E1,6.295057E1,4.4569572E1,1.718799E1,2.0709167E1,1.7973806E1,3.9839394E1,2.3111176E1,2.4555067E1,2.0014505E1,8.226485E0,8.961504E0],"tree_param":{"num_deleted":"0","num_feature":"31","num_nodes":"15","size_leaf_vector":"1"}},{"base_weights":[5.1228642E-2,-2.4237186E-1,5.3728724E-1,-9.386936E-1,-1.01513006E-1,3.560593E-1,3.749902E-2,-3.5980437E-2,-1.5153465E-2,-1.1040918E-2,3.4721685E-3,1.7362505E-2,-1.4085557E-3],"categories":[],"categories_nodes":[],"categories_segments":[],"categories_sizes":[],"default_left":[0,0,0,0,1,0,0,0,0,0,0,0,0],"id":16,"left_children":[1,3,5,7,9,11,-1,-1,-1,-1,-1,-1,-1],"loss_changes":[2.2716068E1,9.649929E0,7.29282E0,1.2697611E0,4.8924727E0,4.4393735E0,0E0,0E0,0E0,0E0,0E0,0E0,0E0],"parents":[2147483647,0,0,1,1,2,2,3,3,4,4,5,5],"right_children":[2,4,6,8,10,12,-1,-1,-1,-1,-1,-1,-1],"split_conditions":[3.608039E1,-1.4132948E2,1.29E1,-5.7E0,8.13E1,8.275E1,3.749902E-2,-3.5980437E-2,-1.5153465E-2,-1.1040918E-2,3.4721685E-3,1.7362505E-2,-1.4085557E-3],"split_indices":[2,2,15,6,5,7,0,0,0,0,0,0,0],"split_type":[0,0,0,0,0,0,0,0,0,0,0,0,0],"sum_hessian":[1.572672E2,9.835678E1,5.8910416E1,1.5595905E1,8.276088E1,4.8162697E1,1.0747719E1,8.637269E0,6.958636E0,3.6854706E1,4.5906174E1,3.0740454E1,1.7422243E1],"tree_param":{"num_deleted":"0","num_feature":"31","num_nodes":"13","size_leaf_vector":"1"}},{"base_weights":[-4.6462573E-2,-7.284694E-1,2.111986E-1,-1.1882424E0,-4.6147463E-1,8.784968E-2,9.060787E-1,-1.8258838E-2,-4.2673003E-2,4.9806326E-3,-1.9355128E-2,5.354419E-3,-2.0581104E-2,3.5154212E-2,6.7784344E-3],"categories":[],"categories_nodes":[],"categories_segments":[],"categories_sizes":[],"default_left":[0,0,0,0,0,0,0,0,0,0,0,0,0,0,0],"id":17,"left_children":[1,3,5,7,9,11,13,-1,-1,-1,-1,-1,-1,-1,-1],"loss_changes":[2.8245598E1,4.860235E0,9.931754E0,1.2451935E0,3.5084624E0,7.157343E0,2.8981075E0,0E0,0E0,0E0,0E0,0E0,0E0,0E0,0E0],"parents":[2147483647,0,0,1,1,2,2,3,3,4,4,5,5,6,6],"right_children":[2,4,6,8,10,12,14,-1,-1,-1,-1,-1,-1,-1,-1],"split_conditions":[-5.4147755E1,-1.4132948E2,1.3330759E2,8.375E1,7.66E1,8.8E1,8.09E1,-1.8258838E-2,-4.2673003E-2,4.9806326E-3,-1.9355128E-2,5.354419E-3,-2.0581104E-2,3.5154212E-2,6.7784344E-3],"split_indices":[2,2,2,5,8,5,7,0,0,0,0,0,0,0,0],"split_type":[0,0,0,0,0,0,0,0,0,0,0,0,0,0,0],"sum_hessian":[1.5886047E2,4.3059216E1,1.15801254E2,1.4551191E1,2.8508024E1,9.9300705E1,1.6500551E1,5.2230887E0,9.328103E0,6.477497E0,2.2030527E1,8.957931E1,9.721392E0,1.134509E1,5.155462E0],"tree_param":{"num_deleted":"0","num_feature":"31","num_nodes":"15","size_leaf_vector":"1"}},{"base_weights":[-3.0587308E-2,-6.845541E-1,1.9072945E-1,-1.2202319E-3,-8.582409E-1,-2.46054E-2,2.5556302E-1,-3.33485E-3,-3.0500095E-2,4.792648E-3,2.432438E-2],"categories":[],"categories_nodes":[],"categories_segments":[],"categories_sizes":[],"default_left":[1,0,0,0,0,0,0,0,0,0,0],"id":18,"left_children":[1,3,5,-1,7,-1,9,-1,-1,-1,-1],"loss_changes":[2.3856735E1,4.624943E0,8.2883E0,0E0,3.765131E0,0E0,6.0730476E0,0E0,0E0,0E0,0E0],"parents":[2147483647,0,0,1,1,2,2,4,4,6,6],"right_children":[2,4,6,-1,8,-1,10,-1,-1,-1,-1],"split_conditions":[-6.3E0,7.52E1,-1.020324E2,-1.2202319E-3,-9.4E0,-2.46054E-2,1.3330759E2,-3.33485E-3,-3.0500095E-2,4.792648E-3,2.432438E-2],"split_indices":[15,8,2,0,13,0,2,0,0,0,0],"split_type":[0,0,0,0,0,0,0,0,0,0,0],"sum_hessian":[1.629297E2,4.0667778E1,1.2226193E2,8.901805E0,3.1765974E1,6.666396E0,1.15595535E2,5.8555427E0,2.591043E1,9.9683E1,1.5912539E1],"tree_param":{"num_deleted":"0","num_feature":"31","num_nodes":"11","size_leaf_vector":"1"}},{"base_weights":[-3.0109372E-2,-4.491112E-1,3.0157375E-1,-5.1184896E-2,-6.680873E-1,6.290708E-1,2.5319837E-2,-2.3709876E-2,5.502777E-3,-2.5973225E-2,-3.9186734E-3,2.8356701E-2,5.5693444E-3,-3.002978E-2,6.745489E-3],"categories":[],"categories_nodes":[],"categories_segments":[],"categories_sizes":[],"default_left":[0,0,0,0,0,0,0,0,0,0,0,0,0,0,0],"id":19,"left_children":[1,3,5,7,9,11,13,-1,-1,-1,-1,-1,-1,-1,-1],"loss_changes":[2.2174725E1,6.1063375E0,8.0463505E0,4.670513E0,4.707802E0,5.5348816E0,1.0337157E1,0E0,0E0,0E0,0E0,0E0,0E0,0E0,0E0],"parents":[2147483647,0,0,1,1,2,2,3,3,4,4,5,5,6,6],"right_children":[2,4,6,8,10,12,14,-1,-1,-1,-1,-1,-1,-1,-1],"split_conditions":[5.838239E-1,1.8E0,1.465135E3,7.52E1,8.28E1,7.83E1,-1E0,-2.3709876E-2,5.502777E-3,-2.5973225E-2,-3.9186734E-3,2.8356701E-2,5.5693444E-3,-3.002978E-2,6.745489E-3],"split_indices":[3,14,1,4,4,5,13,0,0,0,0,0,0,0,0],"split_type":[0,0,0,0,0,0,0,0,0,0,0,0,0,0,0],"sum_hessian":[1.5758357E2,6.94704E1,8.811317E1,2.5097193E1,4.4373203E1,3.973292E1,4.8380245E1,5.4760733E0,1.962112E1,3.1994385E1,1.2378819E1,2.253462E1,1.7198303E1,7.2210245E0,4.115922E1],"tree_param":{"num_deleted":"0","num_feature":"31","num_nodes":"15","size_leaf_vector":"1"}},{"base_weights":[2.2605455E-2,-2.6201004E-1,4.9552587E-1,-6.3558865E-1,-4.1720696E-2,7.2747284E-1,1.9574222E-1,-1.0493237E-2,-2.7669592E-2,1.0876956E-2,-7.5573153E-3,2.8814536E-3,2.6653698E-2,-7.6053827E-3,1.4521387E-2],"categories":[],"categories_nodes":[],"categories_segments":[],"categories_sizes":[],"default_left":[0,0,0,0,0,0,0,0,0,0,0,0,0,0,0],"id":20,"left_children":[1,3,5,7,9,11,13,-1,-1,-1,-1,-1,-1,-1,-1],"loss_changes":[2.2120514E1,8.420994E0,4.149845E0,2.7920752E0,5.6694164E0,3.414835E0,3.7875266E0,0E0,0E0,0E0,0E0,0E0,0E0,0E0,0E0],"parents":[2147483647,0,0,1,1,2,2,3,3,4,4,5,5,6,6],"right_children":[2,4,6,8,10,12,14,-1,-1,-1,-1,-1,-1,-1,-1],"split_conditions":[3.3109875E1,-6.9629456E1,8.08E1,8.5E1,1.467057E3,1.4911509E3,3E0,-1.0493237E-2,-2.7669592E-2,1.0876956E-2,-7.5573153E-3,2.8814536E-3,2.6653698E-2,-7.6053827E-3,1.4521387E-2],"split_indices":[2,2,5,5,0,0,18,0,0,0,0,0,0,0,0],"split_type":[0,0,0,0,0,0,0,0,0,0,0,0,0,0,0],"sum_hessian":[1.6237744E2,1.0164867E2,6.072877E1,3.700624E1,6.4642426E1,3.343385E1,2.7294918E1,1.9644472E1,1.7361769E1,2.186385E1,4.277858E1,7.1167088E0,2.6317142E1,1.0716466E1,1.6578453E1],"tree_param":{"num_deleted":"0","num_feature":"31","num_nodes":"15","size_leaf_vector":"1"}},{"base_weights":[4.187656E-2,-6.119495E-1,2.222074E-1,-7.922559E-1,1.092062E-2,1.0792832E-1,9.5731837E-1,-1.5430852E-2,-3.628027E-2,-1.9136967E-2,5.1833084E-3,3.5567302E-2,1.2133231E-2],"categories":[],"categories_nodes":[],"categories_segments":[],"categories_sizes":[],"default_left":[1,1,0,0,0,0,0,0,0,0,0,0,0],"id":21,"left_children":[1,3,5,7,-1,9,11,-1,-1,-1,-1,-1,-1],"loss_changes":[1.9203114E1,6.4873695E0,1.060678E1,2.8607445E0,0E0,5.501254E0,1.6691265E0,0E0,0E0,0E0,0E0,0E0,0E0],"parents":[2147483647,0,0,1,1,2,2,3,3,5,5,6,6],"right_children":[2,4,6,8,-1,10,12,-1,-1,-1,-1,-1,-1],"split_conditions":[-7.5E0,8.31E1,1.3330759E2,8.671429E1,1.092062E-2,-1.0044472E2,8.09E1,-1.5430852E-2,-3.628027E-2,-1.9136967E-2,5.1833084E-3,3.5567302E-2,1.2133231E-2],"split_indices":[15,4,2,5,0,2,7,0,0,0,0,0,0],"split_type":[0,0,0,0,0,0,0,0,0,0,0,0,0],"sum_hessian":[1.6071606E2,3.4226707E1,1.26489365E2,2.904838E1,5.178328E0,1.1046369E2,1.6025673E1,1.8773378E1,1.0275002E1,8.129476E0,1.0233421E2,1.0532782E1,5.492892E0],"tree_param":{"num_deleted":"0","num_feature":"31","num_nodes":"13","size_leaf_vector":"1"}},{"base_weights":[-4.738573E-2,-7.378792E-1,1.5742008E-1,-8.936878E-1,5.269631E-3,5.0906852E-2,8.3031017E-1,-1.0654283E-2,-3.6010604E-2,1.3812754E-2,-2.137442E-3,8.619076E-3,3.6683816E-2],"categories":[],"categories_nodes":[],"categories_segments":[],"categories_sizes":[],"default_left":[1,1,0,1,0,0,0,0,0,0,0,0,0],"id":22,"left_children":[1,3,5,7,-1,9,11,-1,-1,-1,-1,-1,-1],"loss_changes":[2.2765043E1,5.3967724E0,8.869669E0,4.794729E0,0E0,5.4562974E0,3.2563105E0,0E0,0E0,0E0,0E0,0E0,0E0],"parents":[2147483647,0,0,1,1,2,2,3,3,5,5,6,6],"right_children":[2,4,6,8,-1,10,12,-1,-1,-1,-1,-1,-1],"split_conditions":[-6.5E0,8.36E1,1.3330759E2,-8.5E0,5.269631E-3,7.83E1,5.7E0,-1.0654283E-2,-3.6010604E-2,1.3812754E-2,-2.137442E-3,8.619076E-3,3.6683816E-2],"split_indices":[15,4,2,13,0,4,13,0,0,0,0,0,0],"split_type":[0,0,0,0,0,0,0,0,0,0,0,0,0],"sum_hessian":[1.5915663E2,3.581275E1,1.2334389E2,3.061321E1,5.1995397E0,1.0741637E2,1.5927517E1,1.1890325E1,1.8722887E1,2.4043278E1,8.337309E1,7.409024E0,8.518493E0],"tree_param":{"num_deleted":"0","num_feature":"31","num_nodes":"13","size_leaf_vector":"1"}},{"base_weights":[-1.9626452E-2,-5.941095E-1,1.9899483E-1,-8.942042E-1,-3.4058008E-1,-2.0229548E-2,2.7761093E-1,-1.0113093E-2,-3.8094006E-2,2.3576454E-3,-2.1701993E-2,5.261358E-3,3.0095E-2],"categories":[],"categories_nodes":[],"categories_segments":[],"categories_sizes":[],"default_left":[0,0,0,0,0,0,0,0,0,0,0,0,0],"id":23,"left_children":[1,3,5,7,9,-1,11,-1,-1,-1,-1,-1,-1],"loss_changes":[2.0191008E1,3.0664072E0,8.186783E0,3.6887798E0,4.169862E0,0E0,7.805463E0,0E0,0E0,0E0,0E0,0E0,0E0],"parents":[2147483647,0,0,1,1,2,2,3,3,4,4,6,6],"right_children":[2,4,6,8,10,-1,12,-1,-1,-1,-1,-1,-1],"split_conditions":[-5.4147755E1,4.3E0,7E0,0E0,1.5829957E3,-2.0229548E-2,1.29E1,-1.0113093E-2,-3.8094006E-2,2.3576454E-3,-2.1701993E-2,5.261358E-3,3.0095E-2],"split_indices":[2,9,17,9,1,0,15,0,0,0,0,0,0],"split_type":[0,0,0,0,0,0,0,0,0,0,0,0,0],"sum_hessian":[1.5882251E2,4.33064E1,1.15516106E2,1.867471E1,2.4631691E1,8.914237E0,1.0660187E2,8.28441E0,1.03903E1,1.2137001E1,1.249469E1,9.452484E1,1.207703E1],"tree_param":{"num_deleted":"0","num_feature":"31","num_nodes":"13","size_leaf_vector":"1"}},{"base_weights":[7.1927104E-3,-2.4600734E-1,4.7376755E-1,-4.750069E-2,-7.838307E-1,-1.5523797E-1,6.5886223E-1,2.016097E-2,-4.295068E-3,-3.2267593E-2,-1.2252719E-2,8.345791E-3,-1.476821E-2,2.2509692E-2,1.2796775E-3],"categories":[],"categories_nodes":[],"categories_segments":[],"categories_sizes":[],"default_left":[1,0,0,1,1,0,0,0,0,0,0,0,0,0,0],"id":24,"left_children":[1,3,5,7,9,11,13,-1,-1,-1,-1,-1,-1,-1,-1],"loss_changes":[1.9267254E1,1.1251648E1,6.7812614E0,5.485942E0,2.6758347E0,2.1605194E0,2.4767895E0,0E0,0E0,0E0,0E0,0E0,0E0,0E0,0E0],"parents":[2147483647,0,0,1,1,2,2,3,3,4,4,5,5,6,6],"right_children":[2,4,6,8,10,12,14,-1,-1,-1,-1,-1,-1,-1,-1],"split_conditions":[3.2E0,8.62E1,3.8142796E1,-6.5E0,-5E-1,4.358779E0,6E0,2.016097E-2,-4.295068E-3,-3.2267593E-2,-1.2252719E-2,8.345791E-3,-1.476821E-2,2.2509692E-2,1.2796775E-3],"split_indices":[15,5,2,6,13,2,19,0,0,0,0,0,0,0,0],"split_type":[0,0,0,0,0,0,0,0,0,0,0,0,0,0,0],"sum_hessian":[1.611062E2,1.0473923E2,5.6366974E1,7.7297585E1,2.7441648E1,1.2852328E1,4.3514645E1,8.3642645E0,6.893332E1,1.4391695E1,1.3049954E1,5.6985407E0,7.1537876E0,3.7701168E1,5.8134756E0],"tree_param":{"num_deleted":"0","num_feature":"31","num_nodes":"15","size_leaf_vector":"1"}},{"base_weights":[-1.9625688E-2,-2.896411E-1,4.1851163E-1,-3.8956422E-1,4.9810535E-1,-6.3717656E-2,5.796173E-1,-5.990691E-3,-2.3404287E-2,2.4319196E-2,3.627965E-3,1.9093642E-2,-1.8309675E-2,2.030971E-2,-1.7774772E-3],"categories":[],"categories_nodes":[],"categories_segments":[],"categories_sizes":[],"default_left":[0,1,0,0,0,0,0,0,0,0,0,0,0,0,0],"id":25,"left_children":[1,3,5,7,9,11,13,-1,-1,-1,-1,-1,-1,-1,-1],"loss_changes":[1.9081606E1,8.045766E0,4.816313E0,6.4506464E0,1.2773283E0,6.6292806E0,2.9148893E0,0E0,0E0,0E0,0E0,0E0,0E0,0E0,0E0],"parents":[2147483647,0,0,1,1,2,2,3,3,4,4,5,5,6,6],"right_children":[2,4,6,8,10,12,14,-1,-1,-1,-1,-1,-1,-1,-1],"split_conditions":[3.3109875E1,5.1E0,3.142857E0,8.52E1,-1.5E0,7.89E1,6E0,-5.990691E-3,-2.3404287E-2,2.4319196E-2,3.627965E-3,1.9093642E-2,-1.8309675E-2,2.030971E-2,-1.7774772E-3],"split_indices":[2,13,15,5,9,8,18,0,0,0,0,0,0,0,0],"split_type":[0,0,0,0,0,0,0,0,0,0,0,0,0,0,0],"sum_hessian":[1.5926859E2,9.874989E1,6.0518692E1,8.808239E1,1.06675005E1,1.5306636E1,4.5212055E1,6.0286297E1,2.7796099E1,5.205144E0,5.4623566E0,6.6385813E0,8.668055E0,3.918065E1,6.0314083E0],"tree_param":{"num_deleted":"0","num_feature":"31","num_nodes":"15","size_leaf_vector":"1"}},{"base_weights":[2.6110353E-2,-3.098715E-1,2.8267953E-1,-9.247578E-2,-6.26219E-1,5.529789E-1,4.8675366E-2,-1.2355141E-2,1.2002351E-2,-3.297752E-2,-1.0310619E-2,2.3629932E-2,6.7910263E-3,8.516478E-3,-1.847271E-2],"categories":[],"categories_nodes":[],"categories_segments":[],"categories_sizes":[],"default_left":[0,0,0,0,0,0,1,0,0,0,0,0,0,0,0],"id":26,"left_children":[1,3,5,7,9,11,13,-1,-1,-1,-1,-1,-1,-1,-1],"loss_changes":[1.3770108E1,4.701398E0,5.6986756E0,6.80138E0,3.3661242E0,3.0338945E0,7.9285603E0,0E0,0E0,0E0,0E0,0E0,0E0,0E0,0E0],"parents":[2147483647,0,0,1,1,2,2,3,3,4,4,5,5,6,6],"right_children":[2,4,6,8,10,12,14,-1,-1,-1,-1,-1,-1,-1,-1],"split_conditions":[5.838239E-1,8.51E1,1.4660983E3,8.13E1,1.4591174E3,7.83E1,8.25E1,-1.2355141E-2,1.2002351E-2,-3.297752E-2,-1.0310619E-2,2.3629932E-2,6.7910263E-3,8.516478E-3,-1.847271E-2],"split_indices":[3,5,1,5,0,5,7,0,0,0,0,0,0,0,0],"split_type":[0,0,0,0,0,0,0,0,0,0,0,0,0,0,0],"sum_hessian":[1.5772508E2,6.820357E1,8.9521515E1,4.1189938E1,2.7013628E1,4.090678E1,4.8614735E1,2.5087545E1,1.6102392E1,9.0204E0,1.7993229E1,2.2981716E1,1.7925064E1,3.6327606E1,1.2287128E1],"tree_param":{"num_deleted":"0","num_feature":"31","num_nodes":"15","size_leaf_vector":"1"}},{"base_weights":[-7.5182426E-3,4.487908E-1,-1.9607438E-1,2.3267317E-1,9.0589774E-1,-3.5044673E-1,3.4338838E-1,1.3781146E-2,-6.444702E-3,3.8237803E-2,9.37718E-3,-1.5019718E-2,1.3805967E-3,-2.2786085E-3,1.7092604E-2],"categories":[],"categories_nodes":[],"categories_segments":[],"categories_sizes":[],"default_left":[0,0,1,0,0,1,0,0,0,0,0,0,0,0,0],"id":27,"left_children":[1,3,5,7,9,11,13,-1,-1,-1,-1,-1,-1,-1,-1],"loss_changes":[1.3849148E1,4.439184E0,9.603186E0,3.4773731E0,2.8314543E0,5.3250523E0,2.496129E0,0E0,0E0,0E0,0E0,0E0,0E0,0E0,0E0],"parents":[2147483647,0,0,1,1,2,2,3,3,4,4,5,5,6,6],"right_children":[2,4,6,8,10,12,14,-1,-1,-1,-1,-1,-1,-1,-1],"split_conditions":[1.465135E3,1.5311986E3,5.9E0,6.6342476E1,3.3333334E-1,8.35E1,2.6607144E0,1.3781146E-2,-6.444702E-3,3.8237803E-2,9.37718E-3,-1.5019718E-2,1.3805967E-3,-2.2786085E-3,1.7092604E-2],"split_indices":[1,0,13,2,11,8,6,0,0,0,0,0,0,0,0],"split_type":[0,0,0,0,0,0,0,0,0,0,0,0,0,0,0],"sum_hessian":[1.5893925E2,4.606969E1,1.1286957E2,3.2305054E1,1.3764636E1,8.802948E1,2.4840086E1,2.142485E1,1.0880203E1,7.7811575E0,5.9834785E0,6.3651024E1,2.4378458E1,8.9411125E0,1.5898974E1],"tree_param":{"num_deleted":"0","num_feature":"31","num_nodes":"15","size_leaf_vector":"1"}},{"base_weights":[7.535872E-5,-6.43332E-1,1.5012275E-1,-8.581982E-1,9.008219E-3,-5.145752E-2,3.891777E-1,-9.847412E-3,-3.3678297E-2,1.42248785E-2,-8.374464E-3,1.4315263E-2,-1.1959349E-2],"categories":[],"categories_nodes":[],"categories_segments":[],"categories_sizes":[],"default_left":[0,0,0,0,0,0,0,0,0,0,0,0,0],"id":28,"left_children":[1,3,5,7,-1,9,11,-1,-1,-1,-1,-1,-1],"loss_changes":[1.519427E1,6.2920504E0,6.170004E0,3.0648117E0,0E0,8.524443E0,4.2459126E0,0E0,0E0,0E0,0E0,0E0,0E0],"parents":[2147483647,0,0,1,1,2,2,3,3,5,5,6,6],"right_children":[2,4,6,8,-1,10,12,-1,-1,-1,-1,-1,-1],"split_conditions":[-8.2E0,8.23E1,3.3109875E1,-8.5E0,9.008219E-3,-3.2E0,9.1111115E1,-9.847412E-3,-3.3678297E-2,1.42248785E-2,-8.374464E-3,1.4315263E-2,-1.1959349E-2],"split_indices":[15,4,2,13,0,13,4,0,0,0,0,0,0],"split_type":[0,0,0,0,0,0,0,0,0,0,0,0,0],"sum_hessian":[1.5538535E2,2.8762676E1,1.2662267E2,2.3501678E1,5.260997E0,6.912151E1,5.750116E1,8.568853E0,1.4932825E1,2.056506E1,4.8556458E1,5.207844E1,5.4227157E0],"tree_param":{"num_deleted":"0","num_feature":"31","num_nodes":"13","size_leaf_vector":"1"}},{"base_weights":[1.8937457E-2,-3.0205628E-1,2.6797587E-1,-7.137361E-2,-6.654616E-1,5.2770567E-1,5.3125415E-2,-1.2816017E-2,1.5357697E-2,-3.401043E-2,-1.2293654E-2,2.3681946E-2,6.2850323E-3,1.0488385E-2,-1.1394684E-2],"categories":[],"categories_nodes":[],"categories_segments":[],"categories_sizes":[],"default_left":[0,0,0,0,0,0,0,0,0,0,0,0,0,0,0],"id":29,"left_children":[1,3,5,7,9,11,13,-1,-1,-1,-1,-1,-1,-1,-1],"loss_changes":[1.2785444E1,5.8125157E0,4.9955525E0,9.326036E0,2.7703571E0,3.2190514E0,6.599792E0,0E0,0E0,0E0,0E0,0E0,0E0,0E0,0E0],"parents":[2147483647,0,0,1,1,2,2,3,3,4,4,5,5,6,6],"right_children":[2,4,6,8,10,12,14,-1,-1,-1,-1,-1,-1,-1,-1],"split_conditions":[-1.1198098E1,8.51E1,1.465135E3,8.12E1,1.4591174E3,7.83E1,8.11E1,-1.2816017E-2,1.5357697E-2,-3.401043E-2,-1.2293654E-2,2.3681946E-2,6.2850323E-3,1.0488385E-2,-1.1394684E-2],"split_indices":[2,5,1,5,0,5,7,0,0,0,0,0,0,0,0],"split_type":[0,0,0,0,0,0,0,0,0,0,0,0,0,0,0],"sum_hessian":[1.5792592E2,6.8902435E1,8.902348E1,4.2879658E1,2.6022776E1,3.96432E1,4.9380287E1,2.6799091E1,1.6080564E1,7.9781413E0,1.8044634E1,2.0940706E1,1.8702492E1,2.9423353E1,1.9956934E1],"tree_param":{"num_deleted":"0","num_feature":"31","num_nodes":"15","size_leaf_vector":"1"}},{"base_weights":[-9.615959E-3,-5.597455E-1,1.579141E-1,1.1053856E-4,-7.365145E-1,2.4913298E-1,-6.3439435E-1,-2.4566252E-3,-2.7998712E-2,9.808153E-3,-1.5655294E-2,-2.9907482E-2,-8.147898E-3],"categories":[],"categories_nodes":[],"categories_segments":[],"categories_sizes":[],"default_left":[0,0,0,0,0,1,0,0,0,0,0,0,0],"id":30,"left_children":[1,3,5,-1,7,9,11,-1,-1,-1,-1,-1,-1],"loss_changes":[1.4820515E1,3.7410774E0,9.070327E0,0E0,3.604597E0,6.847067E0,1.4407797E0,0E0,0E0,0E0,0E0,0E0,0E0],"parents":[2147483647,0,0,1,1,2,2,4,4,5,5,6,6],"right_children":[2,4,6,-1,8,10,12,-1,-1,-1,-1,-1,-1],"split_conditions":[-6.9629456E1,7.64E1,8.8E1,1.1053856E-4,3E-1,7.9E0,1.5285479E3,-2.4566252E-3,-2.7998712E-2,9.808153E-3,-1.5655294E-2,-2.9907482E-2,-8.147898E-3],"split_indices":[2,8,5,0,9,9,0,0,0,0,0,0,0],"split_type":[0,0,0,0,0,0,0,0,0,0,0,0,0],"sum_hessian":[1.5884816E2,3.653491E1,1.22313255E2,8.958839E0,2.757607E1,1.1029993E2,1.2013324E1,6.7006707E0,2.0875399E1,1.0071218E2,9.587746E0,5.1346874E0,6.878637E0],"tree_param":{"num_deleted":"0","num_feature":"31","num_nodes":"13","size_leaf_vector":"1"}},{"base_weights":[-6.604856E-3,-2.600276E-1,4.0152967E-1,-6.090851E-1,-9.8414235E-2,-2.0092514E-1,5.762997E-1,-2.3897562E-2,7.1832123E-3,1.0858446E-2,-1.14107765E-2,1.5914036E-2,-2.3237033E-2,8.164549E-3,2.4802376E-2],"categories":[],"categories_nodes":[],"categories_segments":[],"categories_sizes":[],"default_left":[0,1,0,1,0,0,0,0,0,0,0,0,0,0,0],"id":31,"left_children":[1,3,5,7,9,11,13,-1,-1,-1,-1,-1,-1,-1,-1],"loss_changes":[1.6815176E1,5.5971613E0,6.6737185E0,5.209279E0,9.18941E0,6.598057E0,3.472189E0,0E0,0E0,0E0,0E0,0E0,0E0,0E0,0E0],"parents":[2147483647,0,0,1,1,2,2,3,3,4,4,5,5,6,6],"right_children":[2,4,6,8,10,12,14,-1,-1,-1,-1,-1,-1,-1,-1],"split_conditions":[3.3109875E1,-8.2E0,2.8E0,8.23E1,-2.3E0,7.89E1,9.181073E1,-2.3897562E-2,7.1832123E-3,1.0858446E-2,-1.14107765E-2,1.5914036E-2,-2.3237033E-2,8.164549E-3,2.4802376E-2],"split_indices":[2,15,15,4,13,8,2,0,0,0,0,0,0,0,0],"split_type":[0,0,0,0,0,0,0,0,0,0,0,0,0,0,0],"sum_hessian":[1.6056508E2,9.9281296E1,6.128379E1,3.0543571E1,6.8737724E1,1.3746879E1,4.753691E1,2.5065918E1,5.477655E0,2.600035E1,4.2737373E1,6.075673E0,7.6712055E0,2.2409237E1,2.5127672E1],"tree_param":{"num_deleted":"0","num_feature":"31","num_nodes":"15","size_leaf_vector":"1"}},{"base_weights":[-6.924786E-3,-2.214356E-1,3.757389E-1,2.8134736E-1,-3.3499882E-1,1.2740533E-1,6.9036454E-1,-1.6936328E-3,2.9255893E-2,-2.3334246E-2,-4.914017E-3,1.2929219E-2,-7.982741E-3,2.817351E-2,8.665227E-3],"categories":[],"categories_nodes":[],"categories_segments":[],"categories_sizes":[],"default_left":[1,0,0,0,0,0,0,0,0,0,0,0,0,0,0],"id":32,"left_children":[1,3,5,7,9,11,13,-1,-1,-1,-1,-1,-1,-1,-1],"loss_changes":[1.28374E1,5.8150525E0,4.3017955E0,4.509364E0,6.1031885E0,4.011981E0,2.1815538E0,0E0,0E0,0E0,0E0,0E0,0E0,0E0,0E0],"parents":[2147483647,0,0,1,1,2,2,3,3,4,4,5,5,6,6],"right_children":[2,4,6,8,10,12,14,-1,-1,-1,-1,-1,-1,-1,-1],"split_conditions":[3.2E0,7.59E1,9.181073E1,-1.1198098E1,-7.5E0,5.1E0,1.602266E3,-1.6936328E-3,2.9255893E-2,-2.3334246E-2,-4.914017E-3,1.2929219E-2,-7.982741E-3,2.817351E-2,8.665227E-3],"split_indices":[15,8,2,2,15,6,0,0,0,0,0,0,0,0,0],"split_type":[0,0,0,0,0,0,0,0,0,0,0,0,0,0,0],"sum_hessian":[1.54377E2,9.919328E1,5.5183716E1,1.8004368E1,8.118891E1,3.1626167E1,2.3557547E1,1.2726892E1,5.2774763E0,2.1649225E1,5.953969E1,1.7799356E1,1.3826811E1,1.3719277E1,9.838269E0],"tree_param":{"num_deleted":"0","num_feature":"31","num_nodes":"15","size_leaf_vector":"1"}},{"base_weights":[-9.191531E-3,4.0393412E-1,-1.8585443E-1,6.934131E-1,5.778522E-2,-3.47579E-1,3.30477E-1,5.942558E-3,2.4887627E-2,-7.684956E-3,1.5380273E-2,-3.6768183E-2,-7.981623E-3,1.5730442E-2,-1.0937481E-2],"categories":[],"categories_nodes":[],"categories_segments":[],"categories_sizes":[],"default_left":[0,0,1,0,0,1,0,0,0,0,0,0,0,0,0],"id":33,"left_children":[1,3,5,7,9,11,13,-1,-1,-1,-1,-1,-1,-1,-1],"loss_changes":[1.1516995E1,4.696948E0,9.341897E0,1.5660343E0,3.361857E0,5.731889E0,3.8116715E0,0E0,0E0,0E0,0E0,0E0,0E0,0E0,0E0],"parents":[2147483647,0,0,1,1,2,2,3,3,4,4,5,5,6,6],"right_children":[2,4,6,8,10,12,14,-1,-1,-1,-1,-1,-1,-1,-1],"split_conditions":[1.465135E3,8.275E1,5.9E0,4.2020332E1,8.56E1,7.6E1,8.16E1,5.942558E-3,2.4887627E-2,-7.684956E-3,1.5380273E-2,-3.6768183E-2,-7.981623E-3,1.5730442E-2,-1.0937481E-2],"split_indices":[1,7,13,2,7,5,7,0,0,0,0,0,0,0,0],"split_type":[0,0,0,0,0,0,0,0,0,0,0,0,0,0,0],"sum_hessian":[1.5577306E2,4.6274292E1,1.0949876E2,2.4653627E1,2.1620667E1,8.363085E1,2.5867903E1,5.845515E0,1.8808113E1,1.3050504E1,8.570163E0,5.913089E0,7.7717766E1,2.0418291E1,5.4496107E0],"tree_param":{"num_deleted":"0","num_feature":"31","num_nodes":"15","size_leaf_vector":"1"}},{"base_weights":[-1.9282425E-2,-2.3428513E-1,3.7417507E-1,-6.226851E-1,-8.49357E-2,-1.4841928E-1,5.551147E-1,-2.457194E-2,1.1512747E-3,7.858934E-3,-9.217873E-3,6.7832423E-3,-1.4795504E-2,1.2375657E-2,2.8930625E-2],"categories":[],"categories_nodes":[],"categories_segments":[],"categories_sizes":[],"default_left":[0,0,0,0,0,0,0,0,0,0,0,0,0,0,0],"id":34,"left_children":[1,3,5,7,9,11,13,-1,-1,-1,-1,-1,-1,-1,-1],"loss_changes":[1.3245999E1,5.8173375E0,5.3159986E0,3.659587E0,5.8070517E0,2.0514455E0,2.0136433E0,0E0,0E0,0E0,0E0,0E0,0E0,0E0,0E0],"parents":[2147483647,0,0,1,1,2,2,3,3,4,4,5,5,6,6],"right_children":[2,4,6,8,10,12,14,-1,-1,-1,-1,-1,-1,-1,-1],"split_conditions":[3.2E0,-8.2E0,3.8142796E1,-3.1111112E0,-3.1E0,4.358779E0,1.29E1,-2.457194E-2,1.1512747E-3,7.858934E-3,-9.217873E-3,6.7832423E-3,-1.4795504E-2,1.2375657E-2,2.8930625E-2],"split_indices":[15,15,2,13,15,2,15,0,0,0,0,0,0,0,0],"split_type":[0,0,0,0,0,0,0,0,0,0,0,0,0,0,0],"sum_hessian":[1.5454613E2,1.0019802E2,5.4348114E1,2.6947832E1,7.325018E1,1.4023841E1,4.0324272E1,2.0591698E1,6.356135E0,2.8540178E1,4.4710007E1,6.8867407E0,7.1371E0,3.1393682E1,8.930592E0],"tree_param":{"num_deleted":"0","num_feature":"31","num_nodes":"15","size_leaf_vector":"1"}},{"base_weights":[-3.534396E-2,-2.3828326E-1,3.1968474E-1,-8.813522E-2,-6.376816E-1,4.6658215E-1,-1.5141937E-1,-1.2079745E-2,8.902745E-3,-2.396756E-3,-2.6404552E-2,2.8908769E-2,7.5031677E-3,-1.6178671E-2,7.163128E-3],"categories":[],"categories_nodes":[],"categories_segments":[],"categories_sizes":[],"default_left":[0,0,0,0,0,0,0,0,0,0,0,0,0,0,0],"id":35,"left_children":[1,3,5,7,9,11,13,-1,-1,-1,-1,-1,-1,-1,-1],"loss_changes":[1.1623582E1,6.093698E0,4.134268E0,9.282674E0,3.6975307E0,4.6016645E0,2.3553922E0,0E0,0E0,0E0,0E0,0E0,0E0,0E0,0E0],"parents":[2147483647,0,0,1,1,2,2,3,3,4,4,5,5,6,6],"right_children":[2,4,6,8,10,12,14,-1,-1,-1,-1,-1,-1,-1,-1],"split_conditions":[3.3109875E1,8.63E1,8.33E1,8.13E1,-3.5E0,6.6342476E1,8.56E1,-1.2079745E-2,8.902745E-3,-2.396756E-3,-2.6404552E-2,2.8908769E-2,7.5031677E-3,-1.6178671E-2,7.163128E-3],"split_indices":[2,5,5,5,9,2,5,0,0,0,0,0,0,0,0],"split_type":[0,0,0,0,0,0,0,0,0,0,0,0,0,0,0],"sum_hessian":[1.5927097E2,1.01551544E2,5.771943E1,7.469261E1,2.6858936E1,4.400698E1,1.3712447E1,4.107843E1,3.3614178E1,8.54079E0,1.8318146E1,1.2304252E1,3.170273E1,6.6850433E0,7.0274034E0],"tree_param":{"num_deleted":"0","num_feature":"31","num_nodes":"15","size_leaf_vector":"1"}},{"base_weights":[4.9610045E-2,-4.9404454E-1,1.9919358E-1,-7.0212656E-1,1.455643E-2,2.8119725E-1,-6.3736033E-1,-8.706092E-3,-2.6184844E-2,-1.686322E-2,1.0154736E-2,-3.8462177E-2,4.000914E-3],"categories":[],"categories_nodes":[],"categories_segments":[],"categories_sizes":[],"default_left":[1,1,0,0,0,0,0,0,0,0,0,0,0],"id":36,"left_children":[1,3,5,7,-1,9,11,-1,-1,-1,-1,-1,-1],"loss_changes":[1.2716084E1,7.22114E0,8.575303E0,1.7336578E0,0E0,5.6093426E0,5.7523603E0,0E0,0E0,0E0,0E0,0E0,0E0],"parents":[2147483647,0,0,1,1,2,2,3,3,5,5,6,6],"right_children":[2,4,6,8,-1,10,12,-1,-1,-1,-1,-1,-1],"split_conditions":[-7.5E0,8.29E1,6.8E0,-8.5E0,1.455643E-2,-1.0044472E2,-1.1872706E1,-8.706092E-3,-2.6184844E-2,-1.686322E-2,1.0154736E-2,-3.8462177E-2,4.000914E-3],"split_indices":[15,4,9,13,0,2,2,0,0,0,0,0,0],"split_type":[0,0,0,0,0,0,0,0,0,0,0,0,0],"sum_hessian":[1.5415736E2,3.2766438E1,1.2139093E2,2.7257511E1,5.5089273E0,1.11158424E2,1.0232506E1,8.77718E0,1.8480331E1,6.511104E0,1.0464732E2,5.2104716E0,5.0220346E0],"tree_param":{"num_deleted":"0","num_feature":"31","num_nodes":"13","size_leaf_vector":"1"}},{"base_weights":[-2.5074493E-2,-1.5659918E-1,5.097424E-1,-2.4138127E-1,3.0619565E-1,3.042539E-1,2.6024643E-2,-1.5409507E-2,-4.26047E-3,2.0494908E-2,-2.4385324E-3,-2.7629053E-3,2.0648351E-2],"categories":[],"categories_nodes":[],"categories_segments":[],"categories_sizes":[],"default_left":[1,0,0,0,0,0,0,0,0,0,0,0,0],"id":37,"left_children":[1,3,5,7,9,11,-1,-1,-1,-1,-1,-1,-1],"loss_changes":[1.1009071E1,4.9969654E0,2.0078402E0,2.8111086E0,2.9575438E0,3.2854538E0,0E0,0E0,0E0,0E0,0E0,0E0,0E0],"parents":[2147483647,0,0,1,1,2,2,3,3,4,4,5,5],"right_children":[2,4,6,8,10,12,-1,-1,-1,-1,-1,-1,-1],"split_conditions":[2.3333333E-1,5.4E0,1.3330759E2,-8.2E0,5.7E0,8.52E1,2.6024643E-2,-1.5409507E-2,-4.26047E-3,2.0494908E-2,-2.4385324E-3,-2.7629053E-3,2.0648351E-2],"split_indices":[12,13,2,15,14,8,0,0,0,0,0,0,0],"split_type":[0,0,0,0,0,0,0,0,0,0,0,0,0],"sum_hessian":[1.5437383E2,1.2447062E2,2.990321E1,1.0560301E2,1.8867609E1,2.016878E1,9.73443E0,2.7120785E1,7.848223E1,9.176737E0,9.690872E0,1.02991905E1,9.86959E0],"tree_param":{"num_deleted":"0","num_feature":"31","num_nodes":"13","size_leaf_vector":"1"}},{"base_weights":[-3.7932087E-2,-4.4688287E-1,1.22801565E-1,-1.74132E-1,-7.097624E-1,5.117725E-2,6.824628E-1,-1.9430509E-2,1.7231673E-2,-2.8075801E-2,-6.141954E-4,3.4158085E-3,-2.0931164E-2,2.9384594E-2,7.3509794E-3],"categories":[],"categories_nodes":[],"categories_segments":[],"categories_sizes":[],"default_left":[0,0,1,0,0,0,0,0,0,0,0,0,0,0,0],"id":38,"left_children":[1,3,5,7,9,11,13,-1,-1,-1,-1,-1,-1,-1,-1],"loss_changes":[1.020027E1,3.0142488E0,4.437852E0,8.454984E0,3.4031878E0,4.773789E0,1.3943095E0,0E0,0E0,0E0,0E0,0E0,0E0,0E0,0E0],"parents":[2147483647,0,0,1,1,2,2,3,3,4,4,5,5,6,6],"right_children":[2,4,6,8,10,12,14,-1,-1,-1,-1,-1,-1,-1,-1],"split_conditions":[-5.4147755E1,8.37E1,9.5E0,8.06E1,8.28E1,1.6115078E3,8.22E1,-1.9430509E-2,1.7231673E-2,-2.8075801E-2,-6.141954E-4,3.4158085E-3,-2.0931164E-2,2.9384594E-2,7.3509794E-3],"split_indices":[2,5,13,5,4,0,5,0,0,0,0,0,0,0,0],"split_type":[0,0,0,0,0,0,0,0,0,0,0,0,0,0,0],"sum_hessian":[1.5334445E2,4.2763084E1,1.1058136E2,2.1803377E1,2.0959707E1,9.900265E1,1.1578715E1,1.3437111E1,8.366267E0,1.5513364E1,5.446343E0,9.213843E1,6.8642178E0,6.1580763E0,5.4206386E0],"tree_param":{"num_deleted":"0","num_feature":"31","num_nodes":"15","size_leaf_vector":"1"}},{"base_weights":[1.3222414E-2,-2.6975042E-1,2.4741228E-1,1.598601E-2,-4.0801582E-1,5.846878E-1,7.3368244E-2,-2.7594887E-2,-8.2024485E-3,1.1500344E-2,3.5820123E-2,-2.13402E-2,5.456791E-3],"categories":[],"categories_nodes":[],"categories_segments":[],"categories_sizes":[],"default_left":[0,0,0,0,0,0,1,0,0,0,0,0,0],"id":39,"left_children":[1,3,5,-1,7,9,11,-1,-1,-1,-1,-1,-1],"loss_changes":[9.951775E0,7.7664895E0,4.778729E0,0E0,3.7851648E0,2.9546938E0,4.8407845E0,0E0,0E0,0E0,0E0,0E0,0E0],"parents":[2147483647,0,0,1,1,2,2,4,4,5,5,6,6],"right_children":[2,4,6,-1,8,10,12,-1,-1,-1,-1,-1,-1],"split_conditions":[-6.4145737E0,-4.1E0,7.83E1,1.598601E-2,7.99E1,-3E0,7.89E1,-2.7594887E-2,-8.2024485E-3,1.1500344E-2,3.5820123E-2,-2.13402E-2,5.456791E-3],"split_indices":[2,14,5,0,5,14,5,0,0,0,0,0,0],"split_type":[0,0,0,0,0,0,0,0,0,0,0,0,0],"sum_hessian":[1.4816447E2,6.7025444E1,8.113903E1,9.430185E0,5.7595257E1,2.681517E1,5.4323864E1,1.07781315E1,4.6817127E1,2.1379612E1,5.4355574E0,5.925297E0,4.8398567E1],"tree_param":{"num_deleted":"0","num_feature":"31","num_nodes":"13","size_leaf_vector":"1"}},{"base_weights":[-8.2245385E-3,2.0391065E-1,-2.8521946E-1,8.700925E-2,7.675978E-1,-1.4610201E-1,-9.298445E-1,-6.4895424E-4,2.4431797E-2,9.584118E-3,3.2654807E-2,-1.5844023E-2,5.3608716E-3,-1.3761703E-2,-3.763497E-2],"categories":[],"categories_nodes":[],"categories_segments":[],"categories_sizes":[],"default_left":[0,0,0,0,0,0,0,0,0,0,0,0,0,0,0],"id":40,"left_children":[1,3,5,7,9,11,13,-1,-1,-1,-1,-1,-1,-1,-1],"loss_changes":[9.170208E0,5.7584143E0,5.932802E0,5.8925557E0,1.8173761E0,7.1479635E0,1.2332592E0,0E0,0E0,0E0,0E0,0E0,0E0,0E0,0E0],"parents":[2147483647,0,0,1,1,2,2,3,3,4,4,5,5,6,6],"right_children":[2,4,6,8,10,12,14,-1,-1,-1,-1,-1,-1,-1,-1],"split_conditions":[8.275E1,8.19E1,8.79E1,1.4082805E2,8.14E1,8.53E1,-6.9E0,-6.4895424E-4,2.4431797E-2,9.584118E-3,3.2654807E-2,-1.5844023E-2,5.3608716E-3,-1.3761703E-2,-3.763497E-2],"split_indices":[7,7,5,2,4,7,6,0,0,0,0,0,0,0,0],"split_type":[0,0,0,0,0,0,0,0,0,0,0,0,0,0,0],"sum_hessian":[1.5407133E2,8.7400185E1,6.667115E1,7.3343956E1,1.4056228E1,5.584566E1,1.0825487E1,6.465712E1,8.686836E0,6.698045E0,7.3581824E0,2.5374151E1,3.0471508E1,5.400921E0,5.424566E0],"tree_param":{"num_deleted":"0","num_feature":"31","num_nodes":"15","size_leaf_vector":"1"}},{"base_weights":[3.4173537E-2,-3.7742314E-1,1.5766923E-1,7.3843785E-3,-5.687291E-1,2.2552164E-1,-4.891862E-1,-2.244016E-3,-2.2543117E-2,-1.2567845E-2,9.288215E-3,-2.7961478E-2,2.6431953E-4],"categories":[],"categories_nodes":[],"categories_segments":[],"categories_sizes":[],"default_left":[0,0,1,0,0,1,0,0,0,0,0,0,0],"id":41,"left_children":[1,3,5,-1,7,9,11,-1,-1,-1,-1,-1,-1],"loss_changes":[7.8036385E0,4.3696876E0,5.284849E0,0E0,2.4196177E0,5.948915E0,2.5462914E0,0E0,0E0,0E0,0E0,0E0,0E0],"parents":[2147483647,0,0,1,1,2,2,4,4,5,5,6,6],"right_children":[2,4,6,-1,8,10,12,-1,-1,-1,-1,-1,-1],"split_conditions":[-6.9629456E1,7.64E1,7.7E0,7.3843785E-3,6E-1,7.54E1,9.4E0,-2.244016E-3,-2.2543117E-2,-1.2567845E-2,9.288215E-3,-2.7961478E-2,2.6431953E-4],"split_indices":[2,8,9,0,9,5,9,0,0,0,0,0,0],"split_type":[0,0,0,0,0,0,0,0,0,0,0,0,0],"sum_hessian":[1.513523E2,3.445653E1,1.1689575E2,8.021966E0,2.6434568E1,1.0638751E2,1.05082445E1,7.5185394E0,1.8916029E1,1.1819342E1,9.456817E1,5.1006746E0,5.4075704E0],"tree_param":{"num_deleted":"0","num_feature":"31","num_nodes":"13","size_leaf_vector":"1"}},{"base_weights":[-2.6551275E-2,-1.0173802E-1,6.719911E-1,9.77801E-3,-5.158798E-1,2.312899E-3,3.3636995E-2,2.3300845E-2,-1.9618757E-3,-2.3417698E-2,1.5308626E-3],"categories":[],"categories_nodes":[],"categories_segments":[],"categories_sizes":[],"default_left":[1,0,0,1,0,0,0,0,0,0,0],"id":42,"left_children":[1,3,5,7,9,-1,-1,-1,-1,-1,-1],"loss_changes":[8.147596E0,6.459112E0,3.9436226E0,6.4549537E0,4.49165E0,0E0,0E0,0E0,0E0,0E0,0E0],"parents":[2147483647,0,0,1,1,2,2,3,3,4,4],"right_children":[2,4,6,8,10,-1,-1,-1,-1,-1,-1],"split_conditions":[1.2E1,8.6333336E1,7.71E1,-7.3E0,1.6094249E3,2.312899E-3,3.3636995E-2,2.3300845E-2,-1.9618757E-3,-2.3417698E-2,1.5308626E-3],"split_indices":[15,5,7,9,1,0,0,0,0,0,0],"split_type":[0,0,0,0,0,0,0,0,0,0,0],"sum_hessian":[1.5282817E2,1.387485E2,1.4079668E1,1.1008286E2,2.866564E1,6.5618997E0,7.5177684E0,8.994083E0,1.01088776E2,1.9284218E1,9.381422E0],"tree_param":{"num_deleted":"0","num_feature":"31","num_nodes":"11","size_leaf_vector":"1"}},{"base_weights":[1.0481328E-2,-1.3189833E-1,3.452901E-1,1.7467436E-1,-2.816745E-1,7.124656E-1,4.892463E-2,-2.1487211E-3,1.4617606E-2,-4.049882E-3,-1.695079E-2,6.201292E-3,2.8310033E-2,-7.316293E-3,1.8323338E-2],"categories":[],"categories_nodes":[],"categories_segments":[],"categories_sizes":[],"default_left":[0,0,0,0,0,0,0,0,0,0,0,0,0,0,0],"id":43,"left_children":[1,3,5,7,9,11,13,-1,-1,-1,-1,-1,-1,-1,-1],"loss_changes":[7.408424E0,5.0584936E0,5.0101213E0,2.8389792E0,2.9856257E0,2.2176256E0,4.5460534E0,0E0,0E0,0E0,0E0,0E0,0E0,0E0,0E0],"parents":[2147483647,0,0,1,1,2,2,3,3,4,4,5,5,6,6],"right_children":[2,4,6,8,10,12,14,-1,-1,-1,-1,-1,-1,-1,-1],"split_conditions":[1.5456658E3,-3.3E0,1.5907683E3,-1E0,1.4967511E3,-1.3E0,7.709395E-1,-2.1487211E-3,1.4617606E-2,-4.049882E-3,-1.695079E-2,6.201292E-3,2.8310033E-2,-7.316293E-3,1.8323338E-2],"split_indices":[0,14,0,9,0,6,3,0,0,0,0,0,0,0,0],"split_type":[0,0,0,0,0,0,0,0,0,0,0,0,0,0,0],"sum_hessian":[1.5345537E2,1.0809381E2,4.536156E1,3.5422417E1,7.267139E1,1.96333E1,2.572826E1,2.0242832E1,1.51795845E1,4.885684E1,2.381455E1,6.753673E0,1.2879628E1,1.7285917E1,8.442343E0],"tree_param":{"num_deleted":"0","num_feature":"31","num_nodes":"15","size_leaf_vector":"1"}},{"base_weights":[1.3462179E-2,-3.6683592E-1,1.6331187E-1,-8.495197E-2,-6.3995826E-1,3.1270525E-1,-1.2664478E-1,-1.6028527E-2,1.5618984E-2,-2.43704E-2,-5.6027384E-3,-1.4534545E-2,1.237599E-2,-1.5683085E-2,1.0330039E-2],"categories":[],"categories_nodes":[],"categories_segments":[],"categories_sizes":[],"default_left":[0,0,1,0,0,0,0,0,0,0,0,0,0,0,0],"id":44,"left_children":[1,3,5,7,9,11,13,-1,-1,-1,-1,-1,-1,-1,-1],"loss_changes":[8.728053E0,3.279385E0,4.796056E0,6.390315E0,1.5545406E0,5.989865E0,7.278634E0,0E0,0E0,0E0,0E0,0E0,0E0,0E0,0E0],"parents":[2147483647,0,0,1,1,2,2,3,3,4,4,5,5,6,6],"right_children":[2,4,6,8,10,12,14,-1,-1,-1,-1,-1,-1,-1,-1],"split_conditions":[-5.4147755E1,8.38E1,8.275E1,8.06E1,8.28E1,7E0,8.53E1,-1.6028527E-2,1.5618984E-2,-2.43704E-2,-5.6027384E-3,-1.4534545E-2,1.237599E-2,-1.5683085E-2,1.0330039E-2],"split_indices":[2,5,7,5,4,17,7,0,0,0,0,0,0,0,0],"split_type":[0,0,0,0,0,0,0,0,0,0,0,0,0,0,0],"sum_hessian":[1.5110593E2,4.2301765E1,1.0880415E2,2.1462154E1,2.0839611E1,7.17554E1,3.704875E1,1.2388135E1,9.074019E0,1.4522914E1,6.3166976E0,7.556733E0,6.419867E1,2.0063805E1,1.6984945E1],"tree_param":{"num_deleted":"0","num_feature":"31","num_nodes":"15","size_leaf_vector":"1"}},{"base_weights":[-3.7830893E-2,1.8921283E-1,-3.2454318E-1,4.4420865E-1,-1.0579701E-1,-1.8495443E-1,-9.758067E-1,2.8037135E-2,7.155723E-3,-1.4463006E-2,8.334908E-3,8.331493E-3,-1.2298441E-2,-1.575519E-2,-3.700765E-2],"categories":[],"categories_nodes":[],"categories_segments":[],"categories_sizes":[],"default_left":[0,0,0,0,0,1,0,0,0,0,0,0,0,0,0],"id":45,"left_children":[1,3,5,7,9,11,13,-1,-1,-1,-1,-1,-1,-1,-1],"loss_changes":[1.0020418E1,6.5172415E0,5.99939E0,4.4495525E0,6.007113E0,6.069708E0,7.1879387E-1,0E0,0E0,0E0,0E0,0E0,0E0,0E0,0E0],"parents":[2147483647,0,0,1,1,2,2,3,3,4,4,5,5,6,6],"right_children":[2,4,6,8,10,12,14,-1,-1,-1,-1,-1,-1,-1,-1],"split_conditions":[8.275E1,1.5015608E3,8.79E1,2.7777778E-2,-1.6024405E1,1.7E0,-1.01E1,2.8037135E-2,7.155723E-3,-1.4463006E-2,8.334908E-3,8.331493E-3,-1.2298441E-2,-1.575519E-2,-3.700765E-2],"split_indices":[7,1,5,12,2,9,15,0,0,0,0,0,0,0,0],"split_type":[0,0,0,0,0,0,0,0,0,0,0,0,0,0,0],"sum_hessian":[1.5198906E2,8.501045E1,6.697861E1,4.5326298E1,3.968415E1,5.621397E1,1.0764642E1,1.2346912E1,3.2979385E1,1.990373E1,1.9780422E1,1.8315704E1,3.7898262E1,5.0223103E0,5.742331E0],"tree_param":{"num_deleted":"0","num_feature":"31","num_nodes":"15","size_leaf_vector":"1"}},{"base_weights":[3.2742977E-2,-4.3928853E-1,1.3777325E-1,-6.053757E-1,8.091551E-3,-1.9941773E-2,1.7678216E-1,-2.2282288E-3,-2.5869217E-2,1.6605051E-2,2.344838E-3],"categories":[],"categories_nodes":[],"categories_segments":[],"categories_sizes":[],"default_left":[0,0,0,0,0,0,0,0,0,0,0],"id":46,"left_children":[1,3,5,7,-1,-1,9,-1,-1,-1,-1],"loss_changes":[7.6784105E0,3.4846687E0,4.075992E0,3.0963526E0,0E0,0E0,4.466245E0,0E0,0E0,0E0,0E0],"parents":[2147483647,0,0,1,1,2,2,3,3,6,6],"right_children":[2,4,6,8,-1,-1,10,-1,-1,-1,-1],"split_conditions":[-8.2E0,8.21E1,5E0,-8.5E0,8.091551E-3,-1.9941773E-2,7.81E1,-2.2282288E-3,-2.5869217E-2,1.6605051E-2,2.344838E-3],"split_indices":[15,4,16,13,0,0,4,0,0,0,0],"split_type":[0,0,0,0,0,0,0,0,0,0,0],"sum_hessian":[1.5265585E2,2.7205454E1,1.254504E2,2.216046E1,5.0449953E0,5.071807E0,1.2037859E2,7.6455274E0,1.4514932E1,2.4018497E1,9.636009E1],"tree_param":{"num_deleted":"0","num_feature":"31","num_nodes":"11","size_leaf_vector":"1"}},{"base_weights":[-2.088915E-2,-1.7340478E-1,2.643578E-1,-6.2633954E-2,-6.7503726E-1,1.409047E-1,3.370492E-2,6.418065E-4,-2.5026267E-2,-2.8231036E-2,-3.7480916E-3,2.2390913E-2,-1.8166848E-3],"categories":[],"categories_nodes":[],"categories_segments":[],"categories_sizes":[],"default_left":[0,0,0,0,0,0,0,0,0,0,0,0,0],"id":47,"left_children":[1,3,5,7,9,11,-1,-1,-1,-1,-1,-1,-1],"loss_changes":[6.736342E0,5.5595E0,5.5665393E0,5.4431176E0,2.5356913E0,5.9412336E0,0E0,0E0,0E0,0E0,0E0,0E0,0E0],"parents":[2147483647,0,0,1,1,2,2,3,3,4,4,5,5],"right_children":[2,4,6,8,10,12,-1,-1,-1,-1,-1,-1,-1],"split_conditions":[1.5298064E3,8.63E1,1.42E1,1.5829957E3,-2E-1,7.78E1,3.370492E-2,6.418065E-4,-2.5026267E-2,-2.8231036E-2,-3.7480916E-3,2.2390913E-2,-1.8166848E-3],"split_indices":[0,5,15,1,13,8,0,0,0,0,0,0,0],"split_type":[0,0,0,0,0,0,0,0,0,0,0,0,0],"sum_hessian":[1.527883E2,9.9812645E1,5.2975666E1,8.268004E1,1.7132603E1,4.7337555E1,5.63811E0,7.5436935E1,7.2431016E0,1.1069412E1,6.063191E0,1.1143312E1,3.619424E1],"tree_param":{"num_deleted":"0","num_feature":"31","num_nodes":"13","size_leaf_vector":"1"}},{"base_weights":[-7.1815574E-3,-7.735718E-2,6.606077E-1,1.1153732E-2,-6.22997E-1,2.9481413E-2,9.137136E-3,-2.229038E-2,2.4823102E-3,-3.0591613E-2,-4.922827E-3],"categories":[],"categories_nodes":[],"categories_segments":[],"categories_sizes":[],"default_left":[0,0,0,0,1,0,0,0,0,0,0],"id":48,"left_children":[1,3,5,7,9,-1,-1,-1,-1,-1,-1],"loss_changes":[7.16521E0,6.6845756E0,1.3682523E0,6.5377307E0,3.34931E0,0E0,0E0,0E0,0E0,0E0,0E0],"parents":[2147483647,0,0,1,1,2,2,3,3,4,4],"right_children":[2,4,6,8,10,-1,-1,-1,-1,-1,-1],"split_conditions":[1.3330759E2,8.83E1,7.885714E1,7.53E1,0E0,2.9481413E-2,9.137136E-3,-2.229038E-2,2.4823102E-3,-3.0591613E-2,-4.922827E-3],"split_indices":[2,5,5,5,13,0,0,0,0,0,0],"split_type":[0,0,0,0,0,0,0,0,0,0,0],"sum_hessian":[1.5080801E2,1.3726724E2,1.3540773E1,1.1895116E2,1.8316093E1,6.1850295E0,7.355744E0,9.499513E0,1.0945164E2,9.168124E0,9.147969E0],"tree_param":{"num_deleted":"0","num_feature":"31","num_nodes":"11","size_leaf_vector":"1"}},{"base_weights":[4.300376E-2,1.2914914E-1,-5.402404E-1,-2.3811493E-2,4.014003E-1,-8.4737855E-1,-2.3714313E-3,-8.297772E-3,5.2547758E-3,3.2787148E-2,7.5442027E-3,-1.4557746E-2,-3.2209743E-2],"categories":[],"categories_nodes":[],"categories_segments":[],"categories_sizes":[],"default_left":[0,0,1,0,1,0,0,0,0,0,0,0,0],"id":49,"left_children":[1,3,5,7,9,11,-1,-1,-1,-1,-1,-1,-1],"loss_changes":[7.822022E0,5.641597E0,2.7729893E0,4.451187E0,4.7748537E0,4.5668983E-1,0E0,0E0,0E0,0E0,0E0,0E0,0E0],"parents":[2147483647,0,0,1,1,2,2,3,3,4,4,5,5],"right_children":[2,4,6,8,10,12,-1,-1,-1,-1,-1,-1,-1],"split_conditions":[8.83E1,8.37E1,9.02E1,-1.6024405E1,0E0,-3.9454777E1,-2.3714313E-3,-8.297772E-3,5.2547758E-3,3.2787148E-2,7.5442027E-3,-1.4557746E-2,-3.2209743E-2],"split_indices":[5,8,5,2,12,2,0,0,0,0,0,0,0],"split_type":[0,0,0,0,0,0,0,0,0,0,0,0,0],"sum_hessian":[1.532927E2,1.3424345E2,1.904924E1,8.653658E1,4.770687E1,1.0931729E1,8.117511E0,3.794258E1,4.8593998E1,7.3797617E0,4.032711E1,5.4132657E0,5.5184636E0],"tree_param":{"num_deleted":"0","num_feature":"31","num_nodes":"13","size_leaf_vector":"1"}},{"base_weights":[1.4192334E-2,-1.4645961E-1,2.807194E-1,-2.2433897E-2,-8.14425E-2,4.557306E-1,-1.09072864E-1,-9.367112E-3,3.7093991E-3,2.211259E-2,4.6761306E-3,-1.1831934E-2,1.3856477E-2],"categories":[],"categories_nodes":[],"categories_segments":[],"categories_sizes":[],"default_left":[0,0,0,0,0,0,0,0,0,0,0,0,0],"id":50,"left_children":[1,3,5,-1,7,9,11,-1,-1,-1,-1,-1,-1],"loss_changes":[6.596244E0,3.699278E0,4.0007143E0,0E0,4.1998563E0,3.2736406E0,3.2372205E0,0E0,0E0,0E0,0E0,0E0,0E0],"parents":[2147483647,0,0,1,1,2,2,4,4,5,5,6,6],"right_children":[2,4,6,-1,8,10,12,-1,-1,-1,-1,-1,-1],"split_conditions":[6.4417887E-1,7E0,8.275E1,-2.2433897E-2,5.251778E-1,8.08E1,8.58E1,-9.367112E-3,3.7093991E-3,2.211259E-2,4.6761306E-3,-1.1831934E-2,1.3856477E-2],"split_indices":[3,17,7,0,3,5,7,0,0,0,0,0,0],"split_type":[0,0,0,0,0,0,0,0,0,0,0,0,0],"sum_hessian":[1.5209254E2,9.517519E1,5.6917347E1,8.261729E0,8.691347E1,3.916407E1,1.7753275E1,4.0648132E1,4.626533E1,1.9453194E1,1.9710878E1,1.2043819E1,5.7094545E0],"tree_param":{"num_deleted":"0","num_feature":"31","num_nodes":"13","size_leaf_vector":"1"}},{"base_weights":[2.5451167E-2,-1.4970954E-1,3.6404672E-1,-2.6851857E-2,-7.8590494E-1,2.9319594E-2,2.0229337E-1,3.929397E-3,-9.019268E-3,-2.8981533E-2,-1.18403975E-2,2.4209421E-2,-8.643316E-4],"categories":[],"categories_nodes":[],"categories_segments":[],"categories_sizes":[],"default_left":[0,1,0,1,0,0,0,0,0,0,0,0,0],"id":51,"left_children":[1,3,5,7,9,-1,11,-1,-1,-1,-1,-1,-1],"loss_changes":[9.121315E0,7.9093404E0,5.001595E0,3.7589357E0,7.73633E-1,0E0,5.995282E0,0E0,0E0,0E0,0E0,0E0,0E0],"parents":[2147483647,0,0,1,1,2,2,3,3,4,4,6,6],"right_children":[2,4,6,8,10,-1,12,-1,-1,-1,-1,-1,-1],"split_conditions":[1.5287668E3,8.68E1,4E-1,5E-1,-7.5E0,2.9319594E-2,7.74E1,3.929397E-3,-9.019268E-3,-2.8981533E-2,-1.18403975E-2,2.4209421E-2,-8.643316E-4],"split_indices":[0,5,11,10,15,0,8,0,0,0,0,0,0],"split_type":[0,0,0,0,0,0,0,0,0,0,0,0,0],"sum_hessian":[1.518751E2,1.0046227E2,5.1412834E1,8.5075325E1,1.5386954E1,9.677903E0,4.1734932E1,5.42966E1,3.0778719E1,9.5295925E0,5.8573613E0,1.08510895E1,3.0883842E1],"tree_param":{"num_deleted":"0","num_feature":"31","num_nodes":"13","size_leaf_vector":"1"}},{"base_weights":[-1.2315416E-2,-1.7404492E-1,3.6539584E-1,4.442093E-2,-4.65293E-1,5.2715117E-1,-9.089495E-3,4.2655035E-3,-2.1333005E-2,-1.8373486E-2,1.7419638E-6,-5.2481185E-4,2.3273708E-2],"categories":[],"categories_nodes":[],"categories_segments":[],"categories_sizes":[],"default_left":[0,0,0,1,0,0,0,0,0,0,0,0,0],"id":52,"left_children":[1,3,5,7,9,11,-1,-1,-1,-1,-1,-1,-1],"loss_changes":[9.367504E0,6.8492227E0,5.1313725E0,4.6979003E0,3.155923E0,5.076909E0,0E0,0E0,0E0,0E0,0E0,0E0,0E0],"parents":[2147483647,0,0,1,1,2,2,3,3,4,4,5,5],"right_children":[2,4,6,8,10,12,-1,-1,-1,-1,-1,-1,-1],"split_conditions":[1.5456658E3,1.5032268E3,8.26E1,9.8E0,8.28E1,-1.6E0,-9.089495E-3,4.2655035E-3,-2.1333005E-2,-1.8373486E-2,1.7419638E-6,-5.2481185E-4,2.3273708E-2],"split_indices":[0,1,7,15,8,6,0,0,0,0,0,0,0],"split_type":[0,0,0,0,0,0,0,0,0,0,0,0,0],"sum_hessian":[1.5130571E2,1.0632036E2,4.4985348E1,6.1235188E1,4.5085175E1,3.638988E1,8.595468E0,5.4938137E1,6.297048E0,3.4013187E1,1.1071987E1,1.1697062E1,2.469282E1],"tree_param":{"num_deleted":"0","num_feature":"31","num_nodes":"13","size_leaf_vector":"1"}},{"base_weights":[-3.3643704E-2,2.6435986E-1,-1.7230284E-1,-9.480704E-3,3.9875475E-1,-3.346332E-1,1.9343346E-1,2.535752E-2,6.8676933E-3,-4.7132564E-3,-1.74008E-2,1.87791E-2,-3.981383E-3],"categories":[],"categories_nodes":[],"categories_segments":[],"categories_sizes":[],"default_left":[0,0,0,0,0,1,0,0,0,0,0,0,0],"id":53,"left_children":[1,3,5,-1,7,9,11,-1,-1,-1,-1,-1,-1],"loss_changes":[6.2414947E0,3.870758E0,6.1761546E0,0E0,2.7960262E0,3.0306454E0,4.6364365E0,0E0,0E0,0E0,0E0,0E0,0E0],"parents":[2147483647,0,0,1,1,2,2,4,4,5,5,6,6],"right_children":[2,4,6,-1,8,10,12,-1,-1,-1,-1,-1,-1],"split_conditions":[-3.3E0,7.54E1,1.5456658E3,-9.480704E-3,7.68E1,5E-1,1.5907683E3,2.535752E-2,6.8676933E-3,-4.7132564E-3,-1.74008E-2,1.87791E-2,-3.981383E-3],"split_indices":[14,5,0,0,5,10,0,0,0,0,0,0,0],"split_type":[0,0,0,0,0,0,0,0,0,0,0,0,0],"sum_hessian":[1.4894693E2,4.7009174E1,1.0193776E2,8.584711E0,3.8424465E1,7.066048E1,3.127728E1,9.492146E0,2.8932318E1,4.1951668E1,2.8708809E1,1.3050437E1,1.8226843E1],"tree_param":{"num_deleted":"0","num_feature":"31","num_nodes":"13","size_leaf_vector":"1"}},{"base_weights":[-1.15959095E-2,1.6368672E-1,-2.3595515E-1,5.60935E-2,7.43084E-1,-1.2916641E-1,-7.398222E-1,-1.2697997E-3,2.2544878E-2,3.2389686E-2,5.2243113E-3,-1.1461851E-2,4.6508987E-3,-1.0253967E-2,-3.0268725E-2],"categories":[],"categories_nodes":[],"categories_segments":[],"categories_sizes":[],"default_left":[1,1,0,0,0,0,0,0,0,0,0,0,0,0,0],"id":54,"left_children":[1,3,5,7,9,11,13,-1,-1,-1,-1,-1,-1,-1,-1],"loss_changes":[6.0487914E0,5.3437004E0,3.5332043E0,5.092399E0,2.3871517E0,4.1457167E0,8.9583683E-1,0E0,0E0,0E0,0E0,0E0,0E0,0E0,0E0],"parents":[2147483647,0,0,1,1,2,2,3,3,4,4,5,5,6,6],"right_children":[2,4,6,8,10,12,14,-1,-1,-1,-1,-1,-1,-1,-1],"split_conditions":[8.275E1,8.19E1,8.65E1,1.4082805E2,1.5190093E3,8.05E1,-8.1E0,-1.2697997E-3,2.2544878E-2,3.2389686E-2,5.2243113E-3,-1.1461851E-2,4.6508987E-3,-1.0253967E-2,-3.0268725E-2],"split_indices":[7,7,5,2,1,5,6,0,0,0,0,0,0,0,0],"split_type":[0,0,0,0,0,0,0,0,0,0,0,0,0,0,0],"sum_hessian":[1.5182831E2,8.538834E1,6.643997E1,7.294026E1,1.2448085E1,5.585789E1,1.0582077E1,6.4719635E1,8.220622E0,7.257218E0,5.1908674E0,2.9374401E1,2.6483492E1,5.1845913E0,5.397486E0],"tree_param":{"num_deleted":"0","num_feature":"31","num_nodes":"15","size_leaf_vector":"1"}},{"base_weights":[2.7110757E-2,2.3781016E-1,-2.340766E-1,-1.621544E-2,3.121818E-1,9.1378994E-2,-4.425589E-1,4.536441E-3,1.7911483E-2,-5.313524E-3,1.9701384E-2,7.821073E-3,-2.0063518E-2],"categories":[],"categories_nodes":[],"categories_segments":[],"categories_sizes":[],"default_left":[0,0,0,0,0,0,0,0,0,0,0,0,0],"id":55,"left_children":[1,3,5,-1,7,9,11,-1,-1,-1,-1,-1,-1],"loss_changes":[8.619439E0,5.1832213E0,4.7891397E0,0E0,3.5645905E0,4.390099E0,6.988494E0,0E0,0E0,0E0,0E0,0E0,0E0],"parents":[2147483647,0,0,1,1,2,2,4,4,5,5,6,6],"right_children":[2,4,6,-1,8,10,12,-1,-1,-1,-1,-1,-1],"split_conditions":[8.275E1,-1.0736997E2,-2.3E0,-1.621544E-2,8.014286E1,7.94E1,7.66E1,4.536441E-3,1.7911483E-2,-5.313524E-3,1.9701384E-2,7.821073E-3,-2.0063518E-2],"split_indices":[7,2,14,0,7,5,8,0,0,0,0,0,0],"split_type":[0,0,0,0,0,0,0,0,0,0,0,0,0],"sum_hessian":[1.5461435E2,8.562794E1,6.898641E1,6.921743E0,7.87062E1,2.7155872E1,4.183054E1,5.1267723E1,2.7438475E1,1.8877163E1,8.278709E0,1.0143924E1,3.1686617E1],"tree_param":{"num_deleted":"0","num_feature":"31","num_nodes":"13","size_leaf_vector":"1"}},{"base_weights":[2.4996467E-3,1.8828763E-1,-2.4469934E-1,-4.6238568E-2,4.388008E-1,-1.4243187E-1,-2.4227343E-2,1.1535673E-2,-9.013882E-3,-9.492054E-3,1.6607368E-2,-1.2672322E-2,3.034787E-3],"categories":[],"categories_nodes":[],"categories_segments":[],"categories_sizes":[],"default_left":[1,0,0,1,0,0,0,0,0,0,0,0,0],"id":56,"left_children":[1,3,5,7,9,11,-1,-1,-1,-1,-1,-1,-1],"loss_changes":[6.924523E0,5.0771503E0,3.6093235E0,5.0827765E0,3.7908316E0,3.8596096E0,0E0,0E0,0E0,0E0,0E0,0E0,0E0],"parents":[2147483647,0,0,1,1,2,2,3,3,4,4,5,5],"right_children":[2,4,6,8,10,12,-1,-1,-1,-1,-1,-1,-1],"split_conditions":[8.28E1,1.5287668E3,8.79E1,-2.3E0,-1.1872706E1,7.99E1,-2.4227343E-2,1.1535673E-2,-9.013882E-3,-9.492054E-3,1.6607368E-2,-1.2672322E-2,3.034787E-3],"split_indices":[7,0,5,13,2,5,0,0,0,0,0,0,0],"split_type":[0,0,0,0,0,0,0,0,0,0,0,0,0],"sum_hessian":[1.487705E2,8.507144E1,6.3699047E1,4.4358856E1,4.0712585E1,5.4965588E1,8.733462E0,1.6273045E1,2.8085812E1,5.1395283E0,3.5573055E1,2.5231237E1,2.9734348E1],"tree_param":{"num_deleted":"0","num_feature":"31","num_nodes":"13","size_leaf_vector":"1"}},{"base_weights":[-2.074821E-2,-4.766958E-1,7.808119E-2,3.5739827E-3,-7.3983777E-1,1.3099844E-2,5.9805775E-1,-3.10916E-2,-1.0933404E-2,1.16059575E-2,-3.0135375E-3,4.6053664E-3,3.2141965E-2],"categories":[],"categories_nodes":[],"categories_segments":[],"categories_sizes":[],"default_left":[0,0,0,0,0,1,0,0,0,0,0,0,0],"id":57,"left_children":[1,3,5,-1,7,9,11,-1,-1,-1,-1,-1,-1],"loss_changes":[6.833245E0,4.322639E0,4.2093544E0,0E0,1.7232485E0,4.7909436E0,2.7482758E0,0E0,0E0,0E0,0E0,0E0,0E0],"parents":[2147483647,0,0,1,1,2,2,4,4,5,5,6,6],"right_children":[2,4,6,-1,8,10,12,-1,-1,-1,-1,-1,-1],"split_conditions":[-8.2E0,7.58E1,1.3330759E2,3.5739827E-3,3E0,7.81E1,1.2E1,-3.10916E-2,-1.0933404E-2,1.16059575E-2,-3.0135375E-3,4.6053664E-3,3.2141965E-2],"split_indices":[15,8,2,0,19,4,15,0,0,0,0,0,0],"split_type":[0,0,0,0,0,0,0,0,0,0,0,0,0],"sum_hessian":[1.4981824E2,2.600789E1,1.2381034E2,8.13506E0,1.787283E1,1.109679E2,1.2842439E1,9.001257E0,8.871573E0,2.5296112E1,8.567179E1,7.3055944E0,5.5368443E0],"tree_param":{"num_deleted":"0","num_feature":"31","num_nodes":"13","size_leaf_vector":"1"}},{"base_weights":[-8.975071E-3,-2.4360384E-1,1.8713328E-1,-3.6455985E-2,-5.7770336E-1,2.460615E-2,1.2344522E-1,-1.0750695E-2,1.3985578E-2,-2.9496998E-2,-9.912516E-3,7.439644E-3,-1.0549857E-2],"categories":[],"categories_nodes":[],"categories_segments":[],"categories_sizes":[],"default_left":[0,0,0,0,0,0,0,0,0,0,0,0,0],"id":58,"left_children":[1,3,5,7,9,-1,11,-1,-1,-1,-1,-1,-1],"loss_changes":[6.8668537E0,4.680199E0,3.1774259E0,7.1242676E0,2.2755136E0,0E0,4.528741E0,0E0,0E0,0E0,0E0,0E0,0E0],"parents":[2147483647,0,0,1,1,2,2,3,3,4,4,6,6],"right_children":[2,4,6,8,10,-1,12,-1,-1,-1,-1,-1,-1],"split_conditions":[-7.8854413E0,8.51E1,7.59E1,8.13E1,1.5697526E3,2.460615E-2,2.2E0,-1.0750695E-2,1.3985578E-2,-2.9496998E-2,-9.912516E-3,7.439644E-3,-1.0549857E-2],"split_indices":[2,5,8,5,1,0,9,0,0,0,0,0,0],"split_type":[0,0,0,0,0,0,0,0,0,0,0,0,0],"sum_hessian":[1.472476E2,6.692943E1,8.031818E1,4.1998627E1,2.4930805E1,6.2558026E0,7.406238E1,2.5777393E1,1.6221231E1,8.316424E0,1.661438E1,5.9058914E1,1.500346E1],"tree_param":{"num_deleted":"0","num_feature":"31","num_nodes":"13","size_leaf_vector":"1"}},{"base_weights":[5.2725417E-3,-6.946083E-2,6.579213E-1,1.0902953E-1,-2.6932773E-1,2.8606723E-3,3.2942284E-2,-6.631647E-4,1.8330269E-2,-1.657627E-2,-1.2049362E-3],"categories":[],"categories_nodes":[],"categories_segments":[],"categories_sizes":[],"default_left":[0,0,1,0,0,0,0,0,0,0,0],"id":59,"left_children":[1,3,5,7,9,-1,-1,-1,-1,-1,-1],"loss_changes":[7.4459686E0,4.9181604E0,3.7789078E0,4.825659E0,4.1923547E0,0E0,0E0,0E0,0E0,0E0,0E0],"parents":[2147483647,0,0,1,1,2,2,3,3,4,4],"right_children":[2,4,6,8,10,-1,-1,-1,-1,-1,-1],"split_conditions":[1.2E1,8.275E1,8.51E1,8.17E1,8.53E1,2.8606723E-3,3.2942284E-2,-6.631647E-4,1.8330269E-2,-1.657627E-2,-1.2049362E-3],"split_indices":[15,7,4,7,7,0,0,0,0,0,0],"split_type":[0,0,0,0,0,0,0,0,0,0,0],"sum_hessian":[1.507237E2,1.3603966E2,1.46840315E1,7.210292E1,6.3936745E1,6.97977E0,7.704261E0,5.7926422E1,1.4176496E1,2.7964853E1,3.5971893E1],"tree_param":{"num_deleted":"0","num_feature":"31","num_nodes":"11","size_leaf_vector":"1"}},{"base_weights":[-7.451018E-3,1.7362224E-1,-2.4968229E-1,4.098737E-1,-8.226243E-2,2.5564749E-2,-4.3021467E-1,1.921134E-3,2.1590354E-2,-1.0166655E-2,1.027353E-2,-4.8942245E-3,1.8776927E-2,-2.2577204E-2,-4.684494E-3],"categories":[],"categories_nodes":[],"categories_segments":[],"categories_sizes":[],"default_left":[1,0,0,0,1,0,0,0,0,0,0,0,0,0,0],"id":60,"left_children":[1,3,5,7,9,11,13,-1,-1,-1,-1,-1,-1,-1,-1],"loss_changes":[6.7107773E0,5.3279705E0,3.262498E0,4.8505125E0,4.789005E0,3.145225E0,3.3785772E0,0E0,0E0,0E0,0E0,0E0,0E0,0E0,0E0],"parents":[2147483647,0,0,1,1,2,2,3,3,4,4,5,5,6,6],"right_children":[2,4,6,8,10,12,14,-1,-1,-1,-1,-1,-1,-1,-1],"split_conditions":[8.275E1,1.5E3,-2.3E0,7.91E1,6E0,8.06E1,8.52E1,1.921134E-3,2.1590354E-2,-1.0166655E-2,1.027353E-2,-4.8942245E-3,1.8776927E-2,-2.2577204E-2,-4.684494E-3],"split_indices":[7,1,14,7,13,5,7,0,0,0,0,0,0,0,0],"split_type":[0,0,0,0,0,0,0,0,0,0,0,0,0,0,0],"sum_hessian":[1.5101054E2,8.657617E1,6.443437E1,4.4702114E1,4.1874054E1,2.5862202E1,3.8572174E1,2.1692938E1,2.3009178E1,2.6228184E1,1.564587E1,2.0231108E1,5.631094E0,1.6922148E1,2.1650024E1],"tree_param":{"num_deleted":"0","num_feature":"31","num_nodes":"15","size_leaf_vector":"1"}},{"base_weights":[2.5802073E-3,8.713551E-2,-5.8091E-1,-6.1674308E-2,3.52774E-1,-1.7897454E-1,-3.3486392E-2,1.7255298E-3,-1.54866865E-2,5.4104803E-3,2.4058826E-2,6.953612E-3,-1.6985863E-2],"categories":[],"categories_nodes":[],"categories_segments":[],"categories_sizes":[],"default_left":[0,0,0,0,0,0,0,0,0,0,0,0,0],"id":61,"left_children":[1,3,5,7,9,11,-1,-1,-1,-1,-1,-1,-1],"loss_changes":[7.48156E0,5.256325E0,3.9299555E0,4.6742015E0,3.549419E0,2.064334E0,0E0,0E0,0E0,0E0,0E0,0E0,0E0],"parents":[2147483647,0,0,1,1,2,2,3,3,4,4,5,5],"right_children":[2,4,6,8,10,12,-1,-1,-1,-1,-1,-1,-1],"split_conditions":[8.83E1,8.37E1,8.4E1,8.41E1,1.4949973E3,5.341753E-1,-3.3486392E-2,1.7255298E-3,-1.54866865E-2,5.4104803E-3,2.4058826E-2,6.953612E-3,-1.6985863E-2],"split_indices":[5,8,7,5,1,3,0,0,0,0,0,0,0],"split_type":[0,0,0,0,0,0,0,0,0,0,0,0,0],"sum_hessian":[1.4961543E2,1.3142142E2,1.8194004E1,8.472601E1,4.669541E1,1.11536E1,7.040404E0,6.7816574E1,1.6909437E1,3.4755634E1,1.1939776E1,5.607067E0,5.5465326E0],"tree_param":{"num_deleted":"0","num_feature":"31","num_nodes":"13","size_leaf_vector":"1"}},{"base_weights":[-3.7656333E-2,1.3903435E-1,-2.729485E-1,2.9999094E-2,6.722868E-2,6.416014E-2,-4.44257E-1,-1.6032873E-3,1.868629E-2,2.3740027E-2,-6.5681543E-3,4.835613E-3,-1.8892981E-2],"categories":[],"categories_nodes":[],"categories_segments":[],"categories_sizes":[],"default_left":[0,0,0,0,0,0,0,0,0,0,0,0,0],"id":62,"left_children":[1,3,5,-1,7,9,11,-1,-1,-1,-1,-1,-1],"loss_changes":[6.3007283E0,5.292408E0,3.779027E0,0E0,5.4707923E0,4.857962E0,4.9521933E0,0E0,0E0,0E0,0E0,0E0,0E0],"parents":[2147483647,0,0,1,1,2,2,4,4,5,5,6,6],"right_children":[2,4,6,-1,8,10,12,-1,-1,-1,-1,-1,-1],"split_conditions":[8.275E1,1.4127078E3,-3.4E0,2.9999094E-2,8.175E1,7.81E1,7.66E1,-1.6032873E-3,1.868629E-2,2.3740027E-2,-6.5681543E-3,4.835613E-3,-1.8892981E-2],"split_indices":[7,1,14,0,7,4,8,0,0,0,0,0,0],"split_type":[0,0,0,0,0,0,0,0,0,0,0,0,0],"sum_hessian":[1.4964197E2,8.5697365E1,6.394461E1,5.6021876E0,8.009518E1,2.1756548E1,4.218806E1,6.654683E1,1.3548346E1,5.593552E0,1.6162996E1,9.92548E0,3.226258E1],"tree_param":{"num_deleted":"0","num_feature":"31","num_nodes":"13","size_leaf_vector":"1"}},{"base_weights":[-1.6581412E-2,1.664258E-1,-2.5641987E-1,9.314925E-2,2.2106923E-2,-1.01601794E-1,-6.790831E-1,-5.362185E-4,1.8486999E-2,-1.8720835E-2,3.4114704E-3,-1.2185778E-2,-2.9280676E-2],"categories":[],"categories_nodes":[],"categories_segments":[],"categories_sizes":[],"default_left":[1,0,0,1,0,0,0,0,0,0,0,0,0],"id":63,"left_children":[1,3,5,7,-1,9,11,-1,-1,-1,-1,-1,-1],"loss_changes":[6.512113E0,3.451453E0,4.131043E0,4.41119E0,0E0,5.487666E0,9.836569E-1,0E0,0E0,0E0,0E0,0E0,0E0],"parents":[2147483647,0,0,1,1,2,2,3,3,5,5,6,6],"right_children":[2,4,6,8,-1,10,12,-1,-1,-1,-1,-1,-1],"split_conditions":[8.28E1,1.4082805E2,8.3875E1,8.19E1,2.2106923E-2,1.4325383E3,1.4967511E3,-5.362185E-4,1.8486999E-2,-1.8720835E-2,3.4114704E-3,-1.2185778E-2,-2.9280676E-2],"split_indices":[7,2,5,7,0,0,0,0,0,0,0,0,0],"split_type":[0,0,0,0,0,0,0,0,0,0,0,0,0],"sum_hessian":[1.4639392E2,8.320838E1,6.318553E1,7.4767815E1,8.440569E0,4.715385E1,1.6031681E1,6.2473755E1,1.2294059E1,1.3208301E1,3.394555E1,9.588071E0,6.4436107E0],"tree_param":{"num_deleted":"0","num_feature":"31","num_nodes":"13","size_leaf_vector":"1"}},{"base_weights":[2.2003388E-2,-1.4644776E-2,2.0450603E-2,4.6882957E-1,-6.4498626E-2,2.3707185E-2,1.57389E-3,4.7825715E-3,-5.146362E-3],"categories":[],"categories_nodes":[],"categories_segments":[],"categories_sizes":[],"default_left":[0,1,0,1,0,0,0,0,0],"id":64,"left_children":[1,3,-1,5,7,-1,-1,-1,-1],"loss_changes":[3.618455E0,3.4620514E0,0E0,1.7558348E0,3.1422186E0,0E0,0E0,0E0,0E0],"parents":[2147483647,0,0,1,1,3,3,4,4],"right_children":[2,4,-1,6,8,-1,-1,-1,-1],"split_conditions":[1.6408202E3,7.52E1,2.0450603E-2,-4.5E0,-3.3E0,2.3707185E-2,1.57389E-3,4.7825715E-3,-5.146362E-3],"split_indices":[0,7,0,6,14,0,0,0,0],"split_type":[0,0,0,0,0,0,0,0,0],"sum_hessian":[1.4825728E2,1.4138078E2,6.8764915E0,1.2430245E1,1.2895053E2,6.5082936E0,5.9219522E0,4.1549377E1,8.740116E1],"tree_param":{"num_deleted":"0","num_feature":"31","num_nodes":"9","size_leaf_vector":"1"}},{"base_weights":[2.4790384E-2,1.0645848E-1,-5.2719194E-1,2.3858326E-2,5.8025336E-1,-8.207412E-1,3.2759164E-3,-2.55217E-3,1.0053662E-2,3.102229E-2,6.7158323E-3,-1.294062E-2,-3.6746982E-2],"categories":[],"categories_nodes":[],"categories_segments":[],"categories_sizes":[],"default_left":[0,0,0,0,0,1,0,0,0,0,0,0,0],"id":65,"left_children":[1,3,5,7,9,11,-1,-1,-1,-1,-1,-1,-1],"loss_changes":[6.819042E0,5.1332164E0,3.7331357E0,3.86116E0,2.9194903E0,1.5905924E0,0E0,0E0,0E0,0E0,0E0,0E0,0E0],"parents":[2147483647,0,0,1,1,2,2,3,3,4,4,5,5],"right_children":[2,4,6,8,10,12,-1,-1,-1,-1,-1,-1,-1],"split_conditions":[8.82E1,8.65E1,1.6094249E3,1.5570669E3,8.77E1,-2E0,3.2759164E-3,-2.55217E-3,1.0053662E-2,3.102229E-2,6.7158323E-3,-1.294062E-2,-3.6746982E-2],"split_indices":[5,8,1,0,8,9,0,0,0,0,0,0,0],"split_type":[0,0,0,0,0,0,0,0,0,0,0,0,0],"sum_hessian":[1.4902255E2,1.3051886E2,1.850368E1,1.1203699E2,1.8481878E1,1.2464469E1,6.0392103E0,8.353096E1,2.8506025E1,7.293265E0,1.1188614E1,7.401126E0,5.0633426E0],"tree_param":{"num_deleted":"0","num_feature":"31","num_nodes":"13","size_leaf_vector":"1"}},{"base_weights":[4.3652393E-2,-7.1649663E-3,3.0368846E-2,6.228456E-2,-4.8663306E-1,3.6875925E-3,-1.6921636E-2,-3.7423836E-3,-3.1251796E-2],"categories":[],"categories_nodes":[],"categories_segments":[],"categories_sizes":[],"default_left":[0,0,0,0,1,0,0,0,0],"id":66,"left_children":[1,3,-1,5,7,-1,-1,-1,-1],"loss_changes":[7.3353944E0,4.7735877E0,0E0,4.8283796E0,3.513194E0,0E0,0E0,0E0,0E0],"parents":[2147483647,0,0,1,1,3,3,4,4],"right_children":[2,4,-1,6,8,-1,-1,-1,-1],"split_conditions":[1.6408202E3,8.83E1,3.0368846E-2,1.5969521E3,8.4E1,3.6875925E-3,-1.6921636E-2,-3.7423836E-3,-3.1251796E-2],"split_indices":[0,5,0,1,7,0,0,0,0],"split_type":[0,0,0,0,0,0,0,0,0],"sum_hessian":[1.4787378E2,1.4144579E2,6.4279895E0,1.2430996E2,1.713583E1,1.14070656E2,1.02393055E1,1.11145525E1,6.0212774E0],"tree_param":{"num_deleted":"0","num_feature":"31","num_nodes":"9","size_leaf_vector":"1"}},{"base_weights":[-1.442368E-2,-6.993083E-2,5.5506384E-1,-4.147158E-3,-4.8792797E-1,4.0972806E-3,3.0922929E-2,-4.8829615E-3,6.0822405E-3,-3.9307415E-3,-3.1049034E-2],"categories":[],"categories_nodes":[],"categories_segments":[],"categories_sizes":[],"default_left":[0,0,0,0,1,0,0,0,0,0,0],"id":67,"left_children":[1,3,5,7,9,-1,-1,-1,-1,-1,-1],"loss_changes":[4.76208E0,3.7661605E0,2.5232854E0,3.9516678E0,3.5008621E0,0E0,0E0,0E0,0E0,0E0,0E0],"parents":[2147483647,0,0,1,1,2,2,3,3,4,4],"right_children":[2,4,6,8,10,-1,-1,-1,-1,-1,-1],"split_conditions":[1.3330759E2,8.83E1,1.2E1,8.15E1,-6.9E0,4.0972806E-3,3.0922929E-2,-4.8829615E-3,6.0822405E-3,-3.9307415E-3,-3.1049034E-2],"split_indices":[2,5,15,4,6,0,0,0,0,0,0],"split_type":[0,0,0,0,0,0,0,0,0,0,0],"sum_hessian":[1.4842012E2,1.360379E2,1.2382219E1,1.1841229E2,1.7625603E1,7.2719626E0,5.1102567E0,6.714587E1,5.1266426E1,1.14166155E1,6.2089863E0],"tree_param":{"num_deleted":"0","num_feature":"31","num_nodes":"11","size_leaf_vector":"1"}},{"base_weights":[1.4124465E-2,9.635317E-2,-5.965287E-1,-6.4483166E-2,3.306795E-1,-3.1834755E-2,-2.3744908E-1,1.1404549E-3,-2.84285E-2,2.4817646E-2,4.55751E-3,-2.4048813E-2,1.1370701E-2],"categories":[],"categories_nodes":[],"categories_segments":[],"categories_sizes":[],"default_left":[0,0,0,0,1,0,1,0,0,0,0,0,0],"id":68,"left_children":[1,3,5,7,9,-1,11,-1,-1,-1,-1,-1,-1],"loss_changes":[7.4304724E0,4.9309254E0,2.6785178E0,7.1042223E0,4.5954514E0,0E0,4.197815E0,0E0,0E0,0E0,0E0,0E0,0E0],"parents":[2147483647,0,0,1,1,2,2,3,3,4,4,6,6],"right_children":[2,4,6,8,10,-1,12,-1,-1,-1,-1,-1,-1],"split_conditions":[8.83E1,8.23E1,6.5E0,1.587338E3,8.414286E1,-3.1834755E-2,4E-1,1.1404549E-3,-2.84285E-2,2.4817646E-2,4.55751E-3,-2.4048813E-2,1.1370701E-2],"split_indices":[5,4,14,1,4,0,13,0,0,0,0,0,0],"split_type":[0,0,0,0,0,0,0,0,0,0,0,0,0],"sum_hessian":[1.4583374E2,1.2926898E2,1.6564758E1,7.708463E1,5.218435E1,6.3687353E0,1.0196022E1,6.992585E1,7.1587863E0,1.2852993E1,3.9331356E1,5.1669927E0,5.02903E0],"tree_param":{"num_deleted":"0","num_feature":"31","num_nodes":"13","size_leaf_vector":"1"}},{"base_weights":[2.1259421E-2,1.8042839E-1,-1.7391418E-1,-3.582783E-2,4.1832057E-1,1.5376315E-2,-2.525008E-1,3.6309573E-3,-2.600272E-2,3.0534077E-2,7.5846068E-3,-1.6627094E-2,6.2032643E-4],"categories":[],"categories_nodes":[],"categories_segments":[],"categories_sizes":[],"default_left":[0,0,0,0,0,0,1,0,0,0,0,0,0],"id":69,"left_children":[1,3,5,7,9,-1,11,-1,-1,-1,-1,-1,-1],"loss_changes":[4.578014E0,4.187458E0,3.703455E0,5.762319E0,3.5821962E0,0E0,4.966688E0,0E0,0E0,0E0,0E0,0E0,0E0],"parents":[2147483647,0,0,1,1,2,2,3,3,4,4,6,6],"right_children":[2,4,6,8,10,-1,12,-1,-1,-1,-1,-1,-1],"split_conditions":[8.275E1,1.5287668E3,7.52E1,4.1E0,4E-1,1.5376315E-2,8.53E1,3.6309573E-3,-2.600272E-2,3.0534077E-2,7.5846068E-3,-1.6627094E-2,6.2032643E-4],"split_indices":[7,0,8,13,11,0,7,0,0,0,0,0,0],"split_type":[0,0,0,0,0,0,0,0,0,0,0,0,0],"sum_hessian":[1.4535602E2,8.010441E1,6.525161E1,4.2405254E1,3.7699158E1,6.1355195E0,5.911609E1,3.6390022E1,6.01523E0,7.0418906E0,3.0657267E1,2.7600958E1,3.1515131E1],"tree_param":{"num_deleted":"0","num_feature":"31","num_nodes":"13","size_leaf_vector":"1"}},{"base_weights":[1.6394312E-2,4.8101398E-1,-3.9558925E-2,8.5704036E-5,3.154532E-2,-2.547097E-1,1.5521742E-1,-5.0111515E-3,-3.165179E-2,1.9359045E-2,-8.5494416E-5],"categories":[],"categories_nodes":[],"categories_segments":[],"categories_sizes":[],"default_left":[0,0,1,0,0,0,1,0,0,0,0],"id":70,"left_children":[1,3,5,-1,-1,7,9,-1,-1,-1,-1],"loss_changes":[3.8360555E0,4.322693E0,5.569841E0,0E0,0E0,4.2501736E0,5.4155784E0,0E0,0E0,0E0,0E0],"parents":[2147483647,0,0,1,1,2,2,5,5,6,6],"right_children":[2,4,6,-1,-1,8,10,-1,-1,-1,-1],"split_conditions":[7.52E1,7.92E1,8.21E1,8.5704036E-5,3.154532E-2,8.18E1,7.82E1,-5.0111515E-3,-3.165179E-2,1.9359045E-2,-8.5494416E-5],"split_indices":[8,5,8,0,0,8,4,0,0,0,0],"split_type":[0,0,0,0,0,0,0,0,0,0,0],"sum_hessian":[1.4582582E2,1.4857411E1,1.3096841E2,8.629595E0,6.227817E0,6.208327E1,6.888514E1,5.7043377E1,5.0398927E0,1.6047564E1,5.283758E1],"tree_param":{"num_deleted":"0","num_feature":"31","num_nodes":"11","size_leaf_vector":"1"}},{"base_weights":[-1.1398756E-2,-4.7282144E-1,8.60597E-2,-7.902838E-1,-1.00880414E-1,4.001596E-1,-1.6275812E-2,-3.3069815E-2,-7.812567E-3,1.1176645E-2,-1.9529296E-2,6.287751E-3,2.8806157E-2,-6.26091E-3,5.832445E-3],"categories":[],"categories_nodes":[],"categories_segments":[],"categories_sizes":[],"default_left":[0,0,1,0,0,1,0,0,0,0,0,0,0,0,0],"id":71,"left_children":[1,3,5,7,9,11,13,-1,-1,-1,-1,-1,-1,-1,-1],"loss_changes":[6.6615105E0,2.9699736E0,3.9409184E0,1.9926796E0,3.6385484E0,3.013156E0,3.822388E0,0E0,0E0,0E0,0E0,0E0,0E0,0E0,0E0],"parents":[2147483647,0,0,1,1,2,2,3,3,4,4,5,5,6,6],"right_children":[2,4,6,8,10,12,14,-1,-1,-1,-1,-1,-1,-1,-1],"split_conditions":[-8.2E0,3E0,7.85E1,7.1428573E-1,1.5829957E3,7.77E1,3.142857E0,-3.3069815E-2,-7.812567E-3,1.1176645E-2,-1.9529296E-2,6.287751E-3,2.8806157E-2,-6.26091E-3,5.832445E-3],"split_indices":[15,19,4,11,1,4,15,0,0,0,0,0,0,0,0],"split_type":[0,0,0,0,0,0,0,0,0,0,0,0,0,0,0],"sum_hessian":[1.4622897E2,2.4827976E1,1.21401E2,1.2788158E1,1.2039818E1,2.9118103E1,9.22829E1,7.36842E0,5.419738E0,6.6442504E0,5.395568E0,2.275086E1,6.3672423E0,4.8237576E1,4.4045322E1],"tree_param":{"num_deleted":"0","num_feature":"31","num_nodes":"15","size_leaf_vector":"1"}},{"base_weights":[-7.839534E-3,2.0438401E-2,-6.1635673E-2,3.5966778E-1,-1.17349505E-1,-3.4276247E-3,2.5119081E-2,-6.8354723E-3,4.07568E-3],"categories":[],"categories_nodes":[],"categories_segments":[],"categories_sizes":[],"default_left":[0,0,0,0,1,0,0,0,0],"id":72,"left_children":[1,-1,3,5,7,-1,-1,-1,-1],"loss_changes":[5.4515014E0,0E0,3.2407913E0,3.7540808E0,3.4194484E0,0E0,0E0,0E0,0E0],"parents":[2147483647,0,0,2,2,3,3,4,4],"right_children":[2,-1,4,6,8,-1,-1,-1,-1],"split_conditions":[1.402019E3,2.0438401E-2,7.52E1,7.91E1,8.44E1,-3.4276247E-3,2.5119081E-2,-6.8354723E-3,4.07568E-3],"split_indices":[1,0,8,5,8,0,0,0,0],"split_type":[0,0,0,0,0,0,0,0,0],"sum_hessian":[1.4491913E2,9.649285E0,1.3526985E2,1.5161815E1,1.2010803E2,7.992369E0,7.169446E0,8.368696E1,3.6421074E1],"tree_param":{"num_deleted":"0","num_feature":"31","num_nodes":"9","size_leaf_vector":"1"}},{"base_weights":[4.4402583E-3,7.1035914E-2,-4.5947474E-1,-6.516376E-2,3.178784E-1,-6.98106E-1,-9.6040807E-4,8.939627E-3,-6.269847E-3,2.5361758E-3,2.8039444E-2,-7.7947727E-3,-3.2312687E-2],"categories":[],"categories_nodes":[],"categories_segments":[],"categories_sizes":[],"default_left":[0,0,1,0,0,1,0,0,0,0,0,0,0],"id":73,"left_children":[1,3,5,7,9,11,-1,-1,-1,-1,-1,-1,-1],"loss_changes":[4.5614724E0,4.3594847E0,1.8683681E0,4.4495726E0,6.549528E0,1.6879344E0,0E0,0E0,0E0,0E0,0E0,0E0,0E0],"parents":[2147483647,0,0,1,1,2,2,3,3,4,4,5,5],"right_children":[2,4,6,8,10,12,-1,-1,-1,-1,-1,-1,-1],"split_conditions":[8.83E1,8.37E1,9.02E1,7.66E1,1.4949973E3,8.12E1,-9.6040807E-4,8.939627E-3,-6.269847E-3,2.5361758E-3,2.8039444E-2,-7.7947727E-3,-3.2312687E-2],"split_indices":[5,8,5,8,1,4,0,0,0,0,0,0,0],"split_type":[0,0,0,0,0,0,0,0,0,0,0,0,0],"sum_hessian":[1.455892E2,1.2805379E2,1.7535425E1,8.2995544E1,4.505824E1,1.0846946E1,6.6884794E0,2.3241806E1,5.975374E1,3.351555E1,1.154269E1,5.811618E0,5.0353284E0],"tree_param":{"num_deleted":"0","num_feature":"31","num_nodes":"13","size_leaf_vector":"1"}},{"base_weights":[6.129168E-2,5.6905526E-1,-1.6228575E-2,3.500452E-2,2.391108E-1,2.4161841E-1,-1.5806235E-1,-1.1429934E-2,1.9534733E-2,1.898648E-2,1.7918735E-3,1.5637958E-2,-6.8547325E-3],"categories":[],"categories_nodes":[],"categories_segments":[],"categories_sizes":[],"default_left":[0,0,0,0,0,1,0,0,0,0,0,0,0],"id":74,"left_children":[1,3,5,-1,7,9,11,-1,-1,-1,-1,-1,-1],"loss_changes":[5.788455E0,3.5618668E0,4.732067E0,0E0,3.7756727E0,3.2317514E0,4.1096034E0,0E0,0E0,0E0,0E0,0E0,0E0],"parents":[2147483647,0,0,1,1,2,2,4,4,5,5,6,6],"right_children":[2,4,6,-1,8,10,12,-1,-1,-1,-1,-1,-1],"split_conditions":[7.59E1,1.5347906E3,-3.3E0,3.500452E-2,7.92E1,7.84E1,7.52E1,-1.1429934E-2,1.9534733E-2,1.898648E-2,1.7918735E-3,1.5637958E-2,-6.8547325E-3],"split_indices":[8,1,14,0,5,4,7,0,0,0,0,0,0],"split_type":[0,0,0,0,0,0,0,0,0,0,0,0,0],"sum_hessian":[1.4582246E2,1.8474215E1,1.2734824E2,5.668379E0,1.2805836E1,4.4942112E1,8.2406136E1,5.142302E0,7.663534E0,1.3475437E1,3.1466675E1,7.139551E0,7.526658E1],"tree_param":{"num_deleted":"0","num_feature":"31","num_nodes":"13","size_leaf_vector":"1"}},{"base_weights":[6.2034586E-3,2.1779906E-2,-5.0887264E-2,1.5321477E-2,-5.697654E-1,-4.1690352E-3,6.826957E-3,-2.6962865E-2,2.2999286E-3],"categories":[],"categories_nodes":[],"categories_segments":[],"categories_sizes":[],"default_left":[0,0,0,0,1,0,0,0,0],"id":75,"left_children":[1,-1,3,5,7,-1,-1,-1,-1],"loss_changes":[6.0616016E0,0E0,4.707334E0,4.0354657E0,3.3659887E0,0E0,0E0,0E0,0E0],"parents":[2147483647,0,0,2,2,3,3,4,4],"right_children":[2,-1,4,6,8,-1,-1,-1,-1],"split_conditions":[7.52E1,2.1779906E-2,8.8333336E1,8.23E1,9.08E1,-4.1690352E-3,6.826957E-3,-2.6962865E-2,2.2999286E-3],"split_indices":[7,0,5,4,5,0,0,0,0],"split_type":[0,0,0,0,0,0,0,0,0],"sum_hessian":[1.4560844E2,9.839285E0,1.3576915E2,1.212661E2,1.4503057E1,7.041997E1,5.0846127E1,9.352703E0,5.1503534E0],"tree_param":{"num_deleted":"0","num_feature":"31","num_nodes":"9","size_leaf_vector":"1"}},{"base_weights":[1.9589808E-2,-6.1368513E-1,8.0800235E-2,-2.6584432E-2,-5.588006E-3,3.750883E-1,-1.569911E-2,5.743482E-3,3.0419473E-2,-8.871164E-3,4.701805E-3],"categories":[],"categories_nodes":[],"categories_segments":[],"categories_sizes":[],"default_left":[0,0,1,0,0,0,0,0,0,0,0],"id":76,"left_children":[1,3,5,-1,-1,7,9,-1,-1,-1,-1],"loss_changes":[5.706277E0,1.3463345E0,3.809932E0,0E0,0E0,3.6914277E0,4.9629326E0,0E0,0E0,0E0,0E0],"parents":[2147483647,0,0,1,1,2,2,5,5,6,6],"right_children":[2,4,6,-1,-1,8,10,-1,-1,-1,-1],"split_conditions":[-1.4132948E2,-5.3E0,7.81E1,-2.6584432E-2,-5.588006E-3,7.77E1,8.15E1,5.743482E-3,3.0419473E-2,-8.871164E-3,4.701805E-3],"split_indices":[2,6,4,0,0,4,4,0,0,0,0],"split_type":[0,0,0,0,0,0,0,0,0,0,0],"sum_hessian":[1.4493005E2,1.1978302E1,1.3295175E2,6.6597266E0,5.318575E0,3.2117634E1,1.00834114E2,2.595654E1,6.1610947E0,3.815629E1,6.2677822E1],"tree_param":{"num_deleted":"0","num_feature":"31","num_nodes":"11","size_leaf_vector":"1"}},{"base_weights":[-1.3775045E-2,-1.0399602E-1,3.4256914E-1,-2.4405885E-2,-6.443986E-2,2.3513546E-2,1.3104707E-1,-9.534347E-3,1.3018631E-3,-1.7259957E-2,1.1791701E-2],"categories":[],"categories_nodes":[],"categories_segments":[],"categories_sizes":[],"default_left":[0,0,0,0,0,0,0,0,0,0,0],"id":77,"left_children":[1,3,5,-1,7,-1,9,-1,-1,-1,-1],"loss_changes":[4.7374744E0,3.2444992E0,2.6765547E0,0E0,3.0835087E0,0E0,4.1739283E0,0E0,0E0,0E0,0E0],"parents":[2147483647,0,0,1,1,2,2,4,4,6,6],"right_children":[2,4,6,-1,8,-1,10,-1,-1,-1,-1],"split_conditions":[2.3333333E-1,7E0,3.9E0,-2.4405885E-2,-6.9629456E1,2.3513546E-2,8.34E1,-9.534347E-3,1.3018631E-3,-1.7259957E-2,1.1791701E-2],"split_indices":[12,17,13,0,2,0,4,0,0,0,0],"split_type":[0,0,0,0,0,0,0,0,0,0,0],"sum_hessian":[1.4524852E2,1.1646858E2,2.877993E1,5.1169786E0,1.113516E2,8.449531E0,2.03304E1,3.2661762E1,7.868984E1,5.177094E0,1.5153307E1],"tree_param":{"num_deleted":"0","num_feature":"31","num_nodes":"11","size_leaf_vector":"1"}},{"base_weights":[2.3365593E-2,-1.3318106E-2,2.2936365E-2,5.7146274E-2,-3.626208E-1,2.9922102E-3,-1.7356839E-2,-1.9479668E-2,4.6173586E-3],"categories":[],"categories_nodes":[],"categories_segments":[],"categories_sizes":[],"default_left":[0,0,0,0,0,0,0,0,0],"id":78,"left_children":[1,3,-1,5,7,-1,-1,-1,-1],"loss_changes":[3.9403164E0,3.434935E0,0E0,3.206594E0,3.5684233E0,0E0,0E0,0E0,0E0],"parents":[2147483647,0,0,1,1,3,3,4,4],"right_children":[2,4,-1,6,8,-1,-1,-1,-1],"split_conditions":[1.6530494E3,8.72E1,2.2936365E-2,1.6115078E3,1.6018463E3,2.9922102E-3,-1.7356839E-2,-1.9479668E-2,4.6173586E-3],"split_indices":[0,5,0,0,1,0,0,0,0],"split_type":[0,0,0,0,0,0,0,0,0],"sum_hessian":[1.435475E2,1.377136E2,5.833917E0,1.1529224E2,2.2421354E1,1.08842606E2,6.449635E0,1.4253096E1,8.168259E0],"tree_param":{"num_deleted":"0","num_feature":"31","num_nodes":"9","size_leaf_vector":"1"}},{"base_weights":[-2.0466875E-2,-6.270743E-1,3.8849473E-2,-2.9740484E-2,-5.0422475E-3,-8.102343E-2,2.3896918E-1,1.5519685E-3,-1.20700365E-2,2.8908381E-2,2.4046835E-3],"categories":[],"categories_nodes":[],"categories_segments":[],"categories_sizes":[],"default_left":[0,0,0,0,0,0,0,0,0,0,0],"id":79,"left_children":[1,3,5,-1,-1,7,9,-1,-1,-1,-1],"loss_changes":[5.387095E0,2.062841E0,3.2988045E0,0E0,0E0,3.6995206E0,5.845504E0,0E0,0E0,0E0,0E0],"parents":[2147483647,0,0,1,1,2,2,5,5,6,6],"right_children":[2,4,6,-1,-1,8,10,-1,-1,-1,-1],"split_conditions":[3.9876693E-1,-5.7E0,1.5287668E3,-2.9740484E-2,-5.0422475E-3,1.4967511E3,4E-1,1.5519685E-3,-1.20700365E-2,2.8908381E-2,2.4046835E-3],"split_indices":[3,6,0,0,0,0,11,0,0,0,0],"split_type":[0,0,0,0,0,0,0,0,0,0,0],"sum_hessian":[1.4804044E2,1.2333934E1,1.357065E2,6.2298994E0,6.1040344E0,8.524147E1,5.0465027E1,6.0913086E1,2.4328384E1,8.160791E0,4.2304237E1],"tree_param":{"num_deleted":"0","num_feature":"31","num_nodes":"11","size_leaf_vector":"1"}},{"base_weights":[-1.639578E-4,-5.2282583E-2,5.6423235E-1,-2.3452798E-2,-1.4287518E-2,2.794152E-2,1.7857782E-3,1.4062306E-2,-2.1668728E-3],"categories":[],"categories_nodes":[],"categories_segments":[],"categories_sizes":[],"default_left":[0,1,0,0,0,0,0,0,0],"id":80,"left_children":[1,3,5,-1,7,-1,-1,-1,-1],"loss_changes":[4.2981215E0,3.6962502E0,2.2335072E0,0E0,3.620703E0,0E0,0E0,0E0,0E0],"parents":[2147483647,0,0,1,1,2,2,4,4],"right_children":[2,4,6,-1,8,-1,-1,-1,-1],"split_conditions":[1.3330759E2,7.43E1,8.02E1,-2.3452798E-2,7.52E1,2.794152E-2,1.7857782E-3,1.4062306E-2,-2.1668728E-3],"split_indices":[2,5,5,0,8,0,0,0,0],"split_type":[0,0,0,0,0,0,0,0,0],"sum_hessian":[1.4411441E2,1.32762E2,1.1352412E1,5.6035056E0,1.2715849E2,6.082363E0,5.270049E0,1.2860099E1,1.1429839E2],"tree_param":{"num_deleted":"0","num_feature":"31","num_nodes":"9","size_leaf_vector":"1"}},{"base_weights":[-3.9852336E-2,2.3404043E-2,-5.1713026E-1,-4.837702E-2,3.4369302E-1,-2.3565978E-1,-2.9013041E-2,-2.6251832E-3,1.871924E-2,3.6659625E-5,2.6987048E-2,8.6704455E-3,-2.1495186E-2],"categories":[],"categories_nodes":[],"categories_segments":[],"categories_sizes":[],"default_left":[0,0,1,0,0,0,0,0,0,0,0,0,0],"id":81,"left_children":[1,3,5,7,9,11,-1,-1,-1,-1,-1,-1,-1],"loss_changes":[4.441059E0,3.016629E0,1.9519019E0,2.8820922E0,4.5703554E0,3.2118268E0,0E0,0E0,0E0,0E0,0E0,0E0,0E0],"parents":[2147483647,0,0,1,1,2,2,3,3,4,4,5,5],"right_children":[2,4,6,8,10,12,-1,-1,-1,-1,-1,-1,-1],"split_conditions":[8.83E1,8.61E1,8.4E1,1.6408202E3,8.27E1,-3.9454777E1,-2.9013041E-2,-2.6251832E-3,1.871924E-2,3.6659625E-5,2.6987048E-2,8.6704455E-3,-2.1495186E-2],"split_indices":[5,8,7,0,5,2,0,0,0,0,0,0,0],"split_type":[0,0,0,0,0,0,0,0,0,0,0,0,0],"sum_hessian":[1.4569853E2,1.2948775E2,1.621079E1,1.06474365E2,2.3013378E1,1.0909987E1,5.3008027E0,1.0144064E2,5.033726E0,1.4860265E1,8.153112E0,5.408002E0,5.5019855E0],"tree_param":{"num_deleted":"0","num_feature":"31","num_nodes":"13","size_leaf_vector":"1"}},{"base_weights":[1.8154088E-2,3.435855E-1,-1.0735291E-1,1.3516402E-1,8.536986E-1,-2.7323307E-2,-5.287051E-2,1.0883242E-2,-9.019725E-3,3.188386E-2,1.4766865E-2,1.1794022E-2,-3.912894E-3],"categories":[],"categories_nodes":[],"categories_segments":[],"categories_sizes":[],"default_left":[0,0,0,0,0,0,0,0,0,0,0,0,0],"id":82,"left_children":[1,3,5,7,9,-1,11,-1,-1,-1,-1,-1,-1],"loss_changes":[5.9702477E0,4.208584E0,4.574185E0,3.0910673E0,3.5427952E-1,0E0,3.5088873E0,0E0,0E0,0E0,0E0,0E0,0E0],"parents":[2147483647,0,0,1,1,2,2,3,3,4,4,6,6],"right_children":[2,4,6,8,10,-1,12,-1,-1,-1,-1,-1,-1],"split_conditions":[1.4647705E3,1.5287668E3,7.6E1,6.6342476E1,7.82E1,-2.7323307E-2,7.59E1,1.0883242E-2,-9.019725E-3,3.188386E-2,1.4766865E-2,1.1794022E-2,-3.912894E-3],"split_indices":[1,0,5,2,5,0,8,0,0,0,0,0,0],"split_type":[0,0,0,0,0,0,0,0,0,0,0,0,0],"sum_hessian":[1.442692E2,3.9669975E1,1.0459921E2,2.9061163E1,1.060881E1,5.6445813E0,9.8954636E1,1.9200949E1,9.860216E0,5.491804E0,5.1170063E0,1.4056121E1,8.489851E1],"tree_param":{"num_deleted":"0","num_feature":"31","num_nodes":"13","size_leaf_vector":"1"}},{"base_weights":[-4.7128484E-2,-9.982716E-2,5.437007E-1,3.5116538E-1,-1.5548684E-1,-2.881496E-5,2.8141264E-2,-1.2466381E-4,2.6038859E-2,-5.825079E-3,1.7321052E-2],"categories":[],"categories_nodes":[],"categories_segments":[],"categories_sizes":[],"default_left":[0,0,0,0,0,0,0,0,0,0,0],"id":83,"left_children":[1,3,5,7,9,-1,-1,-1,-1,-1,-1],"loss_changes":[4.687496E0,3.5052712E0,2.6515136E0,2.833053E0,3.6006048E0,0E0,0E0,0E0,0E0,0E0,0E0],"parents":[2147483647,0,0,1,1,2,2,3,3,4,4],"right_children":[2,4,6,8,10,-1,-1,-1,-1,-1,-1],"split_conditions":[7.632051E-1,7.52E1,5.7E0,1.5287668E3,8E0,-2.881496E-5,2.8141264E-2,-1.2466381E-4,2.6038859E-2,-5.825079E-3,1.7321052E-2],"split_indices":[3,8,13,0,19,0,0,0,0,0,0],"split_type":[0,0,0,0,0,0,0,0,0,0,0],"sum_hessian":[1.478063E2,1.3646538E2,1.1340915E1,1.4408528E1,1.22056854E2,5.18164E0,6.1592746E0,9.125972E0,5.2825565E0,1.16635506E2,5.4213495E0],"tree_param":{"num_deleted":"0","num_feature":"31","num_nodes":"11","size_leaf_vector":"1"}},{"base_weights":[1.5197942E-2,8.397503E-2,-4.6751308E-1,-4.223047E-2,3.8686258E-1,-2.2782207E-1,-2.5483888E-2,7.3142685E-3,-4.3330328E-3,